
\data\
ngram 1=6684
ngram 2=36833
ngram 3=7933

\1-grams:
-3.110297	!	-0.8708069
-4.308788	#	-0.1039241
-4.446595	$	-0.1039241
-4.446595	&	-0.1039241
-4.013329	'	-0.1039241
-4.308788	''	-0.2400013
-4.446595	'crease	-0.1039241
-4.446595	'fastest	-0.1039241
-4.446595	'll	-0.1039241
-4.446595	'm	-0.1039241
-4.308788	're	-0.1039241
-2.769857	's	-0.1652813
-4.446595	'seyeview	-0.1039241
-4.446595	(	-0.1039241
-4.446595	)	-0.1039241
-1.816832	,	-0.4446315
-3.141813	.	-0.1919109
-4.308788	..	-0.1039241
-4.446595	...	-0.1039241
-4.155971	1	-0.1039241
-4.308788	100	-0.1039241
-4.446595	104	-0.1039241
-4.446595	10lb	-0.1039241
-4.446595	11	-0.1039241
-4.308788	15	-0.1039241
-4.446595	17	-0.1039241
-4.446595	18	-0.1039241
-4.446595	181	-0.1039241
-4.308788	19	-0.1039241
-4.155971	2	-0.1039241
-4.155971	20	-0.1897541
-4.446595	23	-0.1039241
-4.446595	25	-0.1039241
-4.155971	3	-0.1039241
-4.446595	300	-0.1039241
-4.446595	3rd	-0.1039241
-4.308788	4	-0.1039241
-4.446595	4th	-0.1039241
-4.308788	5	-0.1039241
-4.446595	6	-0.1039241
-4.446595	8	-0.1039241
-4.446595	80s	-0.1039241
-4.446595	9	-0.1039241
-4.446595	:	-0.1039241
-4.013329	;	-0.1039241
-1.161306	</s>
-99	<s>	-1.36209
-4.155971	?	-0.3584815
-4.446595	]	-0.1039241
-3.053393	``	-0.2158593
-1.919273	a	-0.4066908
-4.446595	aa	-0.1039241
-4.446595	abacus	-0.1039241
-4.446595	abandoned	-0.1039241
-4.446595	abba	-0.1039241
-4.446595	abdomen	-0.1039241
-4.446595	abducted	-0.1039241
-4.446595	ableskeivers	-0.1039241
-4.446595	aboard	-0.1039241
-4.446595	abominable	-0.1039241
-4.446595	aboriginal	-0.1039241
-2.829268	about	-0.3010929
-3.158473	above	-0.4217143
-4.446595	abseiling	-0.1039241
-4.446595	absolutely	-0.1039241
-4.446595	ac	-0.1039241
-4.446595	acceleration	-0.1039241
-4.446595	accept	-0.1039241
-4.446595	accident	-0.1039241
-4.446595	accidentally	-0.1039241
-4.308788	accordion	-0.1039241
-4.446595	accused	-0.1039241
-4.308788	ache	-0.2400013
-4.446595	achieve	-0.1039241
-4.446595	acorns	-0.1039241
-4.446595	acreage	-0.1039241
-4.446595	acrobat	-0.1039241
-4.446595	acrobatic	-0.1039241
-4.308788	acrobatics	-0.1039241
-2.907539	across	-0.4867713
-4.155971	act	-0.1039241
-3.820228	acting	-0.2797598
-4.155971	action	-0.1039241
-4.308788	active	-0.1039241
-4.446595	activities	-0.1039241
-4.308788	activity	-0.1039241
-4.446595	actor	-0.1039241
-4.446595	actors	-0.1039241
-4.308788	actress	-0.2400013
-4.308788	acts	-0.2400013
-4.155971	actually	-0.1039241
-4.446595	adding	-0.1039241
-4.446595	adjust	-0.1039241
-4.446595	admires	-0.1039241
-4.155971	admiring	-0.1039241
-4.446595	adopt	-0.1039241
-4.446595	adorable	-0.1039241
-4.446595	adoring	-0.1039241
-4.446595	adorned	-0.1039241
-3.748541	adult	-0.1163986
-3.542081	adults	-0.1772589
-4.308788	adventure	-0.2400013
-4.446595	adventurous	-0.1039241
-4.155971	advertisement	-0.1039241
-4.155971	advertising	-0.1039241
-4.446595	aerial	-0.1039241
-4.446595	aerobics	-0.1039241
-4.446595	aeroplane	-0.1039241
-4.446595	affection	-0.1039241
-4.446595	affectionate	-0.1039241
-4.446595	afghan	-0.1039241
-4.155971	afloat	-0.3584815
-3.820228	afraid	-0.3329216
-4.155971	african	-0.1039241
-4.308788	africanamerican	-0.1039241
-4.446595	africanamericans	-0.1039241
-4.446595	africans	-0.1039241
-2.604475	after	-0.2912464
-4.446595	afterwards	-0.1039241
-4.155971	again	-0.1039241
-3.110297	against	-0.5211844
-4.446595	aged	-0.1039241
-4.446595	agency	-0.1039241
-4.308788	ages	-0.1039241
-4.446595	aggrivated	-0.1039241
-4.308788	agility	-0.1039241
-4.013329	ahead	-0.1039241
-4.446595	aimed	-0.1039241
-4.308788	aiming	-0.1039241
-3.252961	air	-0.2056378
-3.748541	airborne	-0.1549648
-4.446595	airconditioning	-0.1039241
-4.446595	aircraft	-0.1039241
-4.155971	airplane	-0.1039241
-4.155971	airport	-0.1897541
-4.446595	airpush	-0.1039241
-4.446595	airship	-0.1039241
-4.446595	aisan	-0.1039241
-4.446595	aisle	-0.1039241
-4.446595	alaska	-0.1039241
-4.446595	album	-0.1039241
-4.446595	alcatraz	-0.1039241
-4.446595	alcohol	-0.1039241
-4.446595	ale	-0.1039241
-4.308788	alert	-0.1039241
-4.013329	alien	-0.1341578
-3.373893	aliens	-0.6056585
-4.446595	aligators	-0.1039241
-4.446595	alike	-0.1039241
-4.308788	alive	-0.1039241
-2.958011	all	-0.2545524
-4.446595	alley	-0.1039241
-4.308788	alligator	-0.1039241
-4.446595	alligators	-0.1039241
-4.446595	allow	-0.1039241
-4.446595	allowed	-0.1039241
-4.446595	allows	-0.1039241
-4.013329	almost	-0.1039241
-3.373893	alone	-0.3679331
-2.968849	along	-0.5781306
-3.906133	alongside	-0.3174787
-4.446595	alphabets	-0.1039241
-4.308788	already	-0.1039241
-4.446595	alright	-0.1039241
-4.308788	also	-0.1039241
-4.446595	alters	-0.1039241
-3.748541	although	-0.2387836
-4.446595	always	-0.1039241
-4.446595	am	-0.1039241
-4.446595	amazed	-0.1039241
-4.446595	amazement	-0.1039241
-4.446595	amazing	-0.1039241
-4.446595	ambling	-0.1039241
-4.446595	ambulance	-0.1039241
-4.446595	america	-0.1039241
-3.748541	american	-0.3479281
-4.308788	amid	-0.1039241
-4.013329	amidst	-0.2382975
-4.446595	amish	-0.1039241
-4.446595	amnesty	-0.1039241
-3.542081	among	-0.1847779
-4.446595	amongst	-0.1039241
-4.446595	amuse	-0.1039241
-3.820228	amused	-0.1039241
-4.446595	amuseing	-0.1039241
-4.155971	amusement	-0.1897541
-4.446595	amuses	-0.1039241
-4.446595	amusment	-0.1039241
-2.609243	an	-0.2741964
-4.446595	ancestors	-0.1039241
-4.155971	ancient	-0.1039241
-1.865039	and	-0.3415986
-4.446595	angel	-0.1039241
-4.013329	angels	-0.2795683
-4.308788	anger	-0.1039241
-4.446595	angle	-0.1039241
-4.446595	angles	-0.1039241
-3.748541	angry	-0.1039241
-3.50283	animal	-0.1416313
-3.50283	animals	-0.2895133
-4.446595	anime	-0.1039241
-4.308788	ankle	-0.1039241
-4.446595	ankles	-0.1039241
-4.446595	anniversary	-0.1039241
-4.446595	announcing	-0.1039241
-4.446595	annoy	-0.1039241
-4.308788	annoyed	-0.1039241
-4.446595	annoys	-0.1039241
-2.92703	another	-0.3164756
-4.446595	ans	-0.1039241
-4.446595	answer	-0.1039241
-4.446595	answering	-0.1039241
-4.446595	ant	-0.1039241
-4.446595	antarctic	-0.1039241
-4.446595	antelope	-0.1039241
-4.446595	antenna	-0.1039241
-4.446595	anthem	-0.1039241
-4.446595	anther	-0.1039241
-4.446595	anticipates	-0.1039241
-4.446595	anticipation	-0.1039241
-4.446595	antitax	-0.1039241
-4.446595	antoher	-0.1039241
-3.820228	ants	-0.3844255
-4.446595	anxiety	-0.1039241
-4.155971	anxiously	-0.3584815
-4.308788	any	-0.1039241
-4.446595	anybody	-0.1039241
-4.155971	anyone	-0.1039241
-4.155971	anything	-0.1039241
-4.446595	anywhere	-0.1039241
-4.155971	apart	-0.1039241
-4.446595	apartments	-0.1039241
-4.446595	apex	-0.1039241
-4.446595	apparantly	-0.1039241
-4.446595	apparatus	-0.1039241
-4.013329	appear	-0.1666548
-4.155971	appearing	-0.1039241
-4.446595	appears	-0.1039241
-4.446595	applause	-0.1039241
-4.308788	apple	-0.1039241
-4.155971	apples	-0.1039241
-4.446595	appointment	-0.1039241
-4.446595	appreciate	-0.1039241
-4.446595	approach	-0.1039241
-4.308788	approaches	-0.1039241
-4.155971	approaching	-0.1897541
-4.155971	apron	-0.1039241
-4.446595	aproned	-0.1039241
-4.446595	aquagames	-0.1039241
-4.446595	aquarium	-0.1039241
-4.308788	arcade	-0.1039241
-4.308788	arch	-0.1039241
-4.446595	archaic	-0.1039241
-4.446595	arched	-0.1039241
-4.446595	architectural	-0.1039241
-4.446595	archway	-0.1039241
-4.446595	archways	-0.1039241
-2.329267	are	-0.3597857
-3.125769	area	-0.2964814
-4.308788	arguing	-0.1039241
-4.446595	argument	-0.1039241
-4.446595	ariel	-0.1039241
-4.446595	arithmetic	-0.1039241
-3.542081	arm	-0.1663272
-4.446595	armadillo	-0.1039241
-4.446595	armbands	-0.1039241
-4.446595	armenian	-0.1039241
-4.308788	armpits	-0.2400013
-3.373893	arms	-0.1815024
-4.446595	armstrong	-0.1039241
-4.446595	armwrestling	-0.1039241
-4.013329	army	-0.1039241
-2.742946	around	-0.4587191
-4.446595	arrangement	-0.1039241
-4.308788	arriving	-0.1039241
-4.446595	arrogant	-0.1039241
-4.446595	arrow	-0.1039241
-3.906133	art	-0.1039241
-4.446595	artichoke	-0.1039241
-4.446595	articles	-0.1039241
-4.308788	artificial	-0.1039241
-4.155971	artist	-0.1039241
-4.446595	artistic	-0.1039241
-4.446595	arts	-0.1039241
-4.446595	artwork	-0.1039241
-2.377106	as	-0.4667033
-4.446595	ascend	-0.1039241
-4.446595	ascending	-0.1039241
-4.446595	ashy	-0.1039241
-3.820228	asian	-0.2083667
-4.308788	asked	-0.1039241
-3.820228	asking	-0.1447222
-4.446595	asks	-0.1039241
-3.748541	asleep	-0.2387836
-4.308788	asphalt	-0.1039241
-4.308788	aspiring	-0.2400013
-4.446595	assailant	-0.1039241
-4.446595	assemble	-0.1039241
-4.446595	assembling	-0.1039241
-4.446595	assignment	-0.1039241
-4.446595	assist	-0.1039241
-4.155971	assistance	-0.1039241
-4.446595	assisting	-0.1039241
-4.446595	asteroid	-0.1039241
-4.446595	astonishment	-0.1039241
-4.308788	astride	-0.2400013
-4.308788	astronauts	-0.2400013
-2.105983	at	-0.6059459
-3.633156	ate	-0.1306927
-4.446595	athlet	-0.1039241
-4.446595	athlete	-0.1039241
-4.308788	athletes	-0.1039241
-4.446595	athletic	-0.1039241
-4.446595	atlantic	-0.1039241
-4.446595	atlantis	-0.1039241
-4.308788	atm	-0.1039241
-4.013329	atop	-0.4834202
-4.446595	atrium	-0.1039241
-3.748541	attached	-0.5226064
-4.446595	attaches	-0.1039241
-3.906133	attack	-0.2382975
-4.446595	attacked	-0.1039241
-4.155971	attacking	-0.3584815
-4.446595	attacks	-0.1039241
-3.542081	attempt	-0.4295672
-2.947436	attempting	-0.9047263
-3.542081	attempts	-0.4295672
-4.446595	attending	-0.1039241
-3.687028	attention	-0.2967755
-4.446595	attentively	-0.1039241
-4.446595	attire	-0.1039241
-4.446595	attitude	-0.1039241
-4.446595	attract	-0.1039241
-4.446595	attracted	-0.1039241
-4.446595	attracting	-0.1039241
-4.446595	attraction	-0.1039241
-4.446595	attractive	-0.1039241
-4.446595	attributes	-0.1039241
-4.308788	atv	-0.1039241
-4.013329	audience	-0.2797599
-4.446595	audition	-0.1039241
-4.446595	australian	-0.1039241
-4.446595	authorities	-0.1039241
-4.446595	autograph	-0.1039241
-4.446595	autographs	-0.1039241
-4.446595	automatic	-0.1039241
-4.155971	autumn	-0.1039241
-4.446595	avail	-0.1039241
-4.308788	avalanche	-0.1897541
-4.446595	avenge	-0.1039241
-4.013329	avoid	-0.1372763
-4.446595	avoiders	-0.1039241
-4.013329	avoiding	-0.1039241
-4.446595	avoids	-0.1039241
-4.308788	await	-0.1039241
-3.820228	awaiting	-0.1039241
-4.308788	awaits	-0.1039241
-4.155971	award	-0.1039241
-4.308788	awards	-0.2400013
-4.446595	aware	-0.1039241
-4.446595	awareness	-0.1039241
-3.053393	away	-0.4406446
-4.308788	awe	-0.1039241
-4.446595	awesome	-0.1039241
-4.446595	awhile	-0.1039241
-4.446595	awning	-0.1039241
-4.446595	babes	-0.1039241
-4.308788	babies	-0.1039241
-3.297379	baby	-0.2009551
-4.446595	babysitter	-0.1039241
-3.015129	back	-0.3031933
-4.446595	backbend	-0.1039241
-4.446595	backbones	-0.1039241
-4.308788	backdrop	-0.1039241
-3.633156	background	-0.136704
-3.585236	backpack	-0.1815024
-4.446595	backpacker	-0.1039241
-3.906133	backpacks	-0.1039241
-4.155971	backs	-0.1039241
-4.446595	backside	-0.1039241
-4.446595	backstand	-0.1039241
-4.308788	backstroke	-0.1039241
-4.446595	backtoback	-0.1039241
-4.446595	backward	-0.1039241
-3.906133	backwards	-0.1533628
-4.013329	backyard	-0.1341578
-4.155971	bacon	-0.3584815
-4.013329	bad	-0.1341578
-4.446595	badly	-0.1039241
-4.308788	badminton	-0.2400013
-3.232347	bag	-0.1690726
-4.446595	bagpipe	-0.1039241
-4.446595	bagpipers	-0.1039241
-4.446595	bagpipes	-0.1039241
-3.50283	bags	-0.1362502
-4.446595	baked	-0.1039241
-4.446595	baking	-0.1039241
-3.820228	balance	-0.212813
-4.308788	balanced	-0.1039241
-4.155971	balances	-0.1666548
-3.906133	balancing	-0.2128131
-4.308788	balcony	-0.1039241
-4.155971	bald	-0.1447222
-4.446595	balding	-0.1039241
-4.446595	bale	-0.1039241
-2.871001	ball	-0.3815823
-4.446595	ballerina	-0.1039241
-4.155971	ballerinas	-0.1039241
-4.308788	ballet	-0.1039241
-4.446595	ballon	-0.1039241
-3.687028	balloon	-0.1306927
-3.820228	balloons	-0.1897541
-3.585236	balls	-0.1486285
-4.446595	ballshaped	-0.1039241
-4.308788	banana	-0.2400013
-3.906133	bananas	-0.3764783
-3.748541	band	-0.138654
-4.446595	bandage	-0.1039241
-4.155971	bandanna	-0.1039241
-4.446595	bang	-0.1039241
-4.446595	bangles	-0.1039241
-4.446595	bangs	-0.1039241
-4.446595	banishment	-0.1039241
-4.446595	banjo	-0.1039241
-4.155971	bank	-0.1039241
-4.155971	banner	-0.1039241
-4.446595	banners	-0.1039241
-4.446595	banning	-0.1039241
-3.748541	bar	-0.120942
-4.308788	barbed	-0.2400013
-4.446595	barbeque	-0.1039241
-4.446595	barber	-0.1039241
-4.308788	bare	-0.1039241
-4.446595	barechested	-0.1039241
-3.687028	barefoot	-0.2049899
-4.308788	barefooted	-0.1039241
-4.446595	barely	-0.1039241
-4.446595	bares	-0.1039241
-4.446595	baring	-0.1039241
-3.748541	barking	-0.3307208
-4.155971	barks	-0.1039241
-4.308788	barn	-0.1039241
-4.013329	barrel	-0.1039241
-4.446595	barricade	-0.1039241
-4.308788	barrier	-0.1039241
-4.308788	bars	-0.2400013
-4.446595	bart	-0.1039241
-3.820228	base	-0.138654
-3.346863	baseball	-0.1998471
-3.748541	basket	-0.1847779
-3.402719	basketball	-0.2031184
-4.308788	basking	-0.2400013
-4.446595	bass	-0.1039241
-3.820228	bat	-0.1599167
-3.633156	bath	-0.2798365
-3.633156	bathing	-0.5393275
-4.308788	bathrobe	-0.1039241
-4.446595	bathroom	-0.1039241
-4.308788	bathtub	-0.1039241
-4.155971	batman	-0.1039241
-4.446595	baton	-0.1039241
-4.446595	batons	-0.1039241
-4.308788	bats	-0.1039241
-4.308788	batter	-0.1039241
-4.446595	batteries	-0.1039241
-4.446595	batting	-0.1039241
-4.013329	battle	-0.1666548
-4.446595	battling	-0.1039241
-4.446595	bay	-0.1039241
-4.446595	bcause	-0.1039241
-3.466834	be	-0.119367
-3.466834	beach	-0.209958
-4.155971	beads	-0.1039241
-4.446595	beagle	-0.1039241
-4.013329	beam	-0.1039241
-4.446595	beams	-0.1039241
-4.446595	bean	-0.1039241
-4.446595	beans	-0.1039241
-4.155971	bear	-0.2382975
-3.687028	beard	-0.1825149
-4.446595	bearded	-0.1039241
-4.446595	bearer	-0.1039241
-4.155971	bearing	-0.1897541
-3.906133	bears	-0.3844255
-4.308788	beast	-0.2400013
-4.446595	beat	-0.1039241
-4.155971	beating	-0.1039241
-3.748541	beautiful	-0.1257013
-3.820228	beauty	-0.3174787
-3.906133	became	-0.1039241
-4.446595	becaming	-0.1039241
-3.080914	because	-0.4052203
-4.446595	becaused	-0.1039241
-4.308788	become	-0.1279403
-4.446595	becomes	-0.1039241
-4.446595	becoming	-0.1039241
-4.446595	becuse	-0.1039241
-3.50283	bed	-0.1540741
-4.446595	bedbugs	-0.1039241
-4.446595	bedroom	-0.1039241
-4.446595	bedspread	-0.1039241
-4.155971	bee	-0.1039241
-4.308788	been	-0.1039241
-3.906133	beer	-0.1039241
-4.446595	beers	-0.1039241
-4.013329	bees	-0.2795683
-2.791195	before	-0.2639106
-4.446595	befriending	-0.1039241
-4.446595	beg	-0.1039241
-4.308788	began	-0.2400013
-4.155971	begging	-0.1039241
-4.308788	begin	-0.1039241
-4.013329	beginning	-0.1666548
-4.155971	begins	-0.1897541
-4.446595	begs	-0.1039241
-2.783965	behind	-0.5261455
-4.446595	behinds	-0.1039241
-4.308788	beige	-0.1039241
-3.080914	being	-0.1906846
-4.446595	believe	-0.1039241
-4.308788	bellies	-0.1039241
-3.906133	belly	-0.1533628
-4.446595	belong	-0.1039241
-4.308788	belongings	-0.1039241
-3.687028	below	-0.234079
-4.446595	belt	-0.1039241
-4.446595	belts	-0.1039241
-3.466834	bench	-0.2022211
-4.446595	benches	-0.1039241
-4.155971	bend	-0.1897541
-4.308788	bending	-0.1039241
-4.446595	bends	-0.1039241
-4.013329	beneath	-0.2795683
-4.155971	bent	-0.1039241
-4.446595	bermuda	-0.1039241
-4.446595	bernard	-0.1039241
-3.080914	beside	-0.5574253
-4.446595	bespectacled	-0.1039241
-3.542081	best	-0.2078994
-4.308788	bet	-0.1039241
-4.446595	bets	-0.1039241
-3.748541	better	-0.3116498
-4.308788	betting	-0.1039241
-4.446595	betty	-0.1039241
-3.321417	between	-0.1769868
-4.155971	bib	-0.1039241
-3.274602	bicycle	-0.1712311
-4.446595	bicyclecross	-0.1039241
-4.446595	bicycler	-0.1039241
-3.687028	bicycles	-0.1039241
-4.446595	bicyclist	-0.1039241
-3.906133	bicyclists	-0.1764044
-4.446595	biek	-0.1039241
-3.402719	big	-0.1372384
-3.687028	bigfoot	-0.5805983
-4.155971	bigger	-0.1039241
-4.446595	biggest	-0.1039241
-3.158473	bike	-0.2653031
-3.542081	biker	-0.1725139
-4.013329	bikers	-0.1039241
-3.50283	bikes	-0.1829265
-3.748541	biking	-0.2017815
-3.820228	bikini	-0.1829265
-4.308788	bikinis	-0.1039241
-4.308788	bill	-0.1039241
-4.308788	billboard	-0.1039241
-4.446595	billboards	-0.1039241
-4.308788	billowing	-0.1039241
-4.446595	bills	-0.1039241
-4.308788	bin	-0.1039241
-4.446595	bind	-0.1039241
-4.308788	binocular	-0.2400013
-4.308788	binoculars	-0.1039241
-4.446595	biohazard	-0.1039241
-3.297379	bird	-0.2638572
-3.466834	birds	-0.3077004
-4.446595	birdseed	-0.1039241
-4.446595	birth	-0.1039241
-4.308788	birthday	-0.1039241
-4.013329	bit	-0.1039241
-4.446595	bitch	-0.1039241
-4.155971	bite	-0.1039241
-4.308788	bites	-0.1039241
-3.542081	biting	-0.219291
-4.446595	bits	-0.1039241
-4.446595	bitten	-0.1039241
-2.862327	black	-0.249807
-4.446595	blackandwhite	-0.1039241
-4.446595	blackhaired	-0.1039241
-4.446595	blacking	-0.1039241
-4.446595	blackshirt	-0.1039241
-4.446595	blacktshirt	-0.1039241
-4.446595	blacky	-0.1039241
-4.446595	blackyellow	-0.1039241
-4.446595	blair	-0.1039241
-4.446595	blame	-0.1039241
-4.446595	bland	-0.1039241
-4.446595	blanker	-0.1039241
-3.820228	blanket	-0.138654
-4.446595	blankets	-0.1039241
-4.446595	blast	-0.1039241
-4.446595	blasting	-0.1039241
-4.446595	blatantly	-0.1039241
-4.446595	bleach	-0.1039241
-4.446595	bleached	-0.1039241
-4.308788	bleachers	-0.1039241
-4.446595	bleck	-0.1039241
-4.446595	blender	-0.1039241
-4.446595	blending	-0.1039241
-4.446595	blimp	-0.1039241
-4.308788	blind	-0.1039241
-4.446595	blinded	-0.1039241
-4.446595	blinders	-0.1039241
-4.446595	blindfolds	-0.1039241
-4.308788	blinding	-0.1039241
-4.446595	blingfolded	-0.1039241
-4.446595	blisters	-0.1039241
-4.446595	blitz	-0.1039241
-4.155971	block	-0.1039241
-4.446595	blocking	-0.1039241
-4.155971	blocks	-0.1039241
-3.50283	blond	-0.2627108
-3.542081	blonde	-0.3003004
-4.446595	blondehaired	-0.1039241
-4.446595	blondhair	-0.1039241
-4.446595	blood	-0.1039241
-4.446595	blossoms	-0.1039241
-4.446595	blouse	-0.1039241
-4.446595	blouses	-0.1039241
-4.155971	blow	-0.1039241
-4.446595	blower	-0.1039241
-3.50283	blowing	-0.2316166
-4.013329	blows	-0.1039241
-4.446595	blowup	-0.1039241
-3.04026	blue	-0.2049243
-4.446595	blueberry	-0.1039241
-4.446595	blueheadscarf	-0.1039241
-4.446595	bluerobed	-0.1039241
-4.446595	blues	-0.1039241
-4.446595	bluff	-0.1039241
-4.446595	blurred	-0.1039241
-4.155971	blurry	-0.1039241
-4.446595	blushes	-0.1039241
-4.446595	bms	-0.1039241
-4.446595	bmw	-0.1039241
-3.906133	bmx	-0.2593344
-4.446595	bo	-0.1039241
-4.446595	boa	-0.1039241
-3.373893	board	-0.1809311
-4.308788	boarder	-0.1039241
-4.013329	boarding	-0.1039241
-4.308788	boards	-0.1039241
-4.013329	boardwalk	-0.1447222
-4.446595	boart	-0.1039241
-3.232347	boat	-0.2051868
-3.748541	boats	-0.138654
-4.446595	bobbing	-0.1039241
-4.446595	bobbles	-0.1039241
-4.308788	bodies	-0.1039241
-3.633156	body	-0.1774346
-4.446595	bog	-0.1039241
-4.446595	bohemians	-0.1039241
-4.446595	bombing	-0.1039241
-3.433594	bone	-0.4496109
-4.446595	bonefish	-0.1039241
-3.274602	bones	-0.5583586
-4.446595	bonnets	-0.1039241
-4.446595	boobs	-0.1039241
-4.446595	booger	-0.1039241
-4.446595	boogers	-0.1039241
-4.013329	boogie	-0.1666548
-4.446595	booing	-0.1039241
-3.820228	book	-0.1841869
-4.446595	booked	-0.1039241
-4.446595	booklets	-0.1039241
-4.308788	books	-0.1039241
-4.446595	bookstore	-0.1039241
-4.308788	boom	-0.1039241
-4.446595	boot	-0.1039241
-4.446595	booth	-0.1039241
-3.542081	boots	-0.2225665
-4.446595	booty	-0.1039241
-4.308788	border	-0.2400013
-3.687028	bored	-0.2049899
-4.446595	boredom	-0.1039241
-4.308788	boring	-0.1039241
-4.446595	boringly	-0.1039241
-4.446595	born	-0.1039241
-4.155971	boss	-0.1897541
-4.446595	bossy	-0.1039241
-3.373893	both	-0.1627411
-4.308788	botteld	-0.1039241
-3.820228	bottle	-0.1734045
-4.446595	bottles	-0.1039241
-4.013329	bottom	-0.2382975
-4.308788	bottoms	-0.1039241
-4.446595	bought	-0.1039241
-4.446595	boulder	-0.1039241
-3.906133	bounce	-0.1533628
-4.446595	bounced	-0.1039241
-4.155971	bounces	-0.1039241
-4.013329	bouncing	-0.1533628
-4.308788	bouncy	-0.1039241
-4.308788	bound	-0.1039241
-4.446595	boundle	-0.1039241
-4.446595	bounds	-0.1039241
-4.446595	bouquet	-0.1039241
-4.308788	bow	-0.1039241
-4.155971	bowl	-0.1039241
-4.446595	bowler	-0.1039241
-4.155971	bowling	-0.1039241
-4.155971	bowls	-0.1039241
-4.446595	bows	-0.1039241
-3.748541	box	-0.2049899
-4.446595	boxer	-0.1039241
-4.446595	boxers	-0.1039241
-4.308788	boxes	-0.1039241
-4.155971	boxing	-0.1039241
-2.937113	boy	-0.2853952
-4.446595	boyfiend	-0.1039241
-4.308788	boyfriend	-0.1897541
-4.308788	boyfriends	-0.2400013
-3.232347	boys	-0.273218
-4.446595	bracelet	-0.1039241
-4.446595	braces	-0.1039241
-4.446595	brag	-0.1039241
-4.446595	braid	-0.1039241
-4.446595	braids	-0.1039241
-4.155971	brakes	-0.1039241
-4.155971	branch	-0.195484
-4.308788	branches	-0.1039241
-4.446595	brandy	-0.1039241
-4.446595	bras	-0.1039241
-4.446595	brat	-0.1039241
-4.013329	bravely	-0.1039241
-4.446595	brazilian	-0.1039241
-3.748541	break	-0.1472957
-4.446595	breakdown	-0.1039241
-4.308788	breakfast	-0.2400013
-3.820228	breaking	-0.138654
-4.155971	breaks	-0.1039241
-4.013329	breath	-0.1666548
-4.446595	breathe	-0.1039241
-4.308788	breathing	-0.1039241
-4.446595	breeds	-0.1039241
-4.308788	breeze	-0.1039241
-4.446595	breezeway	-0.1039241
-4.446595	breezy	-0.1039241
-4.446595	breweries	-0.1039241
-3.633156	brick	-0.1841869
-3.906133	bride	-0.1039241
-4.446595	brides	-0.1039241
-4.446595	bridesmaids	-0.1039241
-3.50283	bridge	-0.1937115
-4.446595	briefcases	-0.1039241
-4.308788	briefly	-0.1039241
-4.446595	brigade	-0.1039241
-3.820228	bright	-0.120942
-4.013329	brightly	-0.1666548
-4.446595	brighty	-0.1039241
-4.446595	brindle	-0.1039241
-4.308788	bring	-0.1039241
-4.155971	bringing	-0.1039241
-4.308788	brings	-0.1039241
-4.308788	british	-0.1039241
-4.446595	broccoli	-0.1039241
-4.308788	broke	-0.2400013
-3.748541	broken	-0.1039241
-4.446595	bromance	-0.1039241
-4.446595	bronze	-0.1039241
-4.446595	brook	-0.1039241
-4.446595	broom	-0.1039241
-4.446595	brooms	-0.1039241
-3.820228	brother	-0.1829265
-4.308788	brothers	-0.1039241
-3.906133	brought	-0.1039241
-4.446595	brow	-0.1039241
-2.879851	brown	-0.3620679
-4.446595	brownandwhite	-0.1039241
-4.446595	browneyed	-0.1039241
-4.308788	brownish	-0.1039241
-4.446595	browny	-0.1039241
-4.446595	browses	-0.1039241
-4.308788	bruises	-0.2400013
-4.446595	brunch	-0.1039241
-4.155971	brunette	-0.1897541
-4.155971	brush	-0.1039241
-4.446595	brushed	-0.1039241
-4.446595	brushes	-0.1039241
-4.308788	brushland	-0.1039241
-3.906133	bubble	-0.1341578
-3.585236	bubbles	-0.2158027
-4.446595	bubbly	-0.1039241
-3.906133	bucket	-0.1039241
-4.155971	buckets	-0.1039241
-4.308788	buddy	-0.1039241
-4.446595	bug	-0.1039241
-4.308788	bugs	-0.2400013
-4.446595	build	-0.1039241
-3.080914	building	-0.3472726
-3.748541	buildings	-0.1829265
-4.446595	bulb	-0.1039241
-3.820228	bull	-0.1599167
-4.446595	bulldogs	-0.1039241
-4.446595	bullet	-0.1039241
-4.446595	bullfighting	-0.1039241
-4.446595	bullied	-0.1039241
-4.446595	bullock	-0.1039241
-4.446595	bullrun	-0.1039241
-4.013329	bulls	-0.2795683
-4.446595	bum	-0.1039241
-4.446595	bumblebee	-0.1039241
-4.308788	bump	-0.1039241
-4.446595	bumped	-0.1039241
-4.308788	bumps	-0.1039241
-4.446595	bumpy	-0.1039241
-4.446595	bun	-0.1039241
-4.446595	bunch	-0.1039241
-4.446595	bundle	-0.1039241
-4.446595	bundled	-0.1039241
-4.446595	bundles	-0.1039241
-3.906133	bungee	-0.1447222
-4.446595	bungie	-0.1039241
-4.446595	bunion	-0.1039241
-4.446595	bunnies	-0.1039241
-3.820228	bunny	-0.2659748
-4.446595	bunyan	-0.1039241
-4.446595	buoy	-0.1039241
-4.446595	buoys	-0.1039241
-4.446595	burger	-0.1039241
-4.155971	burgers	-0.1897541
-4.446595	burglarized	-0.1039241
-4.446595	burgundy	-0.1039241
-3.906133	buried	-0.1897541
-4.446595	burka	-0.1039241
-4.446595	burly	-0.1039241
-4.446595	burned	-0.1039241
-4.013329	burning	-0.1039241
-4.308788	burns	-0.1039241
-4.446595	burp	-0.1039241
-4.308788	burping	-0.1039241
-4.446595	burps	-0.1039241
-4.446595	burrows	-0.1039241
-4.446595	bury	-0.1039241
-3.687028	bus	-0.1793166
-4.446595	buses	-0.1039241
-4.308788	bush	-0.1039241
-4.446595	bushels	-0.1039241
-3.906133	bushes	-0.1039241
-4.446595	bushy	-0.1039241
-4.308788	business	-0.1039241
-4.446595	busquits	-0.1039241
-4.446595	bust	-0.1039241
-4.446595	busted	-0.1039241
-4.013329	busy	-0.1659344
-3.015129	but	-0.2276867
-4.446595	butler	-0.1039241
-4.013329	butt	-0.1533628
-4.013329	butter	-0.3764783
-4.155971	butterflies	-0.3584815
-4.308788	butterfly	-0.1039241
-4.446595	butting	-0.1039241
-4.446595	buttinski	-0.1039241
-3.906133	button	-0.1533628
-4.446595	butts	-0.1039241
-4.013329	buy	-0.1039241
-4.446595	buying	-0.1039241
-4.446595	buzzing	-0.1039241
-2.363281	by	-0.3991953
-4.446595	bycicle	-0.1039241
-4.446595	bycycle	-0.1039241
-4.446595	byte	-0.1039241
-3.687028	ca	-0.7844502
-4.155971	cable	-0.1039241
-4.446595	cacti	-0.1039241
-4.446595	cactus	-0.1039241
-4.446595	caerfully	-0.1039241
-4.308788	cafe	-0.1039241
-4.308788	cage	-0.1039241
-4.446595	caged	-0.1039241
-3.687028	cake	-0.253476
-4.446595	cakes	-0.1039241
-4.446595	calamity	-0.1039241
-4.446595	calculus	-0.1039241
-4.446595	calico	-0.1039241
-4.446595	california	-0.1039241
-4.013329	call	-0.1039241
-4.013329	called	-0.1039241
-3.542081	calling	-0.1257013
-4.308788	calm	-0.1039241
-4.308788	calmly	-0.1039241
-4.446595	calorie	-0.1039241
-4.446595	calories	-0.1039241
-4.446595	cam	-0.1039241
-4.446595	camcorder	-0.1039241
-4.155971	came	-0.1897541
-4.155971	camel	-0.1039241
-4.013329	camels	-0.1039241
-3.212667	camera	-0.2494163
-4.446595	cameraless	-0.1039241
-4.446595	cameraman	-0.1039241
-4.155971	cameras	-0.1039241
-3.906133	camouflage	-0.1447222
-4.155971	camp	-0.1666548
-4.446595	campaigning	-0.1039241
-4.446595	camper	-0.1039241
-4.446595	campfire	-0.1039241
-4.446595	campground	-0.1039241
-3.906133	camping	-0.1039241
-4.308788	campsite	-0.1039241
-4.308788	campus	-0.1039241
-3.125769	can	-0.1806487
-4.446595	canada	-0.1039241
-4.446595	canal	-0.1039241
-4.308788	candies	-0.2400013
-4.155971	candles	-0.1039241
-3.50283	candy	-0.4559278
-4.446595	cane	-0.1039241
-4.446595	canned	-0.1039241
-4.446595	cannon	-0.1039241
-4.446595	cannonball	-0.1039241
-4.446595	cannonballs	-0.1039241
-4.013329	canoe	-0.1592202
-4.155971	canoes	-0.1039241
-4.308788	cans	-0.1039241
-4.446595	cant	-0.1039241
-4.446595	canvas	-0.1039241
-4.446595	canvass	-0.1039241
-4.308788	canyon	-0.1039241
-3.252961	cap	-0.2021516
-4.308788	cape	-0.1039241
-4.446595	capes	-0.1039241
-4.308788	caps	-0.1039241
-4.446595	capsizing	-0.1039241
-4.308788	captain	-0.1039241
-4.446595	captive	-0.1039241
-4.446595	capture	-0.1039241
-4.308788	captured	-0.1039241
-3.080914	car	-0.218803
-4.446595	caramel	-0.1039241
-4.308788	card	-0.1039241
-4.013329	cardboard	-0.1533628
-4.446595	cardigan	-0.1039241
-4.308788	cards	-0.1039241
-3.748541	care	-0.1829265
-4.308788	careful	-0.1039241
-3.212667	carefully	-0.2607723
-4.013329	carnival	-0.1039241
-4.446595	carnivalyet	-0.1039241
-4.446595	carnivorous	-0.1039241
-4.446595	carols	-0.1039241
-4.446595	carousel	-0.1039241
-3.748541	carpet	-0.1279404
-4.446595	carpeted	-0.1039241
-4.308788	carriage	-0.1039241
-4.155971	carried	-0.1039241
-4.446595	carrier	-0.1039241
-3.542081	carries	-0.3590177
-4.446595	carring	-0.1039241
-4.446595	carrots	-0.1039241
-4.013329	carry	-0.1533628
-3.053393	carrying	-0.3938905
-3.50283	cars	-0.1961033
-4.446595	carsick	-0.1039241
-3.906133	cart	-0.1774346
-4.446595	carton	-0.1039241
-4.155971	carts	-0.1897541
-4.446595	cartwheels	-0.1039241
-4.308788	carves	-0.1039241
-4.446595	carving	-0.1039241
-4.446595	carying	-0.1039241
-4.155971	case	-0.1039241
-4.446595	cases	-0.1039241
-3.906133	cash	-0.1533628
-4.446595	casino	-0.1039241
-4.308788	cast	-0.1039241
-4.446595	castaway	-0.1039241
-4.013329	casting	-0.1666548
-3.906133	castle	-0.2382975
-4.446595	castles	-0.1039241
-4.446595	casual	-0.1039241
-3.748541	casually	-0.138654
-3.50283	cat	-0.2921476
-4.446595	catapulted	-0.1039241
-3.542081	catch	-0.1454074
-4.446595	catched	-0.1039241
-4.013329	catcher	-0.1039241
-3.50283	catches	-0.3955435
-3.252961	catching	-0.2760603
-4.446595	caterpillars	-0.1039241
-4.446595	cathedral	-0.1039241
-3.906133	cats	-0.212813
-4.446595	cattails	-0.1039241
-4.308788	cattle	-0.1039241
-3.633156	caught	-0.1803664
-4.155971	cause	-0.1039241
-4.155971	causing	-0.1039241
-4.446595	cautionsly	-0.1039241
-4.446595	cautiously	-0.1039241
-3.906133	cave	-0.1447222
-4.446595	caveman	-0.1039241
-4.446595	caves	-0.1039241
-4.446595	cbs	-0.1039241
-4.446595	ceiling	-0.1039241
-4.155971	celebrate	-0.1039241
-4.446595	celebrates	-0.1039241
-3.687028	celebrating	-0.1039241
-4.308788	celebration	-0.2400013
-4.446595	celebratory	-0.1039241
-4.446595	celebreties	-0.1039241
-4.308788	celebrity	-0.2400013
-4.308788	cell	-0.1039241
-3.906133	cellphone	-0.1306927
-4.446595	cellphones	-0.1039241
-3.906133	cement	-0.1847779
-4.446595	cemetary	-0.1039241
-4.308788	center	-0.1039241
-4.446595	centipede	-0.1039241
-4.446595	central	-0.1039241
-4.446595	century	-0.1039241
-4.446595	ceo	-0.1039241
-4.446595	cereal	-0.1039241
-4.446595	ceremony	-0.1039241
-4.446595	certification	-0.1039241
-4.308788	chain	-0.1039241
-4.446595	chained	-0.1039241
-4.446595	chainsaw	-0.1039241
-3.402719	chair	-0.1826716
-3.748541	chairs	-0.2011306
-4.308788	chalk	-0.1039241
-4.446595	chalky	-0.1039241
-4.308788	challenge	-0.2400013
-4.446595	challenges	-0.1039241
-4.446595	challenging	-0.1039241
-4.446595	champagne	-0.1039241
-3.820228	champion	-0.253476
-4.308788	champions	-0.1039241
-4.446595	championship	-0.1039241
-4.308788	chance	-0.1039241
-4.155971	change	-0.1039241
-4.446595	changed	-0.1039241
-4.446595	changes	-0.1039241
-4.155971	changing	-0.1039241
-4.446595	chaperone	-0.1039241
-4.446595	chapped	-0.1039241
-4.446595	chapstick	-0.1039241
-4.446595	characters	-0.1039241
-4.446595	charmers	-0.1039241
-4.446595	charming	-0.1039241
-4.446595	charms	-0.1039241
-4.446595	charred	-0.1039241
-4.446595	chart	-0.1039241
-3.633156	chase	-0.2733431
-4.155971	chased	-0.1897541
-3.820228	chases	-0.1734045
-3.125769	chasing	-0.2701604
-4.308788	chat	-0.1039241
-4.446595	chats	-0.1039241
-4.446595	chatting	-0.1039241
-4.446595	cheap	-0.1039241
-4.013329	check	-0.1039241
-4.446595	checkered	-0.1039241
-3.906133	checking	-0.1039241
-4.446595	checkng	-0.1039241
-4.446595	checkout	-0.1039241
-4.308788	checks	-0.1039241
-4.446595	checkstand	-0.1039241
-4.155971	cheek	-0.1039241
-4.308788	cheeks	-0.1039241
-4.155971	cheer	-0.1039241
-4.446595	cheered	-0.1039241
-3.748541	cheering	-0.1039241
-4.155971	cheerleader	-0.1039241
-3.906133	cheerleaders	-0.1039241
-4.155971	cheers	-0.1039241
-3.748541	cheese	-0.3889043
-4.446595	cheeseburger	-0.1039241
-4.308788	cheetah	-0.1897541
-4.446595	chef	-0.1039241
-4.446595	chess	-0.1039241
-4.155971	chest	-0.1039241
-4.446595	chested	-0.1039241
-3.906133	chew	-0.2128131
-4.308788	chewed	-0.2400013
-3.820228	chewing	-0.1734045
-4.308788	chews	-0.1666548
-4.446595	chick	-0.1039241
-3.633156	chicken	-0.4728668
-4.013329	chickens	-0.1039241
-4.446595	chid	-0.1039241
-3.193841	child	-0.2510456
-4.446595	childhood	-0.1039241
-4.446595	childlisly	-0.1039241
-2.968849	children	-0.3304661
-4.446595	childrens	-0.1039241
-4.446595	childs	-0.1039241
-4.446595	chilling	-0.1039241
-4.446595	chimes	-0.1039241
-4.155971	chin	-0.1666548
-4.308788	china	-0.1897541
-4.308788	chinese	-0.1039241
-4.308788	chips	-0.1039241
-4.446595	chirping	-0.1039241
-4.446595	chistmas	-0.1039241
-3.748541	chocolate	-0.1039241
-4.446595	choice	-0.1039241
-4.446595	choices	-0.1039241
-4.446595	chokes	-0.1039241
-4.446595	chompionship	-0.1039241
-4.446595	choose	-0.1039241
-4.446595	chop	-0.1039241
-4.446595	chopsticks	-0.1039241
-4.446595	chores	-0.1039241
-4.446595	christ	-0.1039241
-3.906133	christmas	-0.2382975
-4.446595	chubby	-0.1039241
-4.446595	chunk	-0.1039241
-4.446595	church	-0.1039241
-4.446595	churro	-0.1039241
-4.308788	cigar	-0.2400013
-3.748541	cigarette	-0.1661401
-4.155971	cigarettes	-0.1897541
-4.446595	cigars	-0.1039241
-4.308788	cinderella	-0.1039241
-4.155971	circle	-0.1039241
-4.446595	circles	-0.1039241
-4.308788	circuit	-0.1039241
-4.446595	circular	-0.1039241
-4.446595	circulation	-0.1039241
-4.446595	circumvents	-0.1039241
-3.820228	circus	-0.2797599
-4.446595	citizen	-0.1039241
-3.373893	city	-0.2477048
-4.446595	civil	-0.1039241
-4.446595	claim	-0.1039241
-4.446595	clams	-0.1039241
-4.446595	clannish	-0.1039241
-4.446595	clap	-0.1039241
-4.446595	clapped	-0.1039241
-4.155971	clapping	-0.1039241
-4.446595	claps	-0.1039241
-3.906133	class	-0.1666548
-4.446595	classes	-0.1039241
-4.446595	classic	-0.1039241
-4.446595	classmates	-0.1039241
-4.446595	classroom	-0.1039241
-4.446595	claus	-0.1039241
-4.446595	clause	-0.1039241
-4.446595	claustrophobia	-0.1039241
-3.687028	clean	-0.1977053
-4.446595	cleaned	-0.1039241
-4.013329	cleaning	-0.1039241
-3.906133	clear	-0.1897541
-4.308788	clearing	-0.1039241
-4.446595	clearly	-0.1039241
-4.446595	clears	-0.1039241
-4.446595	clemson	-0.1039241
-4.446595	clever	-0.1039241
-4.013329	cleverly	-0.1666548
-4.446595	click	-0.1039241
-3.687028	cliff	-0.1800689
-4.446595	cliffs	-0.1039241
-4.446595	cliffside	-0.1039241
-4.446595	climate	-0.1039241
-3.820228	climb	-0.1515237
-3.906133	climbed	-0.1533628
-3.906133	climber	-0.1798707
-3.820228	climbers	-0.1039241
-3.110297	climbing	-0.3060189
-3.252961	climbs	-0.3387005
-4.446595	clims	-0.1039241
-4.446595	clinging	-0.1039241
-4.446595	clings	-0.1039241
-4.446595	clinton	-0.1039241
-4.446595	clips	-0.1039241
-4.446595	clogs	-0.1039241
-4.446595	cloned	-0.1039241
-3.633156	close	-0.2798365
-4.155971	closed	-0.1533628
-4.308788	closely	-0.1039241
-4.155971	closer	-0.1897541
-4.446595	closes	-0.1039241
-4.446595	closet	-0.1039241
-4.013329	closeup	-0.138654
-3.748541	cloth	-0.2111493
-4.446595	clothed	-0.1039241
-3.141813	clothes	-0.257466
-3.433594	clothing	-0.1187779
-4.446595	cloths	-0.1039241
-4.446595	clots	-0.1039241
-4.155971	cloud	-0.1897541
-3.906133	clouds	-0.1533628
-4.308788	cloudy	-0.1039241
-4.308788	clover	-0.2400013
-3.542081	clown	-0.1393203
-4.446595	clownmakeup	-0.1039241
-3.820228	clowns	-0.3377518
-4.155971	club	-0.1039241
-4.446595	clubhouse	-0.1039241
-4.446595	clue	-0.1039241
-4.446595	clueless	-0.1039241
-4.446595	clumsily	-0.1039241
-4.308788	cluster	-0.1039241
-4.308788	clutches	-0.1039241
-4.446595	coach	-0.1039241
-4.446595	coaster	-0.1039241
-3.297379	coat	-0.129239
-4.308788	coated	-0.1039241
-4.155971	coats	-0.1039241
-4.446595	cob	-0.1039241
-4.446595	cocaine	-0.1039241
-4.446595	cockroach	-0.1039241
-4.308788	cockroaches	-0.2400013
-4.308788	cocoa	-0.2400013
-4.446595	coconut	-0.1039241
-3.820228	coffee	-0.1341578
-4.308788	coin	-0.1039241
-4.446595	cola	-0.1039241
-3.585236	cold	-0.1774345
-4.446595	collapsable	-0.1039241
-3.542081	collar	-0.1519229
-4.308788	collars	-0.1897541
-4.446595	collect	-0.1039241
-4.308788	collecting	-0.1039241
-4.308788	collection	-0.1039241
-4.446595	collects	-0.1039241
-3.906133	college	-0.1533628
-4.446595	collegiate	-0.1039241
-4.013329	collie	-0.138654
-4.446595	collision	-0.1039241
-4.446595	coloful	-0.1039241
-3.820228	color	-0.1447222
-3.297379	colored	-0.1247314
-3.633156	colorful	-0.125045
-4.308788	colorfully	-0.1039241
-4.308788	coloring	-0.1039241
-3.748541	colors	-0.138654
-4.308788	colourful	-0.1039241
-4.446595	colourfully	-0.1039241
-4.446595	colours	-0.1039241
-4.446595	columns	-0.1039241
-4.446595	colur	-0.1039241
-4.308788	combat	-0.1039241
-4.446595	combing	-0.1039241
-3.748541	come	-0.1447222
-4.446595	comedian	-0.1039241
-4.446595	comedians	-0.1039241
-3.748541	comes	-0.1764044
-4.446595	comfort	-0.1039241
-4.446595	comfortable	-0.1039241
-4.155971	comfortably	-0.1039241
-4.446595	comically	-0.1039241
-3.542081	coming	-0.1830031
-4.446595	command	-0.1039241
-4.446595	commander	-0.1039241
-4.446595	commercial	-0.1039241
-4.446595	communicate	-0.1039241
-4.308788	community	-0.1039241
-4.446595	commuting	-0.1039241
-4.446595	compact	-0.1039241
-4.446595	companions	-0.1039241
-4.446595	company	-0.1039241
-4.446595	comparing	-0.1039241
-3.820228	compete	-0.3174787
-3.906133	competing	-0.3116499
-3.633156	competition	-0.2049899
-4.446595	competitions	-0.1039241
-4.446595	competitive	-0.1039241
-4.446595	competitively	-0.1039241
-4.446595	competitor	-0.1039241
-4.446595	complain	-0.1039241
-4.308788	complete	-0.1039241
-4.446595	completely	-0.1039241
-4.155971	completing	-0.1039241
-4.446595	complexion	-0.1039241
-4.446595	compliant	-0.1039241
-4.446595	composure	-0.1039241
-4.013329	computer	-0.1039241
-4.446595	computers	-0.1039241
-4.446595	concentrating	-0.1039241
-4.446595	concentration	-0.1039241
-4.446595	concerned	-0.1039241
-4.446595	concert	-0.1039241
-4.446595	concious	-0.1039241
-3.748541	concrete	-0.1306927
-4.446595	conditions	-0.1039241
-4.446595	condom	-0.1039241
-4.446595	condoms	-0.1039241
-3.820228	cone	-0.1039241
-3.906133	cones	-0.1039241
-4.155971	confetti	-0.1039241
-3.687028	confidently	-0.2194522
-4.446595	confront	-0.1039241
-3.820228	confused	-0.138654
-4.446595	confusion	-0.1039241
-4.446595	congratulatory	-0.1039241
-4.446595	congregate	-0.1039241
-4.446595	congregated	-0.1039241
-4.446595	congregation	-0.1039241
-4.446595	connect	-0.1039241
-4.308788	connected	-0.2400013
-4.446595	conquer	-0.1039241
-4.446595	conscious	-0.1039241
-4.446595	considering	-0.1039241
-4.446595	conspiracy	-0.1039241
-4.446595	constipated	-0.1039241
-4.308788	construction	-0.1039241
-4.446595	constructions	-0.1039241
-4.446595	contact	-0.1039241
-4.446595	container	-0.1039241
-4.446595	containers	-0.1039241
-4.446595	containing	-0.1039241
-4.013329	contemplates	-0.1666548
-4.013329	contemplating	-0.1039241
-4.446595	contenders	-0.1039241
-4.446595	content	-0.1039241
-4.308788	contently	-0.1039241
-4.013329	contest	-0.2795683
-4.446595	contestant	-0.1039241
-4.446595	continue	-0.1039241
-4.446595	continuously	-0.1039241
-4.446595	contrast	-0.1039241
-3.687028	control	-0.3046285
-4.446595	controled	-0.1039241
-4.446595	controls	-0.1039241
-4.446595	convenience	-0.1039241
-4.446595	convention	-0.1039241
-4.446595	conversation	-0.1039241
-4.155971	converse	-0.1897541
-4.308788	conversing	-0.1039241
-4.446595	cook	-0.1039241
-4.446595	cookie	-0.1039241
-4.446595	cookies	-0.1039241
-4.155971	cooking	-0.1039241
-4.446595	cookout	-0.1039241
-3.50283	cool	-0.4295672
-4.446595	cooler	-0.1039241
-4.308788	cooling	-0.2400013
-4.446595	coopers	-0.1039241
-4.446595	coordinator	-0.1039241
-4.308788	cooties	-0.2400013
-4.446595	cop	-0.1039241
-4.446595	copying	-0.1039241
-4.155971	cord	-0.1039241
-4.446595	cords	-0.1039241
-4.446595	corgi	-0.1039241
-4.308788	corn	-0.2400013
-4.155971	corner	-0.1039241
-4.446595	cornstalks	-0.1039241
-4.308788	corporate	-0.1039241
-4.446595	corpses	-0.1039241
-4.308788	correct	-0.2400013
-4.446595	correctly	-0.1039241
-4.446595	cosplayers	-0.1039241
-4.446595	cost	-0.1039241
-4.446595	costs	-0.1039241
-3.274602	costume	-0.2141247
-4.155971	costumed	-0.1039241
-3.542081	costumes	-0.1362502
-4.308788	cotton	-0.2400013
-3.633156	couch	-0.1515237
-4.446595	cough	-0.1039241
-3.906133	could	-0.1666548
-4.446595	count	-0.1039241
-3.906133	counter	-0.1039241
-3.687028	counting	-0.1039241
-4.013329	country	-0.1039241
-4.308788	countryside	-0.1039241
-4.446595	counts	-0.1039241
-3.585236	couple	-0.14209
-4.446595	couples	-0.1039241
-4.446595	courage	-0.1039241
-3.633156	course	-0.2213181
-3.748541	court	-0.120942
-4.013329	courtyard	-0.212813
-4.308788	cousin	-0.1039241
-4.013329	cover	-0.1039241
-3.252961	covered	-0.2790128
-4.013329	covering	-0.2795683
-4.446595	coverings	-0.1039241
-4.155971	covers	-0.1039241
-3.748541	cow	-0.1279403
-4.155971	cowboy	-0.1533628
-4.446595	cowboys	-0.1039241
-4.446595	cowgirls	-0.1039241
-4.308788	cows	-0.2400013
-4.446595	cpr	-0.1039241
-4.308788	crab	-0.1039241
-4.446595	crabby	-0.1039241
-4.013329	crabs	-0.2382975
-4.155971	crack	-0.1039241
-4.446595	cracken	-0.1039241
-4.446595	cracker	-0.1039241
-4.446595	craft	-0.1039241
-4.446595	crafts	-0.1039241
-4.446595	crampons	-0.1039241
-4.446595	crane	-0.1039241
-4.446595	crank	-0.1039241
-4.308788	crash	-0.1897541
-3.820228	crashes	-0.1897541
-4.308788	crashing	-0.2400013
-4.446595	crate	-0.1039241
-4.308788	crawling	-0.1039241
-4.308788	crawls	-0.1039241
-3.687028	crazy	-0.1486284
-4.308788	cream	-0.1306927
-4.446595	created	-0.1039241
-4.446595	creates	-0.1039241
-4.308788	creating	-0.1039241
-4.446595	creature	-0.1039241
-4.308788	creatures	-0.1039241
-4.446595	credits	-0.1039241
-4.308788	creek	-0.1039241
-4.446595	creeps	-0.1039241
-4.446595	creepy	-0.1039241
-4.446595	crest	-0.1039241
-3.820228	cricket	-0.1306927
-4.446595	crickets	-0.1039241
-4.308788	cries	-0.1039241
-4.446595	crime	-0.1039241
-4.446595	criminal	-0.1039241
-4.446595	criminals	-0.1039241
-4.446595	critic	-0.1039241
-4.446595	crocks	-0.1039241
-4.308788	crocodile	-0.1039241
-4.446595	croissants	-0.1039241
-4.308788	crops	-0.1039241
-4.308788	croquet	-0.1039241
-3.633156	cross	-0.1257013
-4.446595	crossbones	-0.1039241
-4.013329	crosscountry	-0.1039241
-4.308788	crossed	-0.1039241
-4.013329	crosses	-0.1666548
-3.633156	crossing	-0.442066
-4.446595	crosslegged	-0.1039241
-4.308788	crosswalk	-0.1039241
-4.446595	crouched	-0.1039241
-4.155971	crouches	-0.1039241
-4.155971	crouching	-0.1897541
-4.446595	croude	-0.1039241
-3.346863	crowd	-0.2464595
-4.155971	crowded	-0.1039241
-4.308788	crown	-0.1039241
-4.308788	crows	-0.1039241
-4.446595	cruising	-0.1039241
-4.446595	crumbling	-0.1039241
-4.446595	crush	-0.1039241
-4.446595	crushing	-0.1039241
-3.687028	crying	-0.253476
-4.446595	crystalclear	-0.1039241
-4.446595	crystals	-0.1039241
-4.446595	cucumbers	-0.1039241
-4.446595	cuddle	-0.1039241
-4.446595	cuddling	-0.1039241
-4.446595	cult	-0.1039241
-3.633156	cup	-0.1713165
-4.308788	cups	-0.1039241
-4.308788	curb	-0.1039241
-4.446595	cure	-0.1039241
-4.446595	curing	-0.1039241
-4.446595	curiously	-0.1039241
-4.446595	curl	-0.1039241
-4.446595	curled	-0.1039241
-4.308788	curly	-0.1897541
-4.446595	curlyhaired	-0.1039241
-4.446595	current	-0.1039241
-4.446595	currently	-0.1039241
-4.446595	curses	-0.1039241
-4.446595	curtain	-0.1039241
-4.446595	curve	-0.1039241
-4.446595	curved	-0.1039241
-4.446595	curvy	-0.1039241
-4.155971	cushion	-0.1039241
-4.446595	customary	-0.1039241
-4.308788	customer	-0.1897541
-4.308788	customers	-0.2400013
-4.013329	cut	-0.1039241
-3.906133	cute	-0.1039241
-4.446595	cutely	-0.1039241
-4.446595	cuter	-0.1039241
-4.446595	cutie	-0.1039241
-4.446595	cutout	-0.1039241
-4.446595	cutouts	-0.1039241
-4.013329	cutting	-0.1039241
-4.446595	cycle	-0.1039241
-4.155971	cycling	-0.1039241
-4.155971	cyclist	-0.1533628
-4.013329	cyclists	-0.1533628
-4.446595	d.c	-0.1039241
-4.446595	dachshund	-0.1039241
-4.446595	dachshunds	-0.1039241
-4.446595	dacoits	-0.1039241
-4.446595	dacshund	-0.1039241
-4.013329	dad	-0.2382975
-4.446595	daft	-0.1039241
-4.446595	daily	-0.1039241
-4.446595	daintily	-0.1039241
-4.446595	daisies	-0.1039241
-4.446595	dale	-0.1039241
-4.446595	dalmatians	-0.1039241
-4.308788	dalmation	-0.1039241
-3.373893	dance	-0.2023879
-3.906133	dancer	-0.3764783
-4.155971	dancers	-0.1039241
-3.542081	dances	-0.2261945
-3.125769	dancing	-0.2387166
-4.446595	dancingly	-0.1039241
-4.446595	dandelion	-0.1039241
-4.308788	dandelions	-0.1039241
-4.446595	dandylions	-0.1039241
-4.446595	danger	-0.1039241
-4.155971	dangerous	-0.1039241
-4.446595	dangerously	-0.1039241
-4.446595	dangles	-0.1039241
-4.446595	dank	-0.1039241
-4.155971	dare	-0.1039241
-4.155971	daring	-0.1039241
-4.308788	daringly	-0.1039241
-3.466834	dark	-0.1442655
-4.446595	darkcolored	-0.1039241
-4.446595	darkened	-0.1039241
-4.446595	darkhaired	-0.1039241
-4.446595	darkskinned	-0.1039241
-4.446595	darling	-0.1039241
-4.446595	darn	-0.1039241
-4.446595	dart	-0.1039241
-4.446595	dashboard	-0.1039241
-3.906133	date	-0.3764783
-4.446595	dateing	-0.1039241
-4.308788	dates	-0.2400013
-3.748541	dating	-0.2797599
-3.04026	day	-0.4062931
-3.906133	daydreaming	-0.1039241
-4.446595	daylight	-0.1039241
-4.155971	days	-0.2795683
-3.906133	dead	-0.1341578
-4.308788	deadly	-0.1039241
-4.446595	deaf	-0.1039241
-4.308788	dealing	-0.2400013
-4.446595	deals	-0.1039241
-4.446595	dear	-0.1039241
-3.906133	death	-0.4556596
-4.446595	debate	-0.1039241
-4.446595	decapitated	-0.1039241
-4.446595	decide	-0.1039241
-4.308788	decided	-0.2400013
-4.013329	deck	-0.1039241
-4.446595	decked	-0.1039241
-4.446595	declaring	-0.1039241
-4.446595	decorate	-0.1039241
-4.013329	decorated	-0.1039241
-4.308788	decoration	-0.1039241
-4.446595	decorative	-0.1039241
-4.446595	decoys	-0.1039241
-3.50283	deep	-0.226604
-4.446595	deeply	-0.1039241
-4.308788	deer	-0.1039241
-4.446595	default	-0.1039241
-4.446595	defeat	-0.1039241
-4.446595	defeating	-0.1039241
-4.446595	defend	-0.1039241
-4.446595	defender	-0.1039241
-4.308788	defending	-0.1039241
-4.446595	defends	-0.1039241
-4.446595	defiantly	-0.1039241
-4.446595	deflated	-0.1039241
-4.308788	defying	-0.1039241
-4.446595	degree	-0.1039241
-4.446595	deliberately	-0.1039241
-4.446595	delicious	-0.1039241
-4.446595	deliciousness	-0.1039241
-4.446595	delivering	-0.1039241
-4.155971	demanding	-0.1039241
-4.446595	demeanor	-0.1039241
-4.446595	demonstrate	-0.1039241
-4.308788	demonstrates	-0.1039241
-4.308788	demonstrating	-0.1039241
-4.446595	demonstration	-0.1039241
-4.446595	den	-0.1039241
-4.013329	denim	-0.1039241
-4.446595	dense	-0.1039241
-4.446595	dentists	-0.1039241
-4.446595	deodorant	-0.1039241
-4.308788	department	-0.1039241
-4.446595	deposit	-0.1039241
-4.446595	depression	-0.1039241
-4.446595	depths	-0.1039241
-4.446595	derby	-0.1039241
-4.013329	descending	-0.1039241
-3.906133	desert	-0.1039241
-4.446595	design	-0.1039241
-4.446595	desire	-0.1039241
-4.013329	desk	-0.1039241
-4.446595	desperate	-0.1039241
-4.308788	desperately	-0.1039241
-4.446595	despite	-0.1039241
-4.446595	dessert	-0.1039241
-4.308788	destination	-0.2400013
-4.446595	destroy	-0.1039241
-4.308788	detective	-0.1039241
-4.308788	determine	-0.1039241
-4.013329	determined	-0.1666548
-4.446595	developing	-0.1039241
-3.906133	device	-0.1533628
-4.308788	devices	-0.1039241
-4.446595	devil	-0.1039241
-4.308788	diamond	-0.1039241
-4.446595	diamonds	-0.1039241
-4.155971	diaper	-0.1039241
-4.446595	diapers	-0.1039241
-4.446595	dice	-0.1039241
-4.308788	dictation	-0.2400013
-3.748541	did	-0.3329216
-4.446595	die	-0.1039241
-4.446595	differ	-0.1039241
-4.446595	difference	-0.1039241
-3.542081	different	-0.1362502
-4.308788	difficult	-0.1039241
-4.446595	difficulty	-0.1039241
-4.446595	dig	-0.1039241
-4.013329	digging	-0.1039241
-4.308788	digs	-0.1039241
-4.308788	dim	-0.1039241
-4.308788	dimension	-0.1039241
-4.446595	dimlight	-0.1039241
-4.446595	dimly	-0.1039241
-4.308788	diner	-0.1039241
-4.446595	dining	-0.1039241
-3.585236	dinner	-0.3917787
-4.446595	dinnertime	-0.1039241
-4.308788	dinosaur	-0.1039241
-4.308788	dinosaurs	-0.2400013
-4.446595	diplomas	-0.1039241
-4.446595	diplomats	-0.1039241
-4.446595	dipped	-0.1039241
-4.155971	direction	-0.1897541
-4.446595	directions	-0.1039241
-4.446595	director	-0.1039241
-4.446595	directory	-0.1039241
-3.125769	dirt	-0.2352168
-3.466834	dirty	-0.1323199
-4.446595	disappear	-0.1039241
-4.013329	disappeared	-0.4834202
-4.308788	disappearing	-0.1039241
-4.446595	disappears	-0.1039241
-4.308788	disc	-0.1533628
-4.446595	discarded	-0.1039241
-4.446595	discipline	-0.1039241
-4.446595	disco	-0.1039241
-4.446595	discomposure	-0.1039241
-4.446595	discover	-0.1039241
-4.446595	discovered	-0.1039241
-4.446595	discovering	-0.1039241
-4.446595	discovers	-0.1039241
-4.446595	discretely	-0.1039241
-4.155971	discuss	-0.3584815
-4.155971	discussing	-0.1039241
-4.446595	disease	-0.1039241
-4.446595	diseased	-0.1039241
-4.308788	disguises	-0.1039241
-4.446595	disgusted	-0.1039241
-4.013329	dish	-0.1039241
-4.155971	dishes	-0.1897541
-4.155971	disk	-0.1039241
-4.446595	dislikes	-0.1039241
-4.446595	disliking	-0.1039241
-4.446595	disney	-0.1039241
-4.446595	disobeying	-0.1039241
-4.446595	disorganized	-0.1039241
-4.013329	display	-0.1666548
-4.446595	displayed	-0.1039241
-4.308788	displaying	-0.1039241
-4.446595	disregards	-0.1039241
-4.446595	disrupted	-0.1039241
-3.820228	distance	-0.1039241
-4.013329	distant	-0.1039241
-4.446595	distorted	-0.1039241
-4.446595	distract	-0.1039241
-4.155971	distracted	-0.1897541
-4.446595	distressed	-0.1039241
-4.446595	disturbed	-0.1039241
-4.446595	disturbing	-0.1039241
-4.446595	ditch	-0.1039241
-4.308788	dive	-0.1039241
-4.155971	diver	-0.1039241
-4.013329	dives	-0.1039241
-4.446595	divine	-0.1039241
-3.633156	diving	-0.3127539
-4.446595	divorce	-0.1039241
-4.446595	divorcee	-0.1039241
-4.155971	dizzy	-0.1897541
-4.308788	dj	-0.1039241
-4.446595	dmv	-0.1039241
-3.297379	do	-0.2512302
-4.308788	doberman	-0.1039241
-4.446595	dobermans	-0.1039241
-3.820228	dock	-0.1533628
-4.446595	doctor	-0.1039241
-4.446595	doctors	-0.1039241
-4.446595	dodge	-0.1039241
-4.446595	dodges	-0.1039241
-4.308788	dodging	-0.1039241
-2.991373	does	-0.6313778
-4.446595	doesnt	-0.1039241
-2.510966	dog	-0.4193939
-4.446595	doggie	-0.1039241
-3.906133	doggy	-0.1039241
-4.446595	doggyking	-0.1039241
-2.762971	dogs	-0.4243995
-4.446595	dogshirt	-0.1039241
-4.446595	dogwalk	-0.1039241
-2.937113	doing	-0.4254393
-4.308788	doll	-0.1039241
-3.906133	dollar	-0.1533628
-4.446595	dollars	-0.1039241
-4.446595	dolls	-0.1039241
-4.308788	dolphin	-0.1039241
-4.155971	dolphins	-0.1897541
-4.446595	domes	-0.1039241
-4.446595	domestic	-0.1039241
-4.446595	domination	-0.1039241
-4.308788	domino	-0.2400013
-4.308788	donald	-0.2400013
-4.446595	donations	-0.1039241
-4.308788	done	-0.1039241
-4.446595	donkeys	-0.1039241
-4.446595	dont	-0.1039241
-4.308788	donut	-0.1039241
-4.308788	donuts	-0.2400013
-4.446595	donw	-0.1039241
-4.446595	doo	-0.1039241
-3.820228	door	-0.1897541
-4.446595	doorag	-0.1039241
-4.446595	doors	-0.1039241
-4.155971	doorway	-0.1533628
-4.446595	doremi	-0.1039241
-4.446595	dot	-0.1039241
-4.446595	dots	-0.1039241
-4.308788	double	-0.1039241
-4.446595	doughnut	-0.1039241
-4.446595	dove	-0.1039241
-2.453726	down	-0.5935122
-4.013329	downhill	-0.1039241
-4.446595	download	-0.1039241
-4.446595	downpour	-0.1039241
-4.446595	downtown	-0.1039241
-4.308788	downward	-0.1039241
-4.308788	dracula	-0.1039241
-4.308788	drag	-0.1039241
-4.446595	dragging	-0.1039241
-4.308788	dragon	-0.1039241
-4.308788	dragonfly	-0.1039241
-4.446595	dragons	-0.1039241
-4.446595	dragster	-0.1039241
-4.013329	drain	-0.1533628
-4.446595	dramatic	-0.1039241
-4.308788	dramatically	-0.1039241
-4.446595	draping	-0.1039241
-4.013329	drawing	-0.1039241
-4.446595	drawn	-0.1039241
-4.446595	dread	-0.1039241
-4.446595	dreadlocks	-0.1039241
-4.155971	dream	-0.1039241
-3.687028	dreaming	-0.2706047
-4.013329	dreams	-0.2400013
-4.446595	drees	-0.1039241
-4.308788	drench	-0.1039241
-4.308788	drenched	-0.2400013
-3.252961	dress	-0.2353596
-4.446595	dressd	-0.1039241
-2.968849	dressed	-0.5180649
-3.542081	dresses	-0.1257013
-4.446595	dresswear	-0.1039241
-4.013329	dribbles	-0.2091611
-4.446595	dried	-0.1039241
-4.446595	drift	-0.1039241
-4.446595	drifting	-0.1039241
-4.446595	drill	-0.1039241
-4.308788	drilling	-0.1039241
-3.402719	drink	-0.1977635
-3.252961	drinking	-0.1391259
-3.687028	drinks	-0.1728337
-4.446595	dripping	-0.1039241
-4.308788	drips	-0.1039241
-3.906133	drive	-0.1039241
-4.308788	driven	-0.1039241
-3.820228	driver	-0.1039241
-4.155971	drivers	-0.1039241
-4.013329	drives	-0.1533628
-4.446595	driveway	-0.1039241
-3.633156	driving	-0.1447222
-4.446595	drone	-0.1039241
-4.446595	drool	-0.1039241
-4.308788	drooling	-0.1039241
-4.308788	drooping	-0.1039241
-4.446595	drop	-0.1039241
-4.446595	droplets	-0.1039241
-4.308788	dropped	-0.1039241
-4.013329	dropping	-0.1533628
-4.446595	droppings	-0.1039241
-4.446595	drops	-0.1039241
-4.446595	drown	-0.1039241
-4.013329	drowning	-0.1039241
-4.446595	drugs	-0.1039241
-4.308788	drum	-0.1039241
-4.446595	drummer	-0.1039241
-4.155971	drums	-0.1039241
-3.50283	drunk	-0.138654
-4.446595	drunken	-0.1039241
-3.542081	dry	-0.2324673
-4.446595	drying	-0.1039241
-4.446595	drys	-0.1039241
-3.687028	duck	-0.1829265
-3.748541	ducks	-0.1039241
-4.446595	ducky	-0.1039241
-4.155971	due	-0.3584815
-4.446595	duet	-0.1039241
-4.446595	dui	-0.1039241
-4.013329	dumb	-0.138654
-4.446595	dumbbell	-0.1039241
-4.446595	dumbfounded	-0.1039241
-4.446595	dumblooking	-0.1039241
-4.308788	dumbly	-0.1039241
-4.446595	dummy	-0.1039241
-4.308788	dump	-0.1039241
-4.308788	dumps	-0.1039241
-4.446595	dune	-0.1039241
-4.446595	dunes	-0.1039241
-4.446595	dunking	-0.1039241
-3.066935	during	-0.4496109
-4.446595	dusk	-0.1039241
-4.013329	dust	-0.1039241
-4.308788	dusty	-0.1039241
-4.446595	duty	-0.1039241
-4.446595	dwarf	-0.1039241
-4.308788	dwarfs	-0.2400013
-4.446595	dye	-0.1039241
-4.446595	dying	-0.1039241
-4.308788	e.t	-0.1039241
-2.821381	each	-0.7569578
-4.155971	eachother	-0.1039241
-4.308788	eager	-0.2400013
-3.687028	eagerly	-0.5805983
-4.013329	eagle	-0.2795683
-4.446595	eagles	-0.1039241
-3.906133	ear	-0.1954841
-4.446595	eared	-0.1039241
-4.446595	earlier	-0.1039241
-4.308788	early	-0.1039241
-4.446595	earmuffs	-0.1039241
-4.446595	earn	-0.1039241
-4.446595	earpiece	-0.1039241
-4.446595	earrings	-0.1039241
-3.820228	ears	-0.1341578
-4.308788	earth	-0.1897541
-4.446595	earthquake	-0.1039241
-4.308788	easier	-0.1039241
-3.906133	easily	-0.1039241
-3.906133	easter	-0.1447222
-4.446595	eastern	-0.1039241
-3.748541	eat	-0.1306927
-4.446595	eaten	-0.1039241
-3.212667	eating	-0.1529634
-3.633156	eats	-0.1414442
-4.446595	ecigarettes	-0.1039241
-4.308788	ecstatic	-0.1039241
-4.446595	eden	-0.1039241
-3.748541	edge	-0.1257013
-4.446595	edgein	-0.1039241
-4.446595	edges	-0.1039241
-4.446595	edible	-0.1039241
-4.446595	education	-0.1039241
-4.308788	egg	-0.1039241
-3.748541	eggs	-0.2797599
-4.446595	egret	-0.1039241
-4.446595	eguptian	-0.1039241
-4.446595	egyptian	-0.1039241
-4.308788	eight	-0.1039241
-4.446595	either	-0.1039241
-4.446595	ejected	-0.1039241
-4.446595	elaborate	-0.1039241
-4.013329	elderly	-0.1803664
-4.446595	electric	-0.1039241
-4.446595	electrical	-0.1039241
-4.155971	electricity	-0.1039241
-4.446595	electrified	-0.1039241
-4.308788	electronic	-0.1039241
-4.308788	electronics	-0.1039241
-4.446595	elegant	-0.1039241
-4.013329	elephant	-0.1829265
-4.013329	elephants	-0.1666548
-4.446595	elevated	-0.1039241
-4.446595	elevator	-0.1039241
-4.446595	elf	-0.1039241
-3.820228	else	-0.1039241
-4.446595	elusive	-0.1039241
-4.013329	elves	-0.4834202
-4.308788	elvis	-0.1039241
-4.155971	embarrassed	-0.1897541
-4.446595	embedded	-0.1039241
-3.906133	embrace	-0.1039241
-4.308788	embraces	-0.1039241
-4.308788	embracing	-0.1039241
-4.446595	emerge	-0.1039241
-4.446595	emergency	-0.1039241
-4.308788	emerges	-0.2400013
-4.446595	emerging	-0.1039241
-4.446595	emits	-0.1039241
-4.446595	emitting	-0.1039241
-4.446595	emotionally	-0.1039241
-4.446595	employees	-0.1039241
-4.013329	empty	-0.1039241
-4.155971	enclosed	-0.1039241
-4.308788	enclosure	-0.1039241
-4.446595	encouragement	-0.1039241
-4.446595	encourages	-0.1039241
-4.446595	encripted	-0.1039241
-4.446595	encroaching	-0.1039241
-3.820228	end	-0.1306927
-4.446595	endorsement	-0.1039241
-4.446595	endorsementcovered	-0.1039241
-4.446595	ends	-0.1039241
-4.155971	enemies	-0.1897541
-4.155971	enemy	-0.1897541
-4.308788	energetic	-0.1039241
-4.446595	energizer	-0.1039241
-4.308788	energy	-0.1039241
-3.906133	engage	-0.5803303
-4.155971	engaged	-0.3584815
-4.446595	engagement	-0.1039241
-4.446595	engine	-0.1039241
-4.446595	english	-0.1039241
-4.446595	engulf	-0.1039241
-3.748541	enjoy	-0.2706047
-4.308788	enjoyed	-0.2400013
-2.979965	enjoying	-0.469022
-4.308788	enjoyment	-0.2400013
-3.585236	enjoys	-0.2111493
-4.155971	enough	-0.1039241
-4.446595	ensues	-0.1039241
-4.308788	enters	-0.2400013
-4.446595	entertain	-0.1039241
-4.155971	entertaining	-0.1039241
-4.446595	enthusiastic	-0.1039241
-4.446595	enthusiasts	-0.1039241
-4.446595	entitled	-0.1039241
-4.446595	entrance	-0.1039241
-4.446595	equally	-0.1039241
-4.446595	equestrian	-0.1039241
-3.633156	equipment	-0.1238443
-4.446595	eros	-0.1039241
-4.446595	escalotor	-0.1039241
-4.308788	escape	-0.11789
-4.446595	escaped	-0.1039241
-4.308788	escapes	-0.1039241
-3.50283	escaping	-0.1039241
-4.446595	escorted	-0.1039241
-4.446595	escorts	-0.1039241
-4.446595	esp	-0.1039241
-4.446595	establishment	-0.1039241
-4.155971	et	-0.1533628
-4.308788	ets	-0.2400013
-4.308788	european	-0.1897541
-4.446595	evaporating	-0.1039241
-4.446595	evel	-0.1039241
-4.308788	even	-0.1039241
-4.155971	evening	-0.1039241
-3.585236	event	-0.1897269
-3.906133	ever	-0.1039241
-4.308788	everest	-0.2400013
-4.446595	every	-0.1039241
-4.446595	everybody	-0.1039241
-3.687028	everyone	-0.1734045
-4.308788	everything	-0.1039241
-4.308788	everywhere	-0.2400013
-4.446595	eviction	-0.1039241
-4.155971	evil	-0.1039241
-4.446595	exaggerated	-0.1039241
-4.446595	examine	-0.1039241
-4.446595	examing	-0.1039241
-4.446595	examples	-0.1039241
-4.446595	except	-0.1039241
-4.446595	excess	-0.1039241
-4.308788	exchange	-0.1039241
-4.446595	exchanges	-0.1039241
-4.308788	exchanging	-0.1039241
-3.820228	excited	-0.1897541
-3.748541	excitedly	-0.2797599
-4.155971	excitement	-0.1897541
-4.446595	exclaim	-0.1039241
-4.446595	executes	-0.1039241
-4.013329	exercise	-0.1666548
-4.308788	exercising	-0.1039241
-4.308788	exhausted	-0.2400013
-4.446595	exhibition	-0.1039241
-4.446595	exhusband	-0.1039241
-4.446595	expanse	-0.1039241
-4.446595	expectantly	-0.1039241
-4.308788	experience	-0.1039241
-4.446595	experiencing	-0.1039241
-4.155971	expert	-0.1039241
-4.446595	explanation	-0.1039241
-4.446595	explode	-0.1039241
-4.446595	explore	-0.1039241
-4.308788	explores	-0.1039241
-4.155971	exploring	-0.1897541
-4.446595	explosions	-0.1039241
-4.446595	expo	-0.1039241
-4.446595	express	-0.1039241
-4.308788	expressions	-0.1039241
-4.446595	extended	-0.1039241
-4.446595	extension	-0.1039241
-4.155971	extra	-0.1039241
-4.446595	extras	-0.1039241
-4.446595	extravagant	-0.1039241
-4.446595	extremely	-0.1039241
-4.446595	exwife	-0.1039241
-3.748541	eye	-0.1039241
-4.446595	eyeglasses	-0.1039241
-3.50283	eyes	-0.1923498
-4.446595	f	-0.1039241
-4.013329	fabric	-0.1039241
-2.979965	face	-0.316803
-4.308788	facebook	-0.1039241
-4.446595	faced	-0.1039241
-4.446595	facedown	-0.1039241
-4.446595	facefirst	-0.1039241
-4.446595	faceplant	-0.1039241
-3.748541	faces	-0.1549648
-4.446595	facial	-0.1039241
-3.906133	facing	-0.1533628
-4.446595	fact	-0.1039241
-4.446595	faded	-0.1039241
-4.446595	fading	-0.1039241
-4.446595	fadora	-0.1039241
-4.155971	fail	-0.1897541
-4.308788	failed	-0.1039241
-4.446595	failing	-0.1039241
-4.446595	faint	-0.1039241
-3.906133	fair	-0.1039241
-4.446595	fairies	-0.1039241
-3.906133	fairy	-0.3071512
-4.446595	fairyland	-0.1039241
-4.013329	fake	-0.1039241
-4.446595	fakes	-0.1039241
-3.402719	fall	-0.3100093
-3.585236	fallen	-0.1257013
-3.175797	falling	-0.4044772
-3.466834	falls	-0.209234
-4.308788	fame	-0.2400013
-4.446595	families	-0.1039241
-3.466834	family	-0.1498133
-4.155971	famous	-0.1666548
-4.013329	fan	-0.1039241
-4.446595	fanatic	-0.1039241
-4.013329	fancy	-0.1039241
-4.446595	fangs	-0.1039241
-4.155971	fans	-0.1039241
-3.820228	far	-0.1341578
-4.446595	farewell	-0.1039241
-4.155971	farm	-0.1039241
-4.446595	farmer	-0.1039241
-3.748541	fart	-0.2194522
-4.308788	farted	-0.2400013
-3.748541	farting	-0.2194522
-3.542081	farts	-0.2451157
-4.013329	fashion	-0.1039241
-4.446595	fashioned	-0.1039241
-4.446595	fashionista	-0.1039241
-4.446595	fashions	-0.1039241
-4.446595	fasionable	-0.1039241
-3.274602	fast	-0.3584275
-4.446595	fastens	-0.1039241
-3.906133	faster	-0.3764783
-3.906133	fat	-0.1764044
-4.446595	fate	-0.1039241
-4.013329	father	-0.2382975
-4.446595	fathers	-0.1039241
-4.446595	fatigues	-0.1039241
-4.446595	fatty	-0.1039241
-4.446595	faucet	-0.1039241
-4.446595	favorite	-0.1039241
-3.748541	fear	-0.3479281
-4.446595	fearful	-0.1039241
-4.446595	fearing	-0.1039241
-4.446595	fearlessness	-0.1039241
-4.446595	feast	-0.1039241
-4.446595	feasting	-0.1039241
-4.446595	feather	-0.1039241
-4.308788	feathers	-0.1039241
-4.308788	featuring	-0.1039241
-4.446595	fecthing	-0.1039241
-4.446595	feed	-0.1039241
-3.748541	feeding	-0.195484
-3.542081	feel	-0.4760545
-3.110297	feeling	-0.1497746
-4.308788	feelings	-0.1039241
-3.906133	feels	-0.2382975
-3.50283	feet	-0.2365593
-3.542081	fell	-0.1928301
-4.308788	fellow	-0.1039241
-3.748541	female	-0.1039241
-4.446595	females	-0.1039241
-4.446595	feminine	-0.1039241
-4.446595	feminists	-0.1039241
-3.346863	fence	-0.2359834
-4.308788	fenced	-0.1666548
-4.446595	fencedin	-0.1039241
-4.308788	fencers	-0.1039241
-4.446595	fences	-0.1039241
-4.446595	fending	-0.1039241
-4.446595	ferris	-0.1039241
-3.906133	festival	-0.1039241
-4.446595	festive	-0.1039241
-3.820228	fetch	-0.1659344
-4.446595	fetched	-0.1039241
-4.013329	fetches	-0.2400013
-3.820228	fetching	-0.2128131
-4.308788	fever	-0.2400013
-4.155971	few	-0.1039241
-4.446595	fibbing	-0.1039241
-4.446595	fiber	-0.1039241
-4.446595	fiddle	-0.1039241
-3.066935	field	-0.3368799
-4.308788	fields	-0.1039241
-4.446595	fierce	-0.1039241
-4.446595	fiercely	-0.1039241
-4.446595	fiery	-0.1039241
-4.446595	fifteenth	-0.1039241
-3.321417	fight	-0.2984214
-4.308788	fighter	-0.1039241
-4.446595	fighters	-0.1039241
-3.053393	fighting	-0.6662531
-4.155971	fights	-0.1897541
-4.155971	figure	-0.1039241
-4.446595	figures	-0.1039241
-4.446595	figurines	-0.1039241
-4.446595	file	-0.1039241
-4.446595	filed	-0.1039241
-4.446595	fill	-0.1039241
-3.346863	filled	-0.6899343
-4.155971	film	-0.1897541
-4.446595	filthy	-0.1039241
-4.446595	final	-0.1039241
-4.446595	finally	-0.1039241
-3.748541	find	-0.1313033
-3.748541	finding	-0.1039241
-4.155971	finds	-0.1897541
-4.446595	fine	-0.1039241
-4.446595	finery	-0.1039241
-4.308788	finger	-0.1039241
-4.013329	fingers	-0.1039241
-4.308788	finish	-0.1666548
-4.446595	finished	-0.1039241
-4.446595	finishes	-0.1039241
-4.155971	finishing	-0.1039241
-3.402719	fire	-0.1784992
-4.446595	fired	-0.1039241
-4.308788	firefly	-0.2400013
-4.308788	fireman	-0.1039241
-4.446595	firemen	-0.1039241
-4.446595	fireplace	-0.1039241
-4.446595	fires	-0.1039241
-4.308788	firetruck	-0.1039241
-4.446595	fireworks	-0.1039241
-4.446595	firl	-0.1039241
-4.013329	firmly	-0.1039241
-3.402719	first	-0.3119249
-3.053393	fish	-0.3906989
-4.446595	fishemen	-0.1039241
-4.308788	fisherman	-0.2400013
-3.748541	fishes	-0.3329216
-4.446595	fishiness	-0.1039241
-3.542081	fishing	-0.138654
-4.446595	fishy	-0.1039241
-4.308788	fist	-0.2400013
-4.308788	fit	-0.1039241
-4.446595	fitness	-0.1039241
-3.906133	five	-0.1424767
-4.155971	fixing	-0.1039241
-4.446595	fixtures	-0.1039241
-3.542081	flag	-0.1662544
-4.446595	flagpoles	-0.1039241
-3.687028	flags	-0.1257013
-4.446595	flailing	-0.1039241
-4.446595	flamboyantly	-0.1039241
-4.446595	flames	-0.1039241
-4.308788	flaming	-0.1039241
-4.446595	flamingo	-0.1039241
-4.446595	flamingos	-0.1039241
-4.446595	flannel	-0.1039241
-4.446595	flapping	-0.1039241
-4.155971	flashing	-0.1039241
-4.446595	flashlight	-0.1039241
-4.013329	flat	-0.1039241
-4.446595	flavor	-0.1039241
-4.446595	flavored	-0.1039241
-4.308788	flea	-0.1039241
-4.446595	fleas	-0.1039241
-4.446595	flee	-0.1039241
-4.446595	fleece	-0.1039241
-4.308788	fleeing	-0.1039241
-4.446595	flees	-0.1039241
-4.013329	flew	-0.1039241
-4.446595	flex	-0.1039241
-4.446595	flexibility	-0.1039241
-4.446595	flexible	-0.1039241
-4.446595	flexing	-0.1039241
-3.346863	flies	-0.2600404
-3.633156	flight	-0.2836999
-4.446595	flimsy	-0.1039241
-4.446595	flinging	-0.1039241
-4.446595	flings	-0.1039241
-3.820228	flip	-0.1764044
-4.446595	flipflop	-0.1039241
-4.446595	flipped	-0.1039241
-4.446595	flipper	-0.1039241
-4.446595	flippers	-0.1039241
-3.906133	flipping	-0.1039241
-4.013329	flips	-0.1039241
-4.446595	flirting	-0.1039241
-3.748541	float	-0.1764044
-4.446595	floaties	-0.1039241
-3.820228	floating	-0.1039241
-4.446595	floatlys	-0.1039241
-4.155971	floats	-0.1039241
-4.155971	flock	-0.3584815
-4.308788	flood	-0.1039241
-4.446595	floods	-0.1039241
-3.50283	floor	-0.146586
-4.446595	floors	-0.1039241
-4.446595	flop	-0.1039241
-4.308788	floppy	-0.1039241
-4.446595	flops	-0.1039241
-4.308788	floral	-0.1039241
-4.446595	florescent	-0.1039241
-4.446595	florida	-0.1039241
-4.446595	flossing	-0.1039241
-4.446595	flotation	-0.1039241
-4.446595	flowed	-0.1039241
-3.748541	flower	-0.1222791
-4.308788	flowered	-0.1039241
-3.274602	flowers	-0.2098205
-4.446595	flowery	-0.1039241
-3.748541	fluffy	-0.1592202
-4.308788	flute	-0.1039241
-3.50283	fly	-0.254198
-4.446595	flyfishing	-0.1039241
-3.141813	flying	-0.2209094
-4.308788	flys	-0.1039241
-4.013329	foam	-0.1039241
-4.446595	foamy	-0.1039241
-4.308788	fog	-0.1039241
-4.308788	foggy	-0.1039241
-4.308788	fold	-0.1039241
-4.446595	folded	-0.1039241
-4.446595	folding	-0.1039241
-4.446595	foliage	-0.1039241
-4.446595	folk	-0.1039241
-4.446595	folks	-0.1039241
-3.820228	follow	-0.1039241
-4.446595	followed	-0.1039241
-4.013329	following	-0.1039241
-3.906133	follows	-0.1592202
-4.446595	fondly	-0.1039241
-3.095357	food	-0.3467503
-4.446595	fool	-0.1039241
-4.446595	foolish	-0.1039241
-4.446595	fools	-0.1039241
-3.748541	foot	-0.1734045
-4.446595	footage	-0.1039241
-3.175797	football	-0.3291901
-4.446595	footballer	-0.1039241
-4.308788	footballers	-0.1039241
-4.446595	foothills	-0.1039241
-2.060312	for	-0.3421228
-4.446595	foraging	-0.1039241
-4.155971	force	-0.2795683
-4.446595	forearms	-0.1039241
-4.446595	foreign	-0.1039241
-4.446595	foreround	-0.1039241
-3.633156	forest	-0.1519229
-4.446595	forests	-0.1039241
-4.155971	forever	-0.1897541
-3.906133	forget	-0.1447222
-4.155971	forgets	-0.1039241
-3.906133	forgetting	-0.1039241
-3.633156	forgot	-0.3590177
-4.446595	forks	-0.1039241
-3.906133	form	-0.1533628
-4.013329	formal	-0.1039241
-4.308788	formally	-0.1039241
-4.308788	formation	-0.1039241
-4.446595	formations	-0.1039241
-4.446595	formed	-0.1039241
-4.446595	forming	-0.1039241
-4.308788	formula	-0.1039241
-4.155971	fortune	-0.1897541
-3.820228	forward	-0.1039241
-4.446595	foul	-0.1039241
-3.687028	found	-0.1937571
-3.433594	fountain	-0.2285254
-4.446595	fountains	-0.1039241
-3.585236	four	-0.1572478
-4.446595	fours	-0.1039241
-4.308788	fourwheeler	-0.1039241
-4.446595	fowl	-0.1039241
-4.446595	fox	-0.1039241
-4.446595	foxes	-0.1039241
-4.446595	foyer	-0.1039241
-4.013329	frame	-0.1039241
-4.446595	framed	-0.1039241
-4.446595	frames	-0.1039241
-4.446595	frankfurter	-0.1039241
-4.308788	frantically	-0.1039241
-4.446595	frappe	-0.1039241
-4.446595	freak	-0.1039241
-4.446595	freaked	-0.1039241
-3.585236	free	-0.1238443
-4.155971	freedom	-0.1897541
-4.155971	freely	-0.1897541
-4.308788	freestyle	-0.1039241
-4.308788	freezes	-0.2400013
-4.155971	freezing	-0.1039241
-4.155971	french	-0.1039241
-4.446595	fresbee	-0.1039241
-4.308788	fresh	-0.1897541
-4.446595	friday	-0.1039241
-3.542081	friend	-0.2752846
-4.446595	friendly	-0.1039241
-3.50283	friends	-0.4303056
-4.446595	friendship	-0.1039241
-4.446595	fries	-0.1039241
-4.446595	frightened	-0.1039241
-4.446595	frint	-0.1039241
-3.274602	frisbee	-0.222313
-4.446595	frizz	-0.1039241
-4.446595	fro	-0.1039241
-3.906133	frog	-0.1734045
-4.155971	frogs	-0.1039241
-4.446595	frolic	-0.1039241
-4.446595	frolicking	-0.1039241
-2.427707	from	-0.4269353
-4.013329	front	-0.1592202
-4.308788	frosty	-0.1039241
-4.446595	frowning	-0.1039241
-4.446595	frowns	-0.1039241
-3.633156	frozen	-0.1599167
-4.013329	fruit	-0.1666548
-4.446595	fruits	-0.1039241
-4.446595	frustration	-0.1039241
-4.308788	fry	-0.1039241
-4.308788	frying	-0.2400013
-3.158473	full	-0.580922
-4.446595	fully	-0.1039241
-3.50283	fun	-0.2443814
-4.308788	function	-0.2400013
-4.013329	funky	-0.1039241
-3.542081	funny	-0.162741
-3.906133	fur	-0.1039241
-4.446595	furious	-0.1039241
-4.308788	furniture	-0.1039241
-4.446595	furred	-0.1039241
-3.748541	furry	-0.219162
-4.446595	fussing	-0.1039241
-4.446595	fustrated	-0.1039241
-3.687028	future	-0.1659344
-4.446595	gaggle	-0.1039241
-4.446595	gain	-0.1039241
-4.446595	gained	-0.1039241
-4.155971	gallery	-0.1039241
-4.308788	galloping	-0.1039241
-3.141813	game	-0.356969
-4.013329	games	-0.1666548
-4.446595	gandhi	-0.1039241
-4.446595	gang	-0.1039241
-4.446595	gangplank	-0.1039241
-4.446595	gaping	-0.1039241
-4.446595	garage	-0.1039241
-4.446595	garb	-0.1039241
-4.155971	garbage	-0.1039241
-3.906133	garden	-0.1279403
-4.446595	garlic	-0.1039241
-4.446595	garter	-0.1039241
-3.906133	gas	-0.1533628
-4.446595	gases	-0.1039241
-3.906133	gate	-0.2659748
-4.446595	gateway	-0.1039241
-3.820228	gather	-0.1803664
-3.906133	gathered	-0.1666548
-4.308788	gathering	-0.1039241
-4.446595	gathers	-0.1039241
-4.446595	gatorade	-0.1039241
-4.446595	gators	-0.1039241
-4.446595	gauze	-0.1039241
-4.446595	gave	-0.1039241
-4.155971	gay	-0.1897541
-4.446595	gazebo	-0.1039241
-4.013329	gazes	-0.1039241
-3.402719	gear	-0.1793166
-4.446595	geeks	-0.1039241
-4.013329	geese	-0.1666548
-4.446595	geisha	-0.1039241
-4.446595	gel	-0.1039241
-4.446595	generate	-0.1039241
-4.446595	genie	-0.1039241
-4.446595	genies	-0.1039241
-4.446595	genocide	-0.1039241
-3.820228	gentleman	-0.1447222
-4.308788	gentlemen	-0.1039241
-4.446595	gently	-0.1039241
-4.446595	geological	-0.1039241
-4.446595	germaid	-0.1039241
-3.748541	german	-0.397637
-4.308788	gesture	-0.1039241
-4.308788	gestures	-0.1039241
-3.212667	get	-0.1526839
-3.212667	gets	-0.1638822
-2.958011	getting	-0.2860678
-4.446595	gettnig	-0.1039241
-4.446595	geyser	-0.1039241
-4.308788	ghost	-0.1666548
-4.446595	ghostbusters	-0.1039241
-4.013329	ghosts	-0.2795683
-3.906133	giant	-0.1039241
-4.446595	giants	-0.1039241
-4.308788	giddy	-0.1039241
-4.013329	gift	-0.1447222
-4.155971	gifts	-0.3584815
-4.446595	giggles	-0.1039241
-3.687028	giggling	-0.4424175
-4.308788	gigolo	-0.1039241
-4.446595	giligan	-0.1039241
-4.446595	ginger	-0.1039241
-4.446595	giraffe	-0.1039241
-4.308788	giraffes	-0.2400013
-4.446595	girder	-0.1039241
-2.898113	girl	-0.3056161
-4.013329	girlfriend	-0.2797599
-4.446595	girlfriends	-0.1039241
-2.979965	girls	-0.3030997
-3.906133	give	-0.1039241
-4.308788	given	-0.1039241
-3.50283	gives	-0.1774346
-3.542081	giving	-0.1549648
-4.446595	glacier	-0.1039241
-4.308788	glad	-0.1039241
-4.446595	gladiators	-0.1039241
-4.446595	glare	-0.1039241
-3.748541	glass	-0.1279403
-3.402719	glasses	-0.3170796
-4.446595	glee	-0.1039241
-4.446595	gleefully	-0.1039241
-4.446595	glider	-0.1039241
-4.308788	gliding	-0.1039241
-4.155971	glory	-0.1666548
-4.446595	glove	-0.1039241
-4.446595	gloved	-0.1039241
-4.155971	gloves	-0.1039241
-4.446595	glow	-0.1039241
-4.446595	glucose	-0.1039241
-4.155971	glued	-0.1897541
-4.446595	gnome	-0.1039241
-4.446595	gnomes	-0.1039241
-3.193841	go	-0.1758812
-3.633156	goal	-0.2518748
-4.308788	goalie	-0.1447222
-4.446595	goalkeeper	-0.1039241
-4.446595	goals	-0.1039241
-4.013329	goat	-0.1039241
-4.446595	goats	-0.1039241
-4.446595	gocart	-0.1039241
-3.820228	god	-0.3174787
-4.446595	goddess	-0.1039241
-4.446595	gods	-0.1039241
-4.446595	goers	-0.1039241
-3.402719	goes	-0.236131
-3.820228	goggles	-0.1306927
-3.04026	going	-0.3466268
-3.373893	gold	-0.2147754
-3.633156	golden	-0.2687469
-4.446595	goled	-0.1039241
-4.308788	golf	-0.1039241
-4.446595	gon	-0.1039241
-4.446595	gondola	-0.1039241
-4.308788	gone	-0.1039241
-3.820228	good	-0.1039241
-4.446595	goody	-0.1039241
-4.155971	goofy	-0.1666548
-4.446595	google	-0.1039241
-4.446595	googles	-0.1039241
-4.446595	goonies	-0.1039241
-4.155971	goose	-0.1039241
-4.446595	gopher	-0.1039241
-4.446595	gorge	-0.1039241
-4.446595	gorilla	-0.1039241
-4.446595	gossip	-0.1039241
-4.446595	gossiping	-0.1039241
-3.50283	got	-0.11789
-4.446595	gothic	-0.1039241
-4.446595	gothically	-0.1039241
-4.446595	gotten	-0.1039241
-4.446595	goucho	-0.1039241
-4.446595	government	-0.1039241
-4.446595	governors	-0.1039241
-4.308788	grab	-0.1039241
-4.446595	grabbed	-0.1039241
-4.013329	grabbing	-0.1039241
-4.155971	grabs	-0.1039241
-4.446595	grace	-0.1039241
-4.446595	gracefully	-0.1039241
-4.446595	gradual	-0.1039241
-4.446595	graduating	-0.1039241
-4.446595	graduation	-0.1039241
-3.542081	graffiti	-0.1039241
-4.446595	graffitied	-0.1039241
-4.446595	graffitiheavy	-0.1039241
-4.446595	grand	-0.1039241
-4.446595	grandma	-0.1039241
-4.308788	grandmother	-0.1039241
-4.446595	grapes	-0.1039241
-4.446595	grasp	-0.1039241
-4.308788	grasping	-0.1039241
-4.308788	grasps	-0.1039241
-3.053393	grass	-0.312034
-4.013329	grasses	-0.2795683
-4.446595	grasshoppers	-0.1039241
-4.446595	grasshopppers	-0.1039241
-3.433594	grassy	-0.230908
-4.446595	gratitude	-0.1039241
-3.906133	gravel	-0.1533628
-4.013329	gravity	-0.1039241
-4.446595	gravy	-0.1039241
-3.906133	gray	-0.1039241
-4.308788	grayhaired	-0.1039241
-4.155971	great	-0.1039241
-4.446595	greatly	-0.1039241
-4.446595	greatness	-0.1039241
-3.015129	green	-0.1748133
-4.446595	greenbay	-0.1039241
-4.446595	greengrass	-0.1039241
-4.446595	greenhouse	-0.1039241
-4.446595	greenpeace	-0.1039241
-4.308788	greet	-0.1039241
-4.446595	greets	-0.1039241
-4.446595	gremlins	-0.1039241
-4.155971	grew	-0.1039241
-3.50283	grey	-0.1735411
-3.633156	greyhound	-0.226604
-3.687028	greyhounds	-0.1659344
-4.446595	greyish	-0.1039241
-4.446595	greysuited	-0.1039241
-4.308788	grilling	-0.1039241
-4.446595	grimacing	-0.1039241
-4.013329	grin	-0.1039241
-4.155971	grinding	-0.2091611
-4.308788	grinds	-0.1039241
-4.308788	grinning	-0.1039241
-4.013329	grins	-0.1666548
-4.446595	grip	-0.1039241
-4.446595	grips	-0.1039241
-4.013329	grocery	-0.1533628
-4.446595	groin	-0.1039241
-4.308788	groom	-0.1039241
-4.446595	groomsmen	-0.1039241
-4.446595	gross	-0.1039241
-4.308788	groucho	-0.1039241
-4.446595	grouchy	-0.1039241
-3.433594	ground	-0.1959062
-4.446595	grounds	-0.1039241
-3.402719	group	-0.3817399
-4.446595	grove	-0.1039241
-4.155971	grow	-0.2128131
-4.013329	growling	-0.4834202
-4.308788	grown	-0.1039241
-4.308788	grows	-0.1039241
-4.308788	growth	-0.1039241
-4.446595	grumpy	-0.1039241
-4.446595	gu	-0.1039241
-3.906133	guard	-0.1039241
-4.446595	guarded	-0.1039241
-4.155971	guarding	-0.1039241
-4.446595	guards	-0.1039241
-4.446595	guide	-0.1039241
-4.308788	guiding	-0.1039241
-4.446595	guilty	-0.1039241
-3.542081	guitar	-0.1914746
-4.446595	guitarist	-0.1039241
-4.446595	guitarists	-0.1039241
-4.308788	guitars	-0.1039241
-4.446595	gulls	-0.1039241
-4.446595	gulp	-0.1039241
-4.308788	gum	-0.2400013
-4.446595	gump	-0.1039241
-4.308788	gums	-0.2400013
-3.906133	gun	-0.1728337
-4.308788	guns	-0.1039241
-3.585236	guy	-0.1540741
-3.748541	guys	-0.1533628
-3.820228	gym	-0.1928301
-4.308788	gymnasium	-0.1039241
-4.155971	gymnast	-0.1039241
-4.446595	gymnastics	-0.1039241
-4.446595	gymnist	-0.1039241
-3.748541	had	-0.1257013
-4.446595	haiku	-0.1039241
-4.446595	hail	-0.1039241
-4.446595	hailstorm	-0.1039241
-3.141813	hair	-0.2147937
-4.446595	hairbows	-0.1039241
-4.446595	haircut	-0.1039241
-4.308788	hairdo	-0.1039241
-3.820228	haired	-0.1659344
-4.308788	hairs	-0.2400013
-4.446595	hairstyle	-0.1039241
-4.308788	hairy	-0.1039241
-4.446595	haki	-0.1039241
-4.155971	half	-0.1039241
-4.446595	halfpipe	-0.1039241
-4.446595	halftime	-0.1039241
-4.155971	halfway	-0.1039241
-4.155971	hall	-0.1039241
-3.906133	halloween	-0.1039241
-4.446595	hallucination	-0.1039241
-4.155971	hallway	-0.1039241
-4.446595	halter	-0.1039241
-4.446595	ham	-0.1039241
-4.155971	hamburger	-0.1666548
-4.308788	hamburgers	-0.2400013
-4.446595	hammer	-0.1039241
-4.446595	hamster	-0.1039241
-3.321417	hand	-0.2173569
-4.155971	handbag	-0.1039241
-4.446595	handbags	-0.1039241
-4.446595	handball	-0.1039241
-4.446595	handed	-0.1039241
-4.446595	handicapped	-0.1039241
-4.446595	handing	-0.1039241
-4.446595	handinhand	-0.1039241
-4.308788	handlebars	-0.1039241
-4.308788	handles	-0.1039241
-4.446595	handling	-0.1039241
-3.906133	handrail	-0.1279403
-3.373893	hands	-0.1892525
-3.906133	handsome	-0.1039241
-4.446595	handstand	-0.1039241
-4.446595	handwritten	-0.1039241
-3.906133	hang	-0.1447222
-4.446595	hanged	-0.1039241
-4.446595	hangglider	-0.1039241
-3.232347	hanging	-0.3421162
-4.446595	hangover	-0.1039241
-3.820228	hangs	-0.3174787
-4.446595	happen	-0.1039241
-4.446595	happens	-0.1039241
-3.04026	happily	-0.4136906
-4.308788	happiness	-0.2400013
-3.232347	happy	-0.3356944
-4.446595	harassment	-0.1039241
-4.446595	harbor	-0.1039241
-3.585236	hard	-0.1847779
-4.308788	hardhat	-0.1039241
-4.446595	hardscape	-0.1039241
-4.308788	hardwood	-0.1897541
-4.308788	harmful	-0.1039241
-4.446595	harmonize	-0.1039241
-4.446595	harmony	-0.1039241
-3.906133	harness	-0.1039241
-4.308788	harnessed	-0.1039241
-4.308788	harnesses	-0.1039241
-4.446595	harvested	-0.1039241
-2.845483	has	-0.3253748
-4.446595	hashtag	-0.1039241
-3.066935	hat	-0.2622274
-4.308788	hate	-0.1039241
-4.308788	hates	-0.1039241
-3.402719	hats	-0.2120119
-3.141813	have	-0.188587
-3.466834	having	-0.3097231
-4.155971	hawk	-0.3584815
-3.542081	hay	-0.1774346
-2.742946	he	-0.3404812
-3.193841	head	-0.2126858
-4.446595	headache	-0.1039241
-3.748541	headband	-0.1039241
-4.446595	headdress	-0.1039241
-4.446595	headdresses	-0.1039241
-4.013329	headed	-0.1039241
-4.446595	headfirst	-0.1039241
-4.446595	headgear	-0.1039241
-3.820228	heading	-0.3174787
-4.308788	headless	-0.1039241
-4.308788	headlights	-0.2400013
-3.687028	headphones	-0.1039241
-4.446595	headresses	-0.1039241
-3.820228	heads	-0.1039241
-4.308788	headscarf	-0.1039241
-4.446595	headscarfs	-0.1039241
-4.446595	headset	-0.1039241
-4.308788	health	-0.2400013
-4.446595	healthy	-0.1039241
-4.013329	hear	-0.1039241
-4.013329	heard	-0.1039241
-4.308788	hearing	-0.1039241
-4.446595	heart	-0.1039241
-4.446595	heartworm	-0.1039241
-4.013329	heat	-0.4834202
-4.446595	heaven	-0.1039241
-4.308788	heavily	-0.1039241
-3.748541	heavy	-0.1279403
-4.446595	heck	-0.1039241
-4.155971	heels	-0.1666548
-4.013329	height	-0.1666548
-4.446595	heir	-0.1039241
-3.748541	held	-0.253476
-4.155971	helicopter	-0.1039241
-3.402719	helmet	-0.2405418
-4.446595	helmeted	-0.1039241
-3.687028	helmets	-0.1306927
-4.155971	help	-0.1447222
-4.155971	helped	-0.1039241
-4.308788	helping	-0.1533628
-3.820228	helps	-0.1764044
-4.446595	hem	-0.1039241
-4.446595	hemen	-0.1039241
-4.446595	henna	-0.1039241
-4.446595	hens	-0.1039241
-2.434067	her	-0.2537867
-4.446595	hercules	-0.1039241
-4.446595	herd	-0.1039241
-4.308788	here	-0.2400013
-4.446595	herman	-0.1039241
-4.446595	hermit	-0.1039241
-4.446595	hernia	-0.1039241
-4.308788	hero	-0.1666548
-4.446595	heroically	-0.1039241
-4.446595	heron	-0.1039241
-4.446595	heros	-0.1039241
-4.308788	hers	-0.2400013
-3.687028	herself	-0.1659344
-4.446595	hesitantly	-0.1039241
-4.308788	hey	-0.1039241
-4.446595	hi	-0.1039241
-4.308788	hid	-0.1039241
-4.013329	hidden	-0.1039241
-4.155971	hide	-0.1279403
-4.308788	hideout	-0.1039241
-4.446595	hides	-0.1039241
-3.433594	hiding	-0.1442655
-4.446595	hieroglyphic	-0.1039241
-2.979965	high	-0.3095172
-4.308788	higher	-0.2400013
-4.446595	highfive	-0.1039241
-4.446595	highfiving	-0.1039241
-4.446595	highland	-0.1039241
-4.446595	highlighted	-0.1039241
-4.446595	highrise	-0.1039241
-3.906133	highway	-0.1039241
-4.155971	hike	-0.1039241
-4.013329	hiker	-0.1039241
-3.748541	hikers	-0.1592202
-4.446595	hikes	-0.1039241
-3.820228	hiking	-0.138654
-4.446595	hilariously	-0.1039241
-3.175797	hill	-0.3278531
-4.446595	hillbilly	-0.1039241
-4.013329	hills	-0.138654
-4.155971	hillside	-0.1447222
-4.308788	hilly	-0.1039241
-2.693661	him	-0.352423
-3.433594	himself	-0.4232819
-4.013329	hind	-0.4834202
-4.155971	hip	-0.1039241
-4.446595	hips	-0.1039241
-2.253273	his	-0.305041
-4.446595	historical	-0.1039241
-4.446595	history	-0.1039241
-3.466834	hit	-0.2457812
-4.446595	hitman	-0.1039241
-3.542081	hits	-0.4556596
-4.013329	hitting	-0.1666548
-4.446595	hiviz	-0.1039241
-4.446595	hobbit	-0.1039241
-3.50283	hockey	-0.2427721
-4.308788	hog	-0.2400013
-4.446595	hokie	-0.1039241
-3.297379	hold	-0.3004993
-2.687876	holding	-0.3934998
-4.446595	holdings	-0.1039241
-3.053393	holds	-0.4678158
-3.585236	hole	-0.4158586
-4.155971	holes	-0.1897541
-4.308788	holiday	-0.1666548
-4.308788	holidays	-0.2400013
-4.446595	holing	-0.1039241
-3.141813	home	-0.5151994
-4.155971	homeless	-0.2400013
-4.446595	homemade	-0.1039241
-4.446595	homerun	-0.1039241
-4.155971	homes	-0.1039241
-4.155971	homework	-0.1897541
-4.308788	honey	-0.2400013
-4.446595	honor	-0.1039241
-4.446595	honors	-0.1039241
-4.446595	honoured	-0.1039241
-4.308788	hood	-0.1039241
-3.906133	hooded	-0.1533628
-3.906133	hoodie	-0.1039241
-4.446595	hoof	-0.1039241
-4.446595	hook	-0.1039241
-4.446595	hooked	-0.1039241
-3.748541	hoop	-0.1039241
-4.446595	hooping	-0.1039241
-4.308788	hoops	-0.1039241
-4.446595	hooray	-0.1039241
-4.308788	hoot	-0.1039241
-4.446595	hooves	-0.1039241
-4.308788	hop	-0.1039241
-3.820228	hope	-0.1039241
-4.155971	hopefully	-0.1039241
-4.446595	hopeless	-0.1039241
-3.906133	hopes	-0.1039241
-2.991373	hoping	-0.4437314
-4.446595	hopper	-0.1039241
-4.013329	hopping	-0.1039241
-4.446595	hoppingly	-0.1039241
-4.446595	hops	-0.1039241
-4.308788	hopscotch	-0.1039241
-4.308788	horizon	-0.1039241
-4.308788	horn	-0.1039241
-4.308788	horns	-0.1039241
-4.446595	horrible	-0.1039241
-4.446595	horrific	-0.1039241
-4.446595	horror	-0.1039241
-3.274602	horse	-0.1973564
-4.308788	horseback	-0.1039241
-4.446595	horserace	-0.1039241
-3.402719	horses	-0.1793166
-4.446595	horseshoe	-0.1039241
-4.446595	horseshoes	-0.1039241
-4.013329	hose	-0.138654
-4.446595	hospital	-0.1039241
-3.297379	hot	-0.1813053
-4.308788	hotdog	-0.1039241
-4.308788	hotdogs	-0.2400013
-4.155971	hotel	-0.1039241
-4.308788	hound	-0.1039241
-4.446595	hours	-0.1039241
-3.232347	house	-0.3344585
-4.308788	housekeeping	-0.2400013
-4.446595	houses	-0.1039241
-4.446595	hover	-0.1039241
-4.446595	hovercrafts	-0.1039241
-4.446595	hovered	-0.1039241
-4.155971	hovering	-0.1897541
-4.446595	hovers	-0.1039241
-3.158473	how	-0.358173
-4.446595	howling	-0.1039241
-4.446595	hree	-0.1039241
-4.446595	hubby	-0.1039241
-3.906133	huddle	-0.1533628
-4.446595	huddled	-0.1039241
-3.820228	hug	-0.138654
-4.155971	huge	-0.1039241
-3.748541	hugging	-0.2049899
-4.446595	hugs	-0.1039241
-3.820228	hula	-0.195484
-4.446595	hulahoop	-0.1039241
-4.446595	hulahoops	-0.1039241
-3.906133	human	-0.3174787
-4.308788	humans	-0.1039241
-4.446595	humid	-0.1039241
-4.446595	hummer	-0.1039241
-4.446595	hummingbirds	-0.1039241
-4.446595	humorous	-0.1039241
-4.446595	humorously	-0.1039241
-4.446595	hump	-0.1039241
-4.446595	hunching	-0.1039241
-4.446595	hundred	-0.1039241
-4.155971	hundreds	-0.1897541
-4.446595	hungary	-0.1039241
-4.308788	hunger	-0.1039241
-4.308788	hungrily	-0.2400013
-3.633156	hungry	-0.1734045
-4.446595	hunt	-0.1039241
-4.446595	hunter	-0.1039241
-4.446595	hunters	-0.1039241
-4.308788	hunting	-0.1039241
-3.748541	hurdle	-0.2081023
-3.906133	hurdles	-0.2382975
-4.446595	hurricane	-0.1039241
-4.446595	hurry	-0.1039241
-4.446595	hurrying	-0.1039241
-4.446595	hurt	-0.1039241
-4.446595	hurtful	-0.1039241
-4.446595	hurting	-0.1039241
-4.446595	hurts	-0.1039241
-4.308788	husband	-0.2400013
-4.446595	huskies	-0.1039241
-4.308788	husky	-0.1039241
-4.308788	hustling	-0.1039241
-4.155971	hut	-0.1039241
-4.446595	hydrant	-0.1039241
-4.446595	hygiene	-0.1039241
-4.446595	hyperventilating	-0.1039241
-4.446595	hypnotize	-0.1039241
-3.50283	i	-0.2369023
-3.193841	ice	-0.2546613
-4.308788	icecream	-0.2400013
-4.308788	iced	-0.1039241
-4.446595	icicle	-0.1039241
-4.155971	icy	-0.1039241
-4.446595	id	-0.1039241
-4.308788	idea	-0.1039241
-4.308788	ideas	-0.1897541
-4.155971	identical	-0.1039241
-4.446595	identified	-0.1039241
-4.446595	identifier	-0.1039241
-4.446595	identities	-0.1039241
-4.308788	idiot	-0.1039241
-4.446595	idiots	-0.1039241
-4.446595	iditarod	-0.1039241
-4.446595	idly	-0.1039241
-4.446595	idol	-0.1039241
-4.446595	ids	-0.1039241
-3.433594	if	-0.2760603
-4.446595	igloo	-0.1039241
-4.446595	ignoble	-0.1039241
-4.446595	ignore	-0.1039241
-4.446595	ignored	-0.1039241
-4.155971	ignoring	-0.1039241
-4.446595	iguana	-0.1039241
-4.446595	iguanas	-0.1039241
-4.446595	illuminated	-0.1039241
-4.446595	illustrated	-0.1039241
-4.308788	image	-0.2400013
-3.820228	imaginary	-0.1447222
-4.308788	imagine	-0.1039241
-4.446595	imaging	-0.1039241
-4.446595	imagining	-0.1039241
-4.446595	imitate	-0.1039241
-4.308788	imitating	-0.1039241
-4.446595	impassioned	-0.1039241
-4.446595	impatient	-0.1039241
-4.446595	impeach	-0.1039241
-4.446595	impersonator	-0.1039241
-4.446595	importance	-0.1039241
-4.446595	importantly	-0.1039241
-4.446595	impress	-0.1039241
-4.308788	impressed	-0.1039241
-4.155971	impressing	-0.1039241
-4.446595	impression	-0.1039241
-4.446595	impressively	-0.1039241
-4.446595	improve	-0.1039241
-4.446595	improving	-0.1039241
-1.653711	in	-0.6581306
-4.446595	inadequate	-0.1039241
-4.446595	incline	-0.1039241
-4.308788	including	-0.1039241
-4.446595	incoming	-0.1039241
-4.446595	inconsiderate	-0.1039241
-4.446595	incontinant	-0.1039241
-4.446595	incredible	-0.1039241
-4.308788	independence	-0.2400013
-4.446595	india	-0.1039241
-4.308788	indian	-0.1039241
-4.308788	indians	-0.1039241
-4.446595	indicates	-0.1039241
-4.308788	indigestion	-0.2400013
-4.446595	individual	-0.1039241
-4.446595	individuals	-0.1039241
-4.155971	indoor	-0.1447222
-3.687028	indoors	-0.1341578
-4.446595	industrial	-0.1039241
-4.446595	infant	-0.1039241
-4.446595	infected	-0.1039241
-4.446595	infested	-0.1039241
-3.687028	inflatable	-0.1257013
-4.446595	inflatbale	-0.1039241
-4.308788	inflated	-0.1039241
-4.446595	informal	-0.1039241
-4.446595	information	-0.1039241
-4.446595	infused	-0.1039241
-4.308788	injured	-0.1039241
-4.446595	injuries	-0.1039241
-4.446595	ink	-0.1039241
-4.155971	inline	-0.1897541
-4.308788	inner	-0.1039241
-4.155971	innertube	-0.1039241
-4.308788	innovative	-0.1039241
-4.446595	insane	-0.1039241
-4.446595	insect	-0.1039241
-3.158473	inside	-0.5185397
-4.155971	inspecting	-0.1039241
-4.446595	inspiring	-0.1039241
-4.013329	instead	-0.1666548
-4.446595	instean	-0.1039241
-4.446595	instructor	-0.1039241
-4.446595	instrument	-0.1039241
-3.906133	instruments	-0.138654
-4.446595	insulted	-0.1039241
-4.308788	insurance	-0.1039241
-4.308788	int	-0.2400013
-4.446595	intends	-0.1039241
-4.446595	intense	-0.1039241
-4.446595	intent	-0.1039241
-4.308788	intently	-0.1039241
-4.446595	interact	-0.1039241
-4.446595	interacting	-0.1039241
-4.446595	interchangeable	-0.1039241
-4.446595	interested	-0.1039241
-4.013329	interesting	-0.1039241
-4.446595	intergalactic	-0.1039241
-4.446595	international	-0.1039241
-4.446595	internet	-0.1039241
-4.446595	interrupts	-0.1039241
-4.308788	intersection	-0.1039241
-4.308788	interview	-0.2400013
-4.446595	intimate	-0.1039241
-2.488608	into	-0.6522323
-4.446595	invading	-0.1039241
-4.446595	invention	-0.1039241
-4.446595	inverted	-0.1039241
-4.446595	invested	-0.1039241
-4.446595	invincible	-0.1039241
-3.633156	invisible	-0.1222791
-4.446595	involved	-0.1039241
-4.446595	involving	-0.1039241
-4.446595	ion	-0.1039241
-4.308788	iphone	-0.1039241
-4.308788	ipods	-0.1039241
-4.446595	irish	-0.1039241
-4.446595	iron	-0.1039241
-4.446595	irritating	-0.1039241
-2.004454	is	-0.4567177
-4.446595	isis	-0.1039241
-3.820228	island	-0.2128131
-4.446595	isnt	-0.1039241
-4.446595	issued	-0.1039241
-2.470817	it	-0.4313548
-4.446595	italian	-0.1039241
-4.446595	itching	-0.1039241
-4.155971	itchy	-0.1039241
-3.906133	item	-0.1447222
-4.308788	items	-0.1039241
-4.446595	ithat	-0.1039241
-2.845483	its	-0.218849
-4.013329	itself	-0.2091611
-4.446595	ivy	-0.1039241
-4.013329	jack	-0.1533628
-4.446595	jackalopes	-0.1039241
-4.446595	jackelopes	-0.1039241
-3.193841	jacket	-0.2800969
-3.748541	jackets	-0.1279403
-4.446595	jackolantern	-0.1039241
-4.446595	jackrabbits	-0.1039241
-4.308788	jackson	-0.1666548
-4.446595	jaguarr	-0.1039241
-4.446595	jaket	-0.1039241
-4.308788	jam	-0.1039241
-4.446595	jams	-0.1039241
-4.446595	jane	-0.1039241
-4.446595	january	-0.1039241
-4.155971	japanese	-0.1039241
-4.308788	jar	-0.1039241
-4.446595	jaws	-0.1039241
-4.446595	jealous	-0.1039241
-3.906133	jean	-0.1447222
-3.748541	jeans	-0.1617033
-3.906133	jeep	-0.1533628
-4.446595	jeeps	-0.1039241
-4.446595	jellyfish	-0.1039241
-4.446595	jerry	-0.1039241
-3.585236	jersey	-0.1774346
-4.308788	jerseys	-0.1039241
-4.446595	jesus	-0.1039241
-4.155971	jet	-0.1039241
-3.906133	jewelry	-0.1039241
-4.308788	jig	-0.2400013
-4.446595	jmping	-0.1039241
-4.308788	job	-0.1039241
-4.446595	jobs	-0.1039241
-4.308788	jockey	-0.1039241
-4.013329	jockeys	-0.1039241
-4.446595	joe	-0.1039241
-4.446595	jogger	-0.1039241
-4.446595	joggers	-0.1039241
-3.748541	jogging	-0.1341578
-4.308788	jogs	-0.2400013
-4.308788	john	-0.1039241
-4.446595	join	-0.1039241
-4.308788	joined	-0.1039241
-4.013329	joke	-0.1666548
-4.446595	joker	-0.1039241
-4.308788	jokes	-0.2400013
-4.308788	joking	-0.2400013
-4.308788	jolly	-0.2400013
-4.446595	jordan	-0.1039241
-3.687028	joy	-0.49357
-4.446595	joyful	-0.1039241
-3.820228	joyfully	-0.3174787
-4.446595	joyous	-0.1039241
-4.446595	joyously	-0.1039241
-4.446595	jr.	-0.1039241
-4.446595	jubilantly	-0.1039241
-4.446595	judge	-0.1039241
-4.308788	judges	-0.2400013
-4.446595	judging	-0.1039241
-4.308788	jug	-0.1039241
-4.446595	juggle	-0.1039241
-4.446595	juggles	-0.1039241
-4.155971	juggling	-0.1039241
-4.155971	juice	-0.1039241
-4.446595	juices	-0.1039241
-4.308788	juicy	-0.1039241
-4.446595	jukebox	-0.1039241
-4.446595	july	-0.1039241
-3.04026	jump	-0.3724293
-3.633156	jumped	-0.1279404
-4.155971	jumper	-0.1039241
-2.749519	jumping	-0.5012492
-4.446595	jumpropes	-0.1039241
-2.806026	jumps	-0.4905835
-4.308788	jumpsuit	-0.1039241
-3.906133	jungle	-0.2387836
-4.446595	junglegym	-0.1039241
-4.446595	junior	-0.1039241
-4.308788	jupiter	-0.2400013
-2.937113	just	-0.2001382
-4.446595	kali	-0.1039241
-4.155971	kangaroo	-0.1954841
-4.013329	karate	-0.1039241
-4.446595	kardashians	-0.1039241
-4.446595	karen	-0.1039241
-4.446595	kart	-0.1039241
-3.820228	kayak	-0.226604
-4.155971	kayaker	-0.1533628
-4.446595	kayakers	-0.1039241
-4.308788	kayaking	-0.1039241
-4.446595	kayaks	-0.1039241
-4.013329	keep	-0.1279403
-4.446595	keeper	-0.1039241
-4.308788	keeping	-0.1039241
-4.155971	keeps	-0.1039241
-4.446595	keg	-0.1039241
-4.446595	ketchup	-0.1039241
-4.013329	key	-0.2382975
-4.308788	keyboard	-0.1039241
-4.446595	keys	-0.1039241
-4.308788	khaki	-0.1039241
-4.446595	khakicolored	-0.1039241
-4.446595	kibble	-0.1039241
-4.446595	kibbles	-0.1039241
-3.748541	kick	-0.1039241
-4.308788	kicked	-0.1039241
-3.585236	kicking	-0.3212292
-3.633156	kicks	-0.1897541
-3.633156	kid	-0.1616062
-4.308788	kiddie	-0.2400013
-4.308788	kiddy	-0.1039241
-4.446595	kidnapper	-0.1039241
-3.373893	kids	-0.2207738
-4.446595	kildare	-0.1039241
-4.446595	kill	-0.1039241
-4.446595	killed	-0.1039241
-4.446595	killer	-0.1039241
-4.308788	killing	-0.1039241
-4.446595	kilt	-0.1039241
-4.446595	kindergarten	-0.1039241
-4.446595	kinds	-0.1039241
-4.155971	king	-0.1533628
-4.446595	kingfisher	-0.1039241
-4.446595	kiosk	-0.1039241
-3.820228	kiss	-0.1341578
-3.820228	kisses	-0.1447222
-3.687028	kissing	-0.1257013
-4.446595	kit	-0.1039241
-3.748541	kitchen	-0.1306927
-4.155971	kite	-0.138654
-4.155971	kites	-0.1533628
-4.308788	kitten	-0.1039241
-4.446595	klingons	-0.1039241
-4.308788	knee	-0.1039241
-3.820228	kneeling	-0.3329216
-4.308788	kneels	-0.2400013
-4.155971	knees	-0.1897541
-4.446595	knievel	-0.1039241
-4.446595	knife	-0.1039241
-4.446595	knit	-0.1039241
-4.308788	knitted	-0.1039241
-4.446595	knives	-0.1039241
-4.308788	knock	-0.1039241
-4.446595	knocked	-0.1039241
-4.446595	knocking	-0.1039241
-4.446595	knocks	-0.1039241
-4.446595	knots	-0.1039241
-3.906133	know	-0.1039241
-4.308788	knowing	-0.1039241
-4.308788	knowingly	-0.1039241
-4.446595	knowledge	-0.1039241
-4.155971	knows	-0.1039241
-4.446595	knuckle	-0.1039241
-4.308788	kong	-0.1039241
-4.446595	konnevel	-0.1039241
-4.446595	koolaid	-0.1039241
-4.446595	korea	-0.1039241
-4.446595	kraken	-0.1039241
-4.446595	kryptonite	-0.1039241
-4.013329	lab	-0.1447222
-4.446595	labradoodle	-0.1039241
-4.155971	labrador	-0.1039241
-4.308788	labs	-0.1039241
-4.446595	lacrosse	-0.1039241
-4.155971	ladder	-0.1039241
-3.748541	ladies	-0.1599167
-4.446595	ladles	-0.1039241
-3.373893	lady	-0.2049855
-4.308788	ladybird	-0.2400013
-4.446595	ladybugs	-0.1039241
-4.446595	lagoon	-0.1039241
-3.346863	lake	-0.2074325
-4.446595	lakeside	-0.1039241
-4.308788	lamb	-0.1039241
-4.308788	lambs	-0.1039241
-4.446595	lame	-0.1039241
-4.446595	lamenting	-0.1039241
-3.433594	land	-0.2575601
-4.155971	landed	-0.1897541
-3.542081	landing	-0.2797599
-3.820228	lands	-0.1897541
-3.820228	landscape	-0.138654
-4.446595	landslide	-0.1039241
-4.446595	lane	-0.1039241
-4.155971	language	-0.3584815
-4.155971	lap	-0.1039241
-4.446595	lapped	-0.1039241
-4.308788	laptop	-0.1039241
-3.080914	large	-0.1658653
-4.155971	larger	-0.1897541
-4.308788	largest	-0.1039241
-4.446595	largley	-0.1039241
-4.446595	lassos	-0.1039241
-3.820228	last	-0.1039241
-3.820228	late	-0.4254283
-4.446595	lately	-0.1039241
-4.446595	later	-0.1039241
-4.446595	latest	-0.1039241
-4.446595	latte	-0.1039241
-4.446595	latter	-0.1039241
-4.446595	laucher	-0.1039241
-3.820228	laugh	-0.138654
-3.212667	laughing	-0.2551988
-4.013329	laughs	-0.1533628
-4.446595	laughter	-0.1039241
-4.446595	launch	-0.1039241
-4.446595	launched	-0.1039241
-4.446595	launches	-0.1039241
-4.446595	laundry	-0.1039241
-4.308788	lava	-0.2400013
-4.446595	lavender	-0.1039241
-4.446595	lavish	-0.1039241
-3.402719	lawn	-0.2193406
-4.446595	laws	-0.1039241
-4.446595	lawyers	-0.1039241
-4.155971	lay	-0.1897541
-3.542081	laying	-0.430836
-3.820228	lays	-0.3174787
-4.446595	layup	-0.1039241
-4.308788	lazy	-0.1039241
-4.446595	lead	-0.1039241
-4.308788	leader	-0.1039241
-4.013329	leading	-0.2091611
-3.585236	leads	-0.1803664
-4.155971	leaf	-0.1039241
-4.446595	leafy	-0.1039241
-4.446595	leaguer	-0.1039241
-3.906133	lean	-0.1039241
-3.50283	leaning	-0.3878737
-3.906133	leans	-0.1533628
-3.748541	leap	-0.1764044
-4.446595	leaped	-0.1039241
-4.446595	leapfrog	-0.1039241
-3.50283	leaping	-0.2233527
-3.50283	leaps	-0.1809311
-4.446595	learn	-0.1039241
-4.308788	learned	-0.1039241
-3.633156	learning	-0.1306927
-4.155971	learns	-0.1897541
-3.820228	leash	-0.1416313
-4.308788	leashed	-0.1039241
-4.446595	leashes	-0.1039241
-3.748541	leather	-0.1659344
-4.155971	leave	-0.1897541
-3.297379	leaves	-0.2514248
-3.906133	leaving	-0.1447222
-4.446595	lecture	-0.1039241
-4.446595	led	-0.1039241
-3.906133	ledge	-0.1306927
-4.308788	leechinfested	-0.1039241
-3.542081	left	-0.1362502
-4.446595	leftover	-0.1039241
-3.687028	leg	-0.1599167
-4.308788	legged	-0.1039241
-4.446595	leggings	-0.1039241
-4.446595	legos	-0.1039241
-3.433594	legs	-0.2051804
-4.446595	leisurely	-0.1039241
-4.446595	lemon	-0.1039241
-4.446595	lemonade	-0.1039241
-4.446595	lemons	-0.1039241
-4.446595	length	-0.1039241
-4.308788	leopard	-0.1039241
-4.446595	leopards	-0.1039241
-4.446595	leoperd	-0.1039241
-4.446595	leotards	-0.1039241
-4.155971	leprechaun	-0.1897541
-4.446595	leprechauns	-0.1039241
-4.446595	lepruchaun	-0.1039241
-4.308788	lessons	-0.2400013
-4.155971	let	-0.1039241
-4.446595	lets	-0.1039241
-4.446595	letter	-0.1039241
-4.446595	letters	-0.1039241
-4.446595	level	-0.1039241
-4.446595	levitate	-0.1039241
-4.446595	levitating	-0.1039241
-4.446595	lewis	-0.1039241
-4.446595	liberty	-0.1039241
-4.446595	library	-0.1039241
-4.446595	lices	-0.1039241
-4.308788	lick	-0.1039241
-4.446595	licked	-0.1039241
-4.013329	licking	-0.138654
-4.155971	licks	-0.1666548
-4.308788	licorice	-0.1039241
-4.446595	lids	-0.1039241
-4.446595	lie	-0.1039241
-4.013329	lies	-0.1897541
-3.297379	life	-0.3646908
-4.446595	lifeguard	-0.1039241
-4.446595	lifejacket	-0.1039241
-4.446595	lifevest	-0.1039241
-4.446595	lifevests	-0.1039241
-4.308788	lift	-0.1039241
-4.308788	lifting	-0.1039241
-4.446595	lifts	-0.1039241
-3.466834	light	-0.1702151
-4.446595	lightcolored	-0.1039241
-4.308788	lighthouse	-0.1039241
-3.820228	lighting	-0.1039241
-4.446595	lightning	-0.1039241
-4.013329	lights	-0.1039241
-4.446595	lightsaber	-0.1039241
-2.153656	like	-0.4854715
-4.446595	likely	-0.1039241
-4.013329	likes	-0.1666548
-4.446595	lillypad	-0.1039241
-4.308788	limbs	-0.1039241
-4.446595	limo	-0.1039241
-4.308788	limousine	-0.1039241
-3.433594	line	-0.146106
-3.633156	lined	-0.3307208
-4.308788	lines	-0.1039241
-4.446595	lineup	-0.1039241
-4.446595	lining	-0.1039241
-4.446595	link	-0.1039241
-4.446595	linked	-0.1039241
-4.446595	lint	-0.1039241
-4.013329	lion	-0.2382975
-4.155971	lions	-0.1897541
-3.906133	lips	-0.1447222
-4.308788	lipstick	-0.1039241
-4.446595	liquid	-0.1039241
-4.446595	listen	-0.1039241
-3.633156	listening	-0.5393275
-4.013329	listens	-0.4834202
-4.013329	lit	-0.1039241
-4.446595	litter	-0.1039241
-3.066935	little	-0.3264462
-4.155971	live	-0.1039241
-4.446595	lively	-0.1039241
-4.308788	lives	-0.2400013
-4.013329	living	-0.2795683
-4.446595	livings	-0.1039241
-3.906133	lizard	-0.3377518
-4.155971	lizards	-0.3584815
-4.446595	llama	-0.1039241
-4.446595	load	-0.1039241
-4.446595	loaded	-0.1039241
-4.446595	loaders	-0.1039241
-4.446595	loading	-0.1039241
-4.446595	loaves	-0.1039241
-4.446595	lobsters	-0.1039241
-4.013329	local	-0.1039241
-4.446595	located	-0.1039241
-4.308788	location	-0.1039241
-4.446595	loch	-0.1039241
-4.446595	lochness	-0.1039241
-4.446595	lock	-0.1039241
-4.446595	locked	-0.1039241
-4.446595	locker	-0.1039241
-4.446595	lockers	-0.1039241
-4.446595	locks	-0.1039241
-4.446595	locomotives	-0.1039241
-4.013329	log	-0.1486285
-4.308788	logo	-0.1039241
-4.446595	logos	-0.1039241
-4.446595	loitering	-0.1039241
-4.155971	lollipop	-0.1666548
-4.308788	lollipops	-0.2400013
-4.446595	lolly	-0.1039241
-4.446595	lollygagging	-0.1039241
-4.155971	lone	-0.1734045
-4.155971	lonely	-0.1897541
-3.346863	long	-0.1389056
-4.446595	longest	-0.1039241
-4.446595	longhandled	-0.1039241
-4.446595	longnecked	-0.1039241
-2.979965	look	-0.4010471
-4.446595	looke	-0.1039241
-4.446595	looker	-0.1039241
-4.446595	lookin	-0.1039241
-2.334329	looking	-0.7089493
-4.446595	lookout	-0.1039241
-2.723803	looks	-0.4143021
-4.013329	loose	-0.1039241
-4.446595	loosing	-0.1039241
-4.446595	lose	-0.1039241
-4.308788	loses	-0.1039241
-3.633156	losing	-0.1666548
-3.402719	lost	-0.2258669
-4.308788	lot	-0.1039241
-4.155971	lots	-0.3584815
-4.446595	lottery	-0.1039241
-4.308788	loud	-0.2400013
-4.155971	loudly	-0.1897541
-4.446595	louis	-0.1039241
-4.446595	loungbar	-0.1039241
-4.155971	lounge	-0.1039241
-4.446595	lounges	-0.1039241
-3.542081	love	-0.219162
-4.446595	loved	-0.1039241
-4.155971	lovely	-0.1039241
-3.687028	lover	-0.3479281
-4.308788	lovers	-0.1039241
-4.308788	loves	-0.1039241
-4.446595	loving	-0.1039241
-3.820228	low	-0.1039241
-4.446595	lower	-0.1039241
-4.446595	lowered	-0.1039241
-4.446595	luck	-0.1039241
-4.155971	lucky	-0.1039241
-4.308788	luggage	-0.1039241
-4.446595	lullabies	-0.1039241
-4.446595	lullaby	-0.1039241
-4.446595	lumbago	-0.1039241
-4.446595	lump	-0.1039241
-3.687028	lunch	-0.3377518
-4.446595	lunchbox	-0.1039241
-4.446595	lunges	-0.1039241
-4.446595	lure	-0.1039241
-4.446595	lurk	-0.1039241
-4.446595	lush	-0.1039241
-3.633156	lying	-0.4831778
-4.446595	lyrics	-0.1039241
-4.446595	macciato	-0.1039241
-4.446595	mach	-0.1039241
-3.906133	machine	-0.1039241
-4.446595	macy	-0.1039241
-3.820228	mad	-0.138654
-3.252961	made	-0.3259987
-4.308788	madly	-0.1039241
-4.446595	madman	-0.1039241
-4.446595	maes	-0.1039241
-4.446595	maffler	-0.1039241
-4.308788	magazine	-0.1039241
-4.308788	magazines	-0.1039241
-3.906133	magic	-0.1039241
-4.446595	magical	-0.1039241
-4.446595	magician	-0.1039241
-4.446595	magizine	-0.1039241
-4.446595	maid	-0.1039241
-4.446595	mailman	-0.1039241
-4.446595	main	-0.1039241
-4.446595	maintain	-0.1039241
-4.446595	maintaining	-0.1039241
-4.446595	majestic	-0.1039241
-3.585236	make	-0.1257013
-4.446595	makers	-0.1039241
-3.175797	makes	-0.3960356
-4.446595	makeshift	-0.1039241
-4.155971	makeup	-0.1039241
-2.991373	making	-0.2538556
-3.820228	male	-0.11789
-4.155971	males	-0.1039241
-4.013329	mall	-0.1341578
-4.446595	malnutrition	-0.1039241
-4.446595	mama	-0.1039241
-4.308788	mambo	-0.1039241
-2.604475	man	-0.3148071
