
\data\
ngram 1=3337
ngram 2=16293
ngram 3=6161

\1-grams:
-4.104095	1	-0.1209238
-4.104095	1the	-0.1209238
-3.328313	2	-0.1761092
-4.104095	2is	-0.1209238
-3.274961	3	-0.2367074
-4.104095	4	-0.1209238
-4.104095	555	-0.1209238
-4.104095	6	-0.1209238
-4.104095	6th	-0.1209238
-1.249324	</s>
-99	<s>	-1.295001
-1.721129	a	-0.4375163
-2.941311	abandoned	-0.3659087
-4.104095	aboard	-0.1209238
-2.876534	about	-0.3241737
-2.965245	above	-0.4076526
-3.274961	abused	-0.6275597
-4.104095	abusive	-0.1209238
-4.104095	accented	-0.1209238
-4.104095	accepting	-0.1209238
-4.104095	accessible	-0.1209238
-4.104095	accidentally	-0.1209238
-4.104095	accommodate	-0.1209238
-4.104095	accompanied	-0.1209238
-4.104095	aching	-0.1209238
-3.046149	across	-0.4586492
-3.977935	acting	-0.2459484
-4.104095	actually	-0.1209238
-4.104095	addition	-0.1209238
-4.104095	adds	-0.1209238
-4.104095	adjacent	-0.1209238
-4.104095	admire	-0.1209238
-4.104095	admit	-0.1209238
-4.104095	adorned	-0.1209238
-4.104095	adorns	-0.1209238
-4.104095	adrenaline	-0.1209238
-3.788678	adult	-0.1667099
-4.104095	advertisement	-0.1209238
-4.104095	advertising	-0.1209238
-4.104095	affect	-0.1209238
-4.104095	affecting	-0.1209238
-4.104095	afford	-0.1209238
-3.977935	afraid	-0.2459484
-4.104095	african	-0.1209238
-3.145658	after	-0.3092581
-4.104095	afternoon	-0.1209238
-3.788678	again	-0.1209238
-2.918628	against	-0.5003829
-4.104095	age	-0.1209238
-3.544504	aggressive	-0.1879135
-3.389149	ahead	-0.1932561
-4.104095	aided	-0.1209238
-3.389149	air	-0.1971241
-3.227453	airplane	-0.1566614
-3.788678	airplanes	-0.1209238
-3.788678	airport	-0.1702642
-4.104095	airstrip	-0.1209238
-4.104095	albino	-0.1209238
-4.104095	alcholic	-0.1209238
-3.977935	alcoholic	-0.1209238
-4.104095	alcove	-0.1209238
-4.104095	alive	-0.1209238
-2.918628	all	-0.2273066
-4.104095	alley	-0.1209238
-4.104095	allow	-0.1209238
-3.788678	allowed	-0.2001566
-3.788678	almost	-0.1209238
-3.076854	alone	-0.3024005
-2.786296	along	-0.6491802
-3.544504	alongside	-0.2259373
-3.788678	alot	-0.2001566
-4.104095	alpine	-0.1209238
-3.544504	also	-0.1209238
-4.104095	although	-0.1209238
-3.977935	always	-0.1209238
-4.104095	am	-0.1209238
-4.104095	amazed	-0.1209238
-4.104095	amazing	-0.1209238
-4.104095	ambiance	-0.1209238
-4.104095	america	-0.1209238
-4.104095	americas	-0.1209238
-3.977935	amid	-0.2459484
-3.977935	among	-0.1209238
-3.649652	amongst	-0.1789525
-3.649652	amount	-0.4383149
-4.104095	amtrak	-0.1209238
-4.104095	amused	-0.1209238
-2.300042	an	-0.4487199
-3.977935	anchored	-0.1209238
-4.104095	ancient	-0.1209238
-1.692632	and	-0.3424139
-4.104095	angle	-0.1209238
-4.104095	angrily	-0.1209238
-3.227453	angry	-0.3302432
-3.184632	animal	-0.2400754
-3.145658	animals	-0.2239135
-3.389149	annoying	-0.326492
-3.046149	another	-0.148049
-4.104095	anticipating	-0.1209238
-4.104095	antique	-0.1209238
-3.389149	any	-0.1209238
-4.104095	anyone	-0.1209238
-3.788678	anything	-0.1209238
-4.104095	anywhere	-0.1209238
-4.104095	apart	-0.1209238
-4.104095	apartment	-0.1209238
-4.104095	apparatus	-0.1209238
-4.104095	apparently	-0.1209238
-4.104095	appearance	-0.1209238
-3.459917	appears	-0.3720653
-4.104095	appetizing	-0.1209238
-3.788678	apple	-0.1489697
-3.649652	apples	-0.2178982
-3.389149	appliances	-0.1209238
-4.104095	appreciate	-0.1209238
-4.104095	approach	-0.1209238
-4.104095	approaches	-0.1209238
-3.977935	approaching	-0.2459484
-4.104095	arched	-0.1209238
-4.104095	arches	-0.1209238
-4.104095	archway	-0.1209238
-4.104095	archways	-0.1209238
-2.294756	are	-0.2974798
-2.698112	area	-0.490737
-4.104095	areas	-0.1209238
-3.788678	arm	-0.1209238
-3.977935	arms	-0.1209238
-4.104095	aroad	-0.1209238
-2.68501	around	-0.5199426
-3.788678	arranged	-0.3133761
-3.977935	arrangement	-0.1209238
-4.104095	arriving	-0.1209238
-3.788678	art	-0.1209238
-4.104095	arts	-0.1209238
-2.482428	as	-0.4538081
-3.977935	asian	-0.1209238
-4.104095	asphalt	-0.1209238
-4.104095	assembled	-0.1209238
-4.104095	asshole	-0.1209238
-3.788678	assorted	-0.1209238
-3.788678	assortment	-0.3133761
-2.099227	at	-0.7403549
-4.104095	ate	-0.1209238
-3.977935	athlete	-0.1209238
-3.977935	atop	-0.2459484
-3.788678	attached	-0.1789525
-4.104095	attaching	-0.1209238
-4.104095	attack	-0.1209238
-3.977935	attempt	-0.1209238
-3.389149	attempting	-0.2257294
-3.788678	attempts	-0.2001566
-4.104095	attendants	-0.1209238
-4.104095	attended	-0.1209238
-4.104095	attends	-0.1209238
-3.788678	attention	-0.1209238
-4.104095	attests	-0.1209238
-4.104095	attract	-0.1209238
-4.104095	attracts	-0.1209238
-4.104095	audience	-0.1209238
-3.977935	avenue	-0.1209238
-3.977935	avoid	-0.1209238
-4.104095	await	-0.1209238
-4.104095	awaiting	-0.1209238
-4.104095	awaits	-0.1209238
-4.104095	awake	-0.1209238
-4.104095	awakens	-0.1209238
-4.104095	aware	-0.1209238
-3.227453	away	-0.326492
-3.788678	awful	-0.2567011
-4.104095	awkward	-0.1209238
-3.977935	awkwardly	-0.1209238
-3.227453	baby	-0.1880001
-3.389149	back	-0.1964037
-4.104095	backdrop	-0.1209238
-3.788678	background	-0.1932561
-4.104095	backpack	-0.1209238
-4.104095	backpacks	-0.1209238
-4.104095	backside	-0.1209238
-4.104095	bacon	-0.1209238
-2.543145	bad	-0.4094219
-3.977935	badly	-0.1209238
-3.977935	bag	-0.1209238
-4.104095	baggage	-0.1209238
-3.977935	bags	-0.1209238
-3.977935	bakery	-0.1209238
-4.104095	balcony	-0.1209238
-4.104095	bald	-0.1209238
-3.389149	ball	-0.1944659
-3.649652	balls	-0.1789525
-4.104095	bamboo	-0.1209238
-3.788678	banana	-0.1209238
-3.459917	bananas	-0.1587358
-4.104095	band	-0.1209238
-4.104095	bandaged	-0.1209238
-3.977935	bank	-0.1209238
-4.104095	banner	-0.1209238
-4.104095	banquet	-0.1209238
-4.104095	bar	-0.1209238
-4.104095	barbed	-0.1209238
-3.788678	barely	-0.1209238
-3.788678	barn	-0.2001566
-4.104095	bars	-0.1209238
-3.977935	base	-0.1209238
-3.184632	baseball	-0.1863136
-3.977935	based	-0.1209238
-4.104095	basic	-0.1209238
-4.104095	basket	-0.1209238
-4.104095	basketball	-0.1209238
-3.649652	bat	-0.1667099
-3.977935	bath	-0.1209238
-4.104095	bathed	-0.1209238
-3.017474	bathroom	-0.3015055
-4.104095	bathrooms	-0.1209238
-3.544504	bathtub	-0.2160893
-3.977935	bats	-0.1209238
-4.104095	batter	-0.1209238
-3.977935	battered	-0.1209238
-4.104095	batters	-0.1209238
-4.104095	bay	-0.1209238
-3.046149	be	-0.1711974
-3.274961	beach	-0.2114392
-4.104095	beak	-0.1209238
-4.104095	beanies	-0.1209238
-3.184632	bear	-0.2601995
-4.104095	beard	-0.1209238
-3.274961	bears	-0.1566614
-3.977935	beat	-0.2459484
-3.977935	beating	-0.1209238
-3.649652	beautiful	-0.1209238
-4.104095	beautifully	-0.1209238
-3.977935	beauty	-0.1209238
-3.649652	became	-0.2459484
-3.046149	because	-0.2866039
-4.104095	beckoning	-0.1209238
-3.788678	become	-0.2001566
-3.046149	bed	-0.3293642
-3.649652	bedroom	-0.1879135
-3.544504	beds	-0.2259373
-4.104095	bedspread	-0.1209238
-3.649652	been	-0.1209238
-3.544504	beer	-0.1953147
-3.977935	beers	-0.1209238
-3.389149	before	-0.1879135
-4.104095	began	-0.1209238
-4.104095	begin	-0.1209238
-4.104095	begins	-0.1209238
-2.918628	behind	-0.4304245
-3.977935	beige	-0.1209238
-2.965245	being	-0.1879275
-4.104095	belied	-0.1209238
-4.104095	belies	-0.1209238
-4.104095	believe	-0.1209238
-4.104095	belonging	-0.1209238
-4.104095	belongs	-0.1209238
-3.459917	below	-0.2001566
-4.104095	belt	-0.1209238
-4.104095	ben	-0.1209238
-3.017474	bench	-0.2238169
-3.977935	benches	-0.1209238
-3.977935	bend	-0.2459484
-3.459917	beneath	-0.3051185
-4.104095	beseegrd	-0.1209238
-2.820176	beside	-0.5253606
-3.649652	better	-0.1209238
-3.389149	between	-0.1623422
-4.104095	beverage	-0.1209238
-3.977935	beverages	-0.2459484
-3.649652	bicycle	-0.1789525
-4.104095	bicyclers	-0.1209238
-3.649652	bicycles	-0.1209238
-4.104095	bides	-0.1209238
-4.104095	bidet	-0.1209238
-3.274961	big	-0.1209238
-4.104095	bigger	-0.1209238
-3.076854	bike	-0.2813736
-3.977935	bikers	-0.1209238
-3.544504	bikes	-0.1721085
-4.104095	binoculars	-0.1209238
-3.274961	bird	-0.2780142
-3.109895	birds	-0.2517647
-4.104095	birthday	-0.1209238
-4.104095	biscuits	-0.1209238
-4.104095	bit	-0.1209238
-3.649652	bite	-0.1209238
-3.977935	biting	-0.1209238
-2.856924	black	-0.2324756
-3.544504	blanket	-0.2001566
-4.104095	blankets	-0.1209238
-4.104095	blast	-0.1209238
-4.104095	blind	-0.1209238
-3.977935	blindfolds	-0.1209238
-3.977935	block	-0.2459484
-3.977935	blocked	-0.1209238
-4.104095	blocking	-0.1209238
-4.104095	blocks	-0.1209238
-3.977935	blonde	-0.2459484
-4.104095	bloody	-0.1209238
-3.977935	blowing	-0.1209238
-4.104095	blown	-0.1209238
-4.104095	blows	-0.1209238
-2.965245	blue	-0.2085959
-3.649652	blurry	-0.1667099
-3.227453	board	-0.2405566
-4.104095	boarded	-0.1209238
-3.977935	boarder	-0.1209238
-4.104095	boarders	-0.1209238
-3.977935	boarding	-0.1209238
-3.788678	boards	-0.1789526
-4.104095	boardwalk	-0.1209238
-3.017474	boat	-0.2258143
-3.977935	boating	-0.1209238
-3.046149	boats	-0.2084036
-4.104095	bodies	-0.1209238
-3.649652	body	-0.1932561
-4.104095	bologna	-0.1209238
-4.104095	bones	-0.1209238
-3.977935	book	-0.1587358
-3.977935	books	-0.1209238
-4.104095	bookshelf	-0.1209238
-4.104095	bookshelves	-0.1209238
-4.104095	boots	-0.1209238
-4.104095	bored	-0.1209238
-3.977935	boring	-0.1209238
-4.104095	boringlooking	-0.1209238
-4.104095	both	-0.1209238
-4.104095	bother	-0.1209238
-4.104095	bothering	-0.1209238
-3.788678	bottle	-0.1932561
-3.544504	bottles	-0.1209238
-4.104095	bottom	-0.1209238
-4.104095	boulder	-0.1209238
-4.104095	bouqet	-0.1209238
-3.977935	bouquet	-0.2001566
-3.977935	bow	-0.2459484
-3.227453	bowl	-0.3990427
-3.649652	bowls	-0.1667099
-3.274961	box	-0.1819973
-3.788678	boxes	-0.1789525
-3.145658	boy	-0.178695
-4.104095	boyfriend	-0.1209238
-3.977935	boys	-0.2459484
-3.649652	branch	-0.1587358
-4.104095	branches	-0.1209238
-3.788678	bread	-0.1209238
-4.104095	break	-0.1209238
-3.977935	breakfast	-0.1209238
-4.104095	breast	-0.1209238
-3.389149	brick	-0.1379674
-4.104095	bride	-0.1209238
-3.649652	bridge	-0.1667099
-4.104095	brief	-0.1209238
-3.459917	bright	-0.1432137
-3.977935	brightly	-0.1209238
-4.104095	bring	-0.1209238
-3.544504	broccoli	-0.1667099
-4.104095	broke	-0.1209238
-4.104095	brokem	-0.1209238
-2.897071	broken	-0.3151053
-4.104095	brother	-0.1209238
-3.227453	brown	-0.1953147
-4.104095	browns	-0.1209238
-4.104095	bruised	-0.1209238
-4.104095	bruises	-0.1209238
-3.977935	brush	-0.1209238
-4.104095	brushes	-0.1209238
-3.459917	brushing	-0.3051185
-4.104095	brushy	-0.1209238
-4.104095	bu	-0.1209238
-4.104095	bubbles	-0.1209238
-4.104095	buddy	-0.1209238
-4.104095	buffalo	-0.1209238
-3.977935	buffet	-0.1209238
-4.104095	buidling	-0.1209238
-2.990575	building	-0.3052503
-3.389149	buildings	-0.2393418
-4.104095	built	-0.1209238
-3.788678	bull	-0.1789526
-4.104095	bulls	-0.1209238
-3.977935	bullshit	-0.1209238
-4.104095	bum	-0.1209238
-4.104095	bump	-0.1209238
-3.977935	bumper	-0.1209238
-4.104095	bumpy	-0.1209238
-3.977935	bunch	-0.1209238
-4.104095	bunched	-0.1209238
-4.104095	bunches	-0.1209238
-4.104095	bundled	-0.1209238
-3.977935	bunk	-0.1209238
-4.104095	burger	-0.1209238
-4.104095	buried	-0.1209238
-4.104095	burrito	-0.1209238
-2.990575	bus	-0.2799436
-3.227453	buses	-0.1819973
-4.104095	bushes	-0.1209238
-3.977935	business	-0.1209238
-4.104095	bust	-0.1209238
-4.104095	busted	-0.1209238
-3.788678	busy	-0.1587358
-3.017474	but	-0.1721085
-3.977935	butt	-0.2459484
-3.649652	butterfly	-0.2459484
-4.104095	button	-0.1209238
-4.104095	buying	-0.1209238
-2.175969	by	-0.525067
-4.104095	cabin	-0.1209238
-3.544504	cabinets	-0.1932561
-4.104095	cabnets	-0.1209238
-4.104095	cafe	-0.1209238
-3.977935	cafeteria	-0.1209238
-4.104095	cage	-0.1209238
-3.274961	cake	-0.2961559
-3.977935	cakes	-0.1209238
-4.104095	calico	-0.1209238
-3.649652	call	-0.1209238
-3.977935	called	-0.1209238
-4.104095	calls	-0.1209238
-3.649652	camera	-0.1702108
-3.977935	cameras	-0.1209238
-4.104095	camper	-0.1209238
-4.104095	campers	-0.1209238
-4.104095	campfire	-0.1209238
-4.104095	campus	-0.1209238
-2.990575	can	-0.4043258
-4.104095	canal	-0.1209238
-3.977935	candle	-0.2001566
-4.104095	candles	-0.1209238
-4.104095	candy	-0.1209238
-4.104095	canine	-0.1209238
-3.977935	cant	-0.1667099
-4.104095	capes	-0.1209238
-4.104095	captivity	-0.1209238
-4.104095	captor	-0.1209238
-4.104095	captures	-0.1209238
-4.104095	capturing	-0.1209238
-2.990575	car	-0.3252359
-4.104095	caramel	-0.1209238
-4.104095	card	-0.1209238
-4.104095	cardinal	-0.1209238
-3.977935	care	-0.1209238
-3.649652	careful	-0.1209238
-4.104095	carelessness	-0.1209238
-4.104095	caretakers	-0.1209238
-4.104095	cargo	-0.1209238
-4.104095	carousel	-0.1209238
-4.104095	carpet	-0.1209238
-3.788678	carriage	-0.1209238
-4.104095	carriages	-0.1209238
-4.104095	carried	-0.1209238
-3.977935	carries	-0.1209238
-4.104095	carrot	-0.1209238
-4.104095	carrots	-0.1209238
-3.389149	carrying	-0.3720653
-3.046149	cars	-0.2218992
-3.649652	cart	-0.1667099
-3.977935	carton	-0.1209238
-4.104095	carts	-0.1209238
-4.104095	carve	-0.1209238
-4.104095	carved	-0.1209238
-4.104095	carving	-0.1209238
-3.649652	case	-0.1667099
-4.104095	cases	-0.1209238
-4.104095	casting	-0.1209238
-4.104095	castle	-0.1209238
-4.104095	casts	-0.1209238
-4.104095	casual	-0.1209238
-2.68501	cat	-0.3879717
-3.977935	catch	-0.1209238
-4.104095	catchers	-0.1209238
-4.104095	catches	-0.1209238
-3.788678	catching	-0.2001566
-4.104095	caterer	-0.1209238
-3.649652	cats	-0.1209238
-3.788678	cattle	-0.1209238
-3.544504	caught	-0.1209238
-3.649652	cause	-0.1209238
-3.977935	caused	-0.1209238
-3.977935	causing	-0.1209238
-4.104095	cavernous	-0.1209238
-4.104095	cavorting	-0.1209238
-4.104095	ceilings	-0.1209238
-3.459917	cell	-0.3051185
-4.104095	cellphone	-0.1209238
-3.977935	cement	-0.1209238
-4.104095	cemetary	-0.1209238
-3.977935	cemetery	-0.2459484
-3.649652	center	-0.2178982
-4.104095	centerpiece	-0.1209238
-4.104095	ceramic	-0.1209238
-4.104095	certain	-0.1209238
-3.977935	chained	-0.1209238
-3.145658	chair	-0.2907129
-3.076854	chairs	-0.2501829
-4.104095	change	-0.1209238
-4.104095	changed	-0.1209238
-4.104095	chaps	-0.1209238
-4.104095	charlton	-0.1209238
-3.977935	chases	-0.1209238
-3.544504	chasing	-0.2512915
-4.104095	cheap	-0.1209238
-4.104095	checkered	-0.1209238
-4.104095	cheers	-0.1209238
-3.977935	chef	-0.1209238
-4.104095	chemicals	-0.1209238
-4.104095	chestnut	-0.1209238
-4.104095	chewing	-0.1209238
-4.104095	chews	-0.1209238
-3.977935	chicken	-0.1789525
-3.109895	child	-0.1989929
-3.328313	children	-0.1411394
-3.649652	childs	-0.1209238
-3.977935	chili	-0.1209238
-4.104095	chilling	-0.1209238
-4.104095	chin	-0.1209238
-4.104095	chip	-0.1209238
-4.104095	chips	-0.1209238
-4.104095	chocolate	-0.1209238
-4.104095	chops	-0.1209238
-3.788678	christian	-0.3133761
-3.544504	christmas	-0.1667099
-4.104095	chugs	-0.1209238
-3.977935	church	-0.2459484
-4.104095	chute	-0.1209238
-4.104095	circle	-0.1209238
-4.104095	circus	-0.1209238
-3.076854	city	-0.3042174
-4.104095	citym	-0.1209238
-4.104095	claim	-0.1209238
-4.104095	clashed	-0.1209238
-4.104095	class	-0.1209238
-4.104095	classic	-0.1209238
-4.104095	clawlike	-0.1209238
-4.104095	clay	-0.1209238
-3.788678	clean	-0.1209238
-4.104095	cleaned	-0.1209238
-4.104095	cleanliness	-0.1209238
-4.104095	cleans	-0.1209238
-3.649652	clear	-0.1209238
-3.788678	clearly	-0.1209238
-3.977935	clever	-0.2459484
-4.104095	climb	-0.1209238
-4.104095	clings	-0.1209238
-4.104095	clinic	-0.1209238
-4.104095	clips	-0.1209238
-2.918628	clock	-0.300488
-3.788678	clocks	-0.1209238
-3.328313	close	-0.4892569
-4.104095	closecropped	-0.1209238
-4.104095	closed	-0.1209238
-4.104095	closedminded	-0.1209238
-4.104095	closeup	-0.1209238
-3.544504	clothes	-0.2259373
-3.977935	clothing	-0.1209238
-3.977935	cloud	-0.1789525
-4.104095	cloudless	-0.1209238
-3.544504	clouds	-0.3051185
-3.788678	cloudy	-0.1209238
-4.104095	clutching	-0.1209238
-4.104095	clutter	-0.1209238
-3.459917	cluttered	-0.1209238
-3.977935	coach	-0.1209238
-4.104095	coast	-0.1209238
-4.104095	coat	-0.1209238
-4.104095	cobble	-0.1209238
-4.104095	cobbler	-0.1209238
-4.104095	cobblestone	-0.1209238
-3.544504	coffee	-0.1432137
-2.533934	cold	-0.4520088
-4.104095	collage	-0.1209238
-3.788678	collection	-0.1209238
-3.977935	college	-0.1209238
-4.104095	colonial	-0.1209238
-3.459917	color	-0.2044254
-3.274961	colored	-0.2044254
-3.977935	colorful	-0.1209238
-3.788678	colors	-0.1209238
-3.977935	colt	-0.1209238
-4.104095	column	-0.1209238
-4.104095	combo	-0.1209238
-3.649652	come	-0.1209238
-3.649652	comes	-0.1209238
-3.977935	comfort	-0.1209238
-4.104095	comfortable	-0.1209238
-4.104095	comforter	-0.1209238
-3.109895	comfy	-0.4939314
-3.544504	coming	-0.2044254
-4.104095	comment	-0.1209238
-3.649652	commercial	-0.1789525
-4.104095	commode	-0.1209238
-4.104095	common	-0.1209238
-4.104095	community	-0.1209238
-3.977935	commuter	-0.2001566
-3.977935	companion	-0.2001566
-4.104095	comparatively	-0.1209238
-4.104095	compete	-0.1209238
-4.104095	competing	-0.1209238
-4.104095	competition	-0.1209238
-4.104095	competitor	-0.1209238
-4.104095	competitors	-0.1209238
-4.104095	complement	-0.1209238
-3.977935	completely	-0.1209238
-4.104095	compromising	-0.1209238
-3.274961	computer	-0.2543055
-3.544504	computers	-0.2001566
-3.977935	conceals	-0.1209238
-4.104095	concentrating	-0.1209238
-4.104095	concerned	-0.1209238
-4.104095	concert	-0.1209238
-3.788678	concrete	-0.1209238
-4.104095	condition	-0.1209238
-4.104095	conditions	-0.1209238
-4.104095	conducts	-0.1209238
-3.977935	cone	-0.1209238
-4.104095	conference	-0.1209238
-4.104095	confines	-0.1209238
-4.104095	confuse	-0.1209238
-3.649652	confused	-0.2567011
-3.977935	congregate	-0.1209238
-3.977935	connected	-0.2459484
-3.977935	considered	-0.1209238
-4.104095	considers	-0.1209238
-4.104095	consist	-0.1209238
-3.977935	consisting	-0.2459484
-4.104095	construction	-0.1209238
-4.104095	consumption	-0.1209238
-4.104095	contain	-0.1209238
-3.977935	container	-0.1209238
-3.788678	containers	-0.1209238
-3.389149	containing	-0.1457625
-3.459917	contains	-0.2530873
-4.104095	contaminated	-0.1209238
-4.104095	contemplating	-0.1209238
-4.104095	contest	-0.1209238
-4.104095	contestant	-0.1209238
-4.104095	contestants	-0.1209238
-4.104095	continue	-0.1209238
-4.104095	continues	-0.1209238
-4.104095	contrast	-0.1209238
-3.788678	control	-0.1209238
-3.977935	controller	-0.1789525
-3.977935	controllers	-0.2001566
-4.104095	controlling	-0.1209238
-4.104095	conversation	-0.1209238
-4.104095	converted	-0.1209238
-4.104095	conveyor	-0.1209238
-4.104095	convoy	-0.1209238
-4.104095	cooked	-0.1209238
-3.649652	cookies	-0.1789525
-3.649652	cooking	-0.1209238
-4.104095	cooks	-0.1209238
-4.104095	cool	-0.1209238
-4.104095	cools	-0.1209238
-4.104095	cops	-0.1209238
-4.104095	corked	-0.1209238
-4.104095	corner	-0.1209238
-4.104095	corners	-0.1209238
-4.104095	corporations	-0.1209238
-4.104095	corral	-0.1209238
-4.104095	costume	-0.1209238
-3.145658	couch	-0.2922094
-3.649652	couches	-0.1789525
-3.109895	could	-0.2419497
-4.104095	countenance	-0.1209238
-3.389149	counter	-0.2530581
-3.977935	counters	-0.1209238
-3.544504	country	-0.1835278
-3.788678	countryside	-0.3133761
-4.104095	county	-0.1209238
-4.104095	coupe	-0.1209238
-3.649652	couple	-0.1789525
-3.977935	course	-0.1209238
-4.104095	courses	-0.1209238
-3.389149	court	-0.3921806
-4.104095	courthouse	-0.1209238
-4.104095	courts	-0.1209238
-4.104095	cover	-0.1209238
-2.990575	covered	-0.3306339
-4.104095	covering	-0.1209238
-4.104095	covers	-0.1209238
-3.145658	cow	-0.1851615
-3.977935	cowboy	-0.1209238
-4.104095	cowboys	-0.1209238
-3.145658	cows	-0.2315455
-4.104095	cozy	-0.1209238
-4.104095	craft	-0.1209238
-4.104095	crafts	-0.1209238
-3.649652	cramped	-0.1209238
-3.227453	crappy	-0.4111193
-4.104095	crash	-0.1209238
-4.104095	crashed	-0.1209238
-4.104095	crate	-0.1209238
-4.104095	crates	-0.1209238
-4.104095	cray	-0.1209238
-2.990575	crazy	-0.4066086
-4.104095	cream	-0.1209238
-4.104095	creamer	-0.1209238
-4.104095	create	-0.1209238
-3.977935	created	-0.1209238
-4.104095	creativity	-0.1209238
-4.104095	creepy	-0.1209238
-4.104095	crepes	-0.1209238
-4.104095	crest	-0.1209238
-4.104095	crisp	-0.1209238
-3.274961	cross	-0.3092581
-3.977935	crosses	-0.1209238
-3.544504	crossing	-0.3051185
-4.104095	crosswalk	-0.1209238
-4.104095	crouched	-0.1209238
-4.104095	crouches	-0.1209238
-3.544504	crowd	-0.1985689
-3.977935	crowded	-0.1209238
-4.104095	crowds	-0.1209238
-4.104095	crowed	-0.1209238
-4.104095	cruel	-0.1209238
-4.104095	crumbs	-0.1209238
-3.109895	crying	-0.5155482
-3.977935	cuddling	-0.1209238
-3.649652	cup	-0.2735225
-4.104095	cupboard	-0.1209238
-4.104095	cupboards	-0.1209238
-3.788678	cupcakes	-0.2001566
-4.104095	cups	-0.1209238
-4.104095	curb	-0.1209238
-4.104095	curiously	-0.1209238
-4.104095	currently	-0.1209238
-3.977935	curtain	-0.2001566
-3.649652	curtains	-0.1667099
-4.104095	curved	-0.1209238
-4.104095	curving	-0.1209238
-3.977935	customers	-0.1209238
-3.544504	cut	-0.1209238
-4.104095	cutlet	-0.1209238
-3.977935	cuts	-0.1209238
-3.788678	cutting	-0.1209238
-4.104095	daikon	-0.1209238
-4.104095	daisies	-0.1209238
-4.104095	dalmation	-0.1209238
-4.104095	damage	-0.1209238
-3.184632	damaged	-0.2961697
-4.104095	damaging	-0.1209238
-4.104095	damned	-0.1209238
-4.104095	danger	-0.1209238
-3.328313	dangerous	-0.2961559
-4.104095	dangling	-0.1209238
-3.328313	dark	-0.1510987
-4.104095	darkest	-0.1209238
-4.104095	date	-0.1209238
-4.104095	dated	-0.1209238
-4.104095	david	-0.1209238
-4.104095	davidson	-0.1209238
-2.838161	day	-0.3321295
-3.788678	days	-0.1209238
-2.572012	dead	-0.4188901
-3.788678	deadly	-0.2001566
-4.104095	dealing	-0.1209238
-3.649652	death	-0.2065757
-4.104095	debris	-0.1209238
-4.104095	deceased	-0.1209238
-4.104095	decisions	-0.1209238
-3.649652	deck	-0.1587358
-4.104095	decker	-0.1209238
-3.977935	decor	-0.1209238
-3.389149	decorated	-0.1531283
-3.649652	decorations	-0.1789525
-4.104095	decorative	-0.1209238
-3.977935	deep	-0.1209238
-4.104095	defeated	-0.1209238
-4.104095	defiently	-0.1209238
-4.104095	deli	-0.1209238
-3.977935	delicious	-0.1209238
-4.104095	deliciouslooking	-0.1209238
-4.104095	delivered	-0.1209238
-4.104095	delivering	-0.1209238
-4.104095	delivery	-0.1209238
-4.104095	depicted	-0.1209238
-4.104095	deplete	-0.1209238
-3.788678	depot	-0.1789525
-4.104095	depressed	-0.1209238
-4.104095	deranged	-0.1209238
-4.104095	derives	-0.1209238
-4.104095	descends	-0.1209238
-4.104095	desert	-0.1209238
-3.977935	deserted	-0.1209238
-4.104095	design	-0.1209238
-3.227453	desk	-0.2907229
-4.104095	desktop	-0.1209238
-4.104095	desolate	-0.1209238
-4.104095	desperately	-0.1209238
-3.788678	despite	-0.2001566
-3.788678	dessert	-0.1209238
-3.977935	desserts	-0.1209238
-3.977935	dessicated	-0.1209238
-4.104095	destination	-0.1209238
-4.104095	destroyed	-0.1209238
-4.104095	detour	-0.1209238
-4.104095	detracted	-0.1209238
-4.104095	devices	-0.1209238
-4.104095	dialing	-0.1209238
-4.104095	diapers	-0.1209238
-3.459917	did	-0.4327924
-3.649652	didnt	-0.1667099
-3.977935	die	-0.1209238
-4.104095	died	-0.1209238
-4.104095	dies	-0.1209238
-3.649652	different	-0.1209238
-4.104095	differently	-0.1209238
-3.977935	difficult	-0.1209238
-4.104095	difficulty	-0.1209238
-4.104095	dig	-0.1209238
-4.104095	dilapidated	-0.1209238
-4.104095	dim	-0.1209238
-4.104095	diner	-0.1209238
-4.104095	diners	-0.1209238
-3.788678	dining	-0.2178982
-4.104095	dinky	-0.1209238
-3.788678	dinner	-0.2001566
-3.977935	dinning	-0.2459484
-4.104095	directing	-0.1209238
-4.104095	direction	-0.1209238
-3.788678	directly	-0.1209238
-3.389149	dirt	-0.2033543
-2.507418	dirty	-0.4572304
-4.104095	disabled	-0.1209238
-4.104095	disappointed	-0.1209238
-4.104095	disapproval	-0.1209238
-4.104095	disc	-0.1209238
-4.104095	discuss	-0.1209238
-2.876534	disgusting	-0.6905807
-4.104095	disgustingfood	-0.1209238
-3.788678	dish	-0.1835278
-3.788678	dishes	-0.1209238
-4.104095	dishwasher	-0.1209238
-4.104095	disk	-0.1209238
-4.104095	dispenser	-0.1209238
-4.104095	dispensers	-0.1209238
-3.459917	display	-0.1905766
-3.274961	displayed	-0.3642806
-3.788678	displaying	-0.2001566
-3.788678	displays	-0.1209238
-4.104095	disposable	-0.1209238
-4.104095	distance	-0.1209238
-4.104095	distinctly	-0.1209238
-3.788678	distracted	-0.1209238
-4.104095	disturbing	-0.1209238
-4.104095	divided	-0.1209238
-3.977935	diving	-0.1209238
-3.649652	do	-0.1667099
-3.977935	dock	-0.2001566
-3.788678	docked	-0.1587358
-4.104095	docks	-0.1209238
-3.017474	does	-0.5269673
-3.227453	doesnt	-0.1209238
-2.613753	dog	-0.3515542
-3.274961	dogs	-0.1587358
-3.145658	doing	-0.3358425
-4.104095	doll	-0.1209238
-4.104095	domed	-0.1209238
-3.977935	done	-0.1209238
-4.104095	dons	-0.1209238
-3.788678	dont	-0.1209238
-3.544504	donuts	-0.2259373
-3.227453	door	-0.2915756
-3.977935	doorway	-0.1209238
-4.104095	dorm	-0.1209238
-3.389149	double	-0.3864633
-4.104095	doughnuts	-0.1209238
-2.369077	down	-0.6535268
-4.104095	downhill	-0.1209238
-4.104095	dozens	-0.1209238
-4.104095	dragging	-0.1209238
-4.104095	drank	-0.1209238
-4.104095	drape	-0.1209238
-3.977935	draped	-0.1209238
-4.104095	draperies	-0.1209238
-3.977935	drawn	-0.1209238
-4.104095	dreads	-0.1209238
-4.104095	dreary	-0.1209238
-3.328313	dress	-0.1209238
-3.544504	dressed	-0.1932561
-4.104095	dresser	-0.1209238
-3.977935	dried	-0.1209238
-3.649652	drink	-0.2033543
-3.788678	drinking	-0.1209238
-3.649652	drinks	-0.1789525
-3.544504	drive	-0.1209238
-3.649652	driver	-0.1209238
-3.977935	drivers	-0.1209238
-3.459917	drives	-0.1587358
-4.104095	driveway	-0.1209238
-3.274961	driving	-0.3293642
-3.459917	drunk	-0.2745266
-3.788678	dry	-0.1209238
-4.104095	dryer	-0.1209238
-3.977935	duck	-0.1209238
-3.977935	ducks	-0.1209238
-3.649652	due	-0.4383149
-3.274961	dumb	-0.3536111
-2.897071	during	-0.715339
-4.104095	dyed	-0.1209238
-3.109895	dying	-0.2587129
-3.076854	each	-0.3679947
-4.104095	eagerly	-0.1209238
-4.104095	eagle	-0.1209238
-4.104095	ear	-0.1209238
-4.104095	earlier	-0.1209238
-3.649652	early	-0.1789525
-4.104095	ears	-0.1209238
-4.104095	easily	-0.1209238
-4.104095	easy	-0.1209238
-3.649652	eat	-0.1356559
-3.788678	eaten	-0.1209238
-2.990575	eating	-0.3052758
-3.109895	eats	-0.1690762
-4.104095	eclipsed	-0.1209238
-3.977935	edge	-0.2001566
-4.104095	effectively	-0.1209238
-4.104095	efforts	-0.1209238
-3.977935	egg	-0.1209238
-3.977935	eggs	-0.1209238
-4.104095	egyptian	-0.1209238
-4.104095	elderly	-0.1209238
-4.104095	electrical	-0.1209238
-4.104095	electricity	-0.1209238
-4.104095	electronic	-0.1209238
-4.104095	electronics	-0.1209238
-4.104095	elegance	-0.1209238
-4.104095	elementary	-0.1209238
-3.109895	elephant	-0.2233434
-3.145658	elephants	-0.1766247
-4.104095	elevated	-0.1209238
-3.788678	else	-0.1209238
-4.104095	elves	-0.1209238
-4.104095	embarking	-0.1209238
-4.104095	embarrassment	-0.1209238
-4.104095	embedded	-0.1209238
-3.977935	embraces	-0.2459484
-4.104095	emphasizes	-0.1209238
-4.104095	emptiness	-0.1209238
-3.328313	empty	-0.1209238
-4.104095	encircle	-0.1209238
-3.328313	enclosure	-0.274496
-4.104095	encounters	-0.1209238
-3.544504	end	-0.1667099
-3.977935	ended	-0.2459484
-4.104095	engaged	-0.1209238
-4.104095	engine	-0.1209238
-4.104095	england	-0.1209238
-3.977935	enjoy	-0.1209238
-4.104095	enjoyed	-0.1209238
-3.649652	enjoying	-0.2567011
-3.649652	enough	-0.1789525
-4.104095	enraged	-0.1209238
-3.977935	enter	-0.1209238
-4.104095	entering	-0.1209238
-4.104095	entertaining	-0.1209238
-4.104095	entertainment	-0.1209238
-4.104095	enthused	-0.1209238
-4.104095	entirely	-0.1209238
-3.977935	entrance	-0.1209238
-4.104095	entryway	-0.1209238
-4.104095	enveloped	-0.1209238
-3.977935	equally	-0.1209238
-3.649652	equipment	-0.4383149
-4.104095	erased	-0.1209238
-4.104095	escape	-0.1209238
-4.104095	escapes	-0.1209238
-4.104095	escaping	-0.1209238
-4.104095	european	-0.1209238
-3.328313	even	-0.1457625
-4.104095	evening	-0.1209238
-3.977935	event	-0.1209238
-4.104095	ever	-0.1209238
-4.104095	evergreen	-0.1209238
-3.977935	every	-0.1209238
-3.788678	everyone	-0.1209238
-3.977935	everything	-0.1209238
-3.328313	evil	-0.2714391
-3.977935	exactly	-0.1209238
-4.104095	examines	-0.1209238
-3.788678	example	-0.3133761
-4.104095	excited	-0.1209238
-4.104095	excuse	-0.1209238
-4.104095	exhusband	-0.1209238
-4.104095	expensive	-0.1209238
-4.104095	experience	-0.1209238
-4.104095	experiencing	-0.1209238
-4.104095	explaining	-0.1209238
-3.977935	exposed	-0.1209238
-4.104095	extended	-0.1209238
-4.104095	exterior	-0.1209238
-4.104095	extremely	-0.1209238
-3.274961	eye	-0.1915503
-3.459917	eyes	-0.2530873
-3.977935	facade	-0.1209238
-2.820176	face	-0.3230548
-4.104095	faced	-0.1209238
-4.104095	faces	-0.1209238
-4.104095	facing	-0.1209238
-4.104095	fail	-0.1209238
-3.649652	failing	-0.2567011
-3.977935	fails	-0.1209238
-4.104095	fake	-0.1209238
-4.104095	falcon	-0.1209238
-3.977935	fall	-0.1209238
-3.649652	falling	-0.1209238
-3.649652	falls	-0.1209238
-3.389149	family	-0.1347204
-4.104095	familys	-0.1209238
-4.104095	fan	-0.1209238
-2.856924	fancy	-0.438375
-4.104095	fanned	-0.1209238
-4.104095	far	-0.1209238
-4.104095	farm	-0.1209238
-4.104095	farmers	-0.1209238
-4.104095	farting	-0.1209238
-4.104095	fashioned	-0.1209238
-3.977935	fast	-0.1209238
-3.649652	fat	-0.1789525
-4.104095	faulty	-0.1209238
-4.104095	favorite	-0.1209238
-4.104095	fear	-0.1209238
-4.104095	feathers	-0.1209238
-3.544504	features	-0.3536112
-4.104095	featuring	-0.1209238
-4.104095	fed	-0.1209238
-3.788678	fedex	-0.2001566
-4.104095	fedora	-0.1209238
-3.977935	feeder	-0.2459484
-3.977935	feeding	-0.1209238
-3.977935	feeds	-0.1209238
-3.788678	feel	-0.1209238
-3.977935	feels	-0.1209238
-3.977935	feet	-0.1209238
-3.977935	fell	-0.1209238
-4.104095	fellow	-0.1209238
-4.104095	felt	-0.1209238
-3.788678	female	-0.1209238
-3.274961	fence	-0.1862999
-3.977935	fenced	-0.1209238
-3.788678	ferry	-0.2001566
-4.104095	festival	-0.1209238
-4.104095	few	-0.1209238
-4.104095	fiary	-0.1209238
-4.104095	fie	-0.1209238
-2.990575	field	-0.3699878
-4.104095	fight	-0.1209238
-3.788678	fighter	-0.2001566
-4.104095	fights	-0.1209238
-3.977935	file	-0.1209238
-2.990575	filled	-0.8850901
-4.104095	fills	-0.1209238
-4.104095	film	-0.1209238
-3.459917	filthy	-0.320034
-4.104095	fin	-0.1209238
-4.104095	financial	-0.1209238
-3.544504	find	-0.1932561
-4.104095	finding	-0.1209238
-4.104095	fingers	-0.1209238
-4.104095	finish	-0.1209238
-3.145658	fire	-0.3835139
-3.977935	fireplace	-0.2459484
-4.104095	first	-0.1209238
-3.389149	fish	-0.2116857
-4.104095	fisherman	-0.1209238
-3.977935	fishing	-0.1209238
-4.104095	fitted	-0.1209238
-3.788678	five	-0.1209238
-3.977935	fix	-0.1209238
-4.104095	fixed	-0.1209238
-3.977935	fixing	-0.2459484
-4.104095	fixtures	-0.1209238
-4.104095	flag	-0.1209238
-4.104095	flagpole	-0.1209238
-4.104095	flanking	-0.1209238
-4.104095	flat	-0.1209238
-4.104095	flea	-0.1209238
-4.104095	flee	-0.1209238
-4.104095	fleeing	-0.1209238
-4.104095	flew	-0.1209238
-3.977935	flickr	-0.2459484
-3.328313	flies	-0.280475
-4.104095	flips	-0.1209238
-3.459917	floating	-0.2001566
-3.649652	floats	-0.1209238
-4.104095	flock	-0.1209238
-4.104095	flood	-0.1209238
-4.104095	flooded	-0.1209238
-4.104095	floodwater	-0.1209238
-3.459917	floor	-0.2033543
-4.104095	flooring	-0.1209238
-3.977935	floors	-0.1209238
-4.104095	floral	-0.1209238
-4.104095	florida	-0.1209238
-3.389149	flower	-0.2338047
-4.104095	flowered	-0.1209238
-4.104095	flowering	-0.1209238
-3.227453	flowers	-0.2502002
-4.104095	flown	-0.1209238
-3.977935	fluffy	-0.1209238
-4.104095	flushes	-0.1209238
-4.104095	flushing	-0.1209238
-3.389149	fly	-0.1835278
-2.941311	flying	-0.3453931
-4.104095	flys	-0.1209238
-3.977935	foal	-0.1209238
-4.104095	focuses	-0.1209238
-4.104095	focusing	-0.1209238
-3.649652	fog	-0.1209238
-4.104095	foggy	-0.1209238
-4.104095	folded	-0.1209238
-4.104095	foliage	-0.1209238
-3.788678	following	-0.3133761
-2.990575	food	-0.288076
-4.104095	foods	-0.1209238
-4.104095	fools	-0.1209238
-4.104095	foot	-0.1209238
-4.104095	football	-0.1209238
-4.104095	footbridge	-0.1209238
-2.284372	for	-0.4249171
-4.104095	forboding	-0.1209238
-3.544504	forced	-0.3051185
-4.104095	forces	-0.1209238
-4.104095	foreground	-0.1209238
-4.104095	forehead	-0.1209238
-4.104095	foreign	-0.1209238
-3.977935	forest	-0.1209238
-3.977935	forget	-0.1209238
-4.104095	fork	-0.1209238
-4.104095	forks	-0.1209238
-4.104095	forlornly	-0.1209238
-4.104095	formal	-0.1209238
-4.104095	formally	-0.1209238
-3.977935	formation	-0.1209238
-4.104095	formerly	-0.1209238
-3.977935	forms	-0.1209238
-3.459917	found	-0.1587358
-4.104095	fountains	-0.1209238
-3.459917	four	-0.1819973
-4.104095	fours	-0.1209238
-4.104095	foxs	-0.1209238
-3.788678	fragile	-0.1789525
-4.104095	frame	-0.1209238
-4.104095	framed	-0.1209238
-3.788678	framing	-0.1209238
-4.104095	frayed	-0.1209238
-4.104095	freedom	-0.1209238
-3.977935	freezer	-0.1209238
-3.977935	freezing	-0.2459484
-4.104095	french	-0.1209238
-3.788678	fresh	-0.1209238
-3.649652	fridge	-0.1789525
-3.977935	friend	-0.1209238
-3.459917	friends	-0.1209238
-3.977935	fries	-0.1209238
-3.544504	frightened	-0.2065757
-3.109895	frisbee	-0.2833424
-3.977935	frisbees	-0.2459484
-3.977935	frog	-0.1209238
-4.104095	frolic	-0.1209238
-2.429167	from	-0.4980361
-3.459917	front	-0.1747607
-3.328313	fruit	-0.2632593
-3.649652	fruits	-0.1789525
-3.017474	full	-0.5357103
-3.649652	fun	-0.1209238
-4.104095	funny	-0.1209238
-4.104095	furnished	-0.1209238
-4.104095	furnishings	-0.1209238
-3.459917	furniture	-0.3643182
-4.104095	furry	-0.1209238
-4.104095	future	-0.1209238
-4.104095	futuristic	-0.1209238
-4.104095	gallavant	-0.1209238
-4.104095	gallops	-0.1209238
-4.104095	gam	-0.1209238
-3.109895	game	-0.2805595
-3.788678	games	-0.1531283
-4.104095	gaming	-0.1209238
-3.977935	garage	-0.2459484
-4.104095	garbage	-0.1209238
-3.977935	garden	-0.1209238
-4.104095	garland	-0.1209238
-4.104095	garment	-0.1209238
-3.977935	gas	-0.1209238
-4.104095	gate	-0.1209238
-3.788678	gather	-0.1789525
-3.649652	gathered	-0.2178982
-3.977935	gathers	-0.1209238
-4.104095	gave	-0.1209238
-3.977935	gay	-0.1209238
-4.104095	gaze	-0.1209238
-4.104095	gazes	-0.1209238
-4.104095	gazing	-0.1209238
-3.544504	gear	-0.1789526
-4.104095	geese	-0.1209238
-4.104095	gentleman	-0.1209238
-4.104095	gesturing	-0.1209238
-3.459917	get	-0.1209238
-3.459917	gets	-0.1587358
-3.109895	getting	-0.3507274
-4.104095	ghost	-0.1209238
-4.104095	ghosts	-0.1209238
-4.104095	giant	-0.1209238
-4.104095	ginger	-0.1209238
-2.941311	giraffe	-0.3024114
-4.104095	giraffee	-0.1209238
-3.076854	giraffes	-0.2258143
-3.274961	girl	-0.2812307
-3.328313	girls	-0.1209238
-4.104095	give	-0.1209238
-3.977935	gives	-0.1209238
-3.459917	giving	-0.1209238
-4.104095	glaring	-0.1209238
-3.328313	glass	-0.1812341
-3.227453	glasses	-0.2198506
-4.104095	glazed	-0.1209238
-4.104095	gliding	-0.1209238
-4.104095	glimpse	-0.1209238
-3.389149	gloomy	-0.3950039
-3.977935	glove	-0.1209238
-4.104095	gloves	-0.1209238
-4.104095	glow	-0.1209238
-3.788678	go	-0.1209238
-4.104095	goal	-0.1209238
-3.459917	goats	-0.1587358
-4.104095	goers	-0.1209238
-3.788678	goes	-0.2001566
-3.109895	going	-0.3674289
-4.104095	gold	-0.1209238
-4.104095	golf	-0.1209238
-4.104095	gone	-0.1209238
-3.389149	good	-0.1411394
-4.104095	gossips	-0.1209238
-3.328313	got	-0.1209238
-4.104095	government	-0.1209238
-4.104095	grabbing	-0.1209238
-4.104095	grabs	-0.1209238
-4.104095	graduated	-0.1209238
-4.104095	graduation	-0.1209238
-3.977935	graffiti	-0.1587358
-3.977935	grandfather	-0.2459484
-2.918628	grass	-0.2664097
-3.977935	grassy	-0.1587358
-3.788678	grave	-0.1209238
-3.977935	gravel	-0.1209238
-4.104095	graveyard	-0.1209238
-4.104095	gravitational	-0.1209238
-4.104095	gravy	-0.1209238
-3.544504	gray	-0.1489697
-3.977935	graze	-0.1209238
-3.977935	grazes	-0.2459484
-3.017474	grazing	-0.3024005
-3.977935	great	-0.1209238
-2.990575	green	-0.1485982
-4.104095	greeneyed	-0.1209238
-3.977935	greens	-0.2459484
-3.977935	grids	-0.1209238
-3.977935	grieving	-0.2001566
-4.104095	grilling	-0.1209238
-4.104095	grimlooking	-0.1209238
-4.104095	grimy	-0.1209238
-4.104095	grinds	-0.1209238
-4.104095	gripping	-0.1209238
-4.104095	grocery	-0.1209238
-3.977935	groom	-0.1209238
-4.104095	gross	-0.1209238
-3.649652	ground	-0.1879135
-4.104095	grounded	-0.1209238
-3.274961	group	-0.3895507
-4.104095	grouped	-0.1209238
-4.104095	grow	-0.1209238
-4.104095	growing	-0.1209238
-4.104095	growling	-0.1209238
-4.104095	growth	-0.1209238
-4.104095	guardrail	-0.1209238
-4.104095	guiding	-0.1209238
-3.788678	guitar	-0.2001566
-4.104095	gun	-0.1209238
-2.990575	guy	-0.282228
-3.544504	guys	-0.1209238
-4.104095	habitat	-0.1209238
-2.918628	had	-0.248026
-3.328313	hair	-0.1749817
-4.104095	haircut	-0.1209238
-3.544504	half	-0.1489697
-4.104095	halfeaten	-0.1209238
-4.104095	hall	-0.1209238
-3.649652	hallway	-0.2567011
-3.649652	hand	-0.1531283
-4.104095	handful	-0.1209238
-4.104095	handheld	-0.1209238
-4.104095	handicapped	-0.1209238
-4.104095	handing	-0.1209238
-4.104095	handle	-0.1209238
-3.977935	hands	-0.1209238
-4.104095	hangars	-0.1209238
-4.104095	hangers	-0.1209238
-3.145658	hanging	-0.2033543
-3.788678	hangs	-0.1209238
-4.104095	happening	-0.1209238
-4.104095	happens	-0.1209238
-4.104095	happily	-0.1209238
-3.788678	happy	-0.1209238
-4.104095	harassing	-0.1209238
-3.788678	harbor	-0.1667099
-3.076854	hard	-0.2469517
-4.104095	harden	-0.1209238
-3.977935	hardly	-0.1209238
-4.104095	harriet	-0.1209238
-4.104095	harry	-0.1209238
-3.649652	harsh	-0.2315613
-2.458797	has	-0.4101118
-4.104095	hash	-0.1209238
-3.184632	hat	-0.2625552
-3.544504	hats	-0.1209238
-2.941311	have	-0.3387216
-3.274961	having	-0.2632593
-3.977935	havoc	-0.2459484
-3.977935	hay	-0.1209238
-2.711621	he	-0.2333085
-3.017474	head	-0.2169429
-3.649652	heading	-0.1789525
-3.788678	heads	-0.1209238
-4.104095	healthy	-0.1209238
-4.104095	heater	-0.1209238
-4.104095	heavily	-0.1209238
-4.104095	heavy	-0.1209238
-4.104095	heights	-0.1209238
-3.977935	held	-0.1209238
-4.104095	heliport	-0.1209238
-3.977935	helmet	-0.1667099
-3.977935	helmets	-0.1209238
-3.788678	help	-0.2001566
-4.104095	helping	-0.1209238
-2.543145	her	-0.1821319
-3.649652	herd	-0.1789526
-4.104095	herding	-0.1209238
-3.544504	here	-0.1209238
-3.544504	herself	-0.2259373
-3.977935	hid	-0.1209238
-3.649652	hidden	-0.1789525
-4.104095	hide	-0.1209238
-4.104095	hides	-0.1209238
-3.649652	hiding	-0.1209238
-3.389149	high	-0.1531283
-4.104095	highlighting	-0.1209238
-4.104095	highway	-0.1209238
-3.227453	hill	-0.3377329
-4.104095	hills	-0.1209238
-3.977935	hillside	-0.2459484
-4.104095	hilly	-0.1209238
-4.104095	hilton	-0.1209238
-3.076854	him	-0.3183112
-3.649652	himself	-0.2065757
-4.104095	hind	-0.1209238
-2.451198	his	-0.2132727
-4.104095	history	-0.1209238
-3.788678	hit	-0.1209238
-4.104095	hite	-0.1209238
-4.104095	hits	-0.1209238
-3.328313	hitting	-0.3315144
-4.104095	hockey	-0.1209238
-3.788678	hold	-0.1209238
-2.659936	holding	-0.4810354
-2.965245	holds	-0.5228966
-4.104095	hole	-0.1209238
-4.104095	holes	-0.1209238
-4.104095	holiday	-0.1209238
-3.544504	home	-0.1411394
-4.104095	homeless	-0.1209238
-4.104095	homework	-0.1209238
-4.104095	hood	-0.1209238
-3.788678	hooked	-0.3133761
-3.977935	hope	-0.1209238
-4.104095	hopefully	-0.1209238
-4.104095	horns	-0.1209238
-3.274961	horrible	-0.1993529
-4.104095	horrific	-0.1209238
-4.104095	horror	-0.1209238
-3.046149	horse	-0.2402214
-4.104095	horseback	-0.1209238
-3.145658	horses	-0.1934284
-4.104095	horsing	-0.1209238
-4.104095	hose	-0.1209238
-3.459917	hospital	-0.2315613
-3.649652	hot	-0.1587358
-4.104095	hotdog	-0.1209238
-3.649652	hotel	-0.1789525
-3.977935	hour	-0.1209238
-4.104095	hours	-0.1209238
-3.046149	house	-0.3079754
-4.104095	hovers	-0.1209238
-3.788678	how	-0.1209238
-4.104095	huddle	-0.1209238
-3.649652	huge	-0.1209238
-4.104095	hugs	-0.1209238
-4.104095	human	-0.1209238
-4.104095	hunched	-0.1209238
-4.104095	hundred	-0.1209238
-4.104095	hundreds	-0.1209238
-3.649652	hungry	-0.2347175
-4.104095	hunk	-0.1209238
-4.104095	hunter	-0.1209238
-4.104095	hunting	-0.1209238
-4.104095	hurdle	-0.1209238
-4.104095	hurricane	-0.1209238
-4.104095	hurry	-0.1209238
-3.788678	hurt	-0.1209238
-4.104095	husband	-0.1209238
-4.104095	huts	-0.1209238
-4.104095	hydran	-0.1209238
-3.649652	hydrant	-0.1379674
-4.104095	hygiene	-0.1209238
-2.876534	i	-0.2369036
-4.104095	iam	-0.1209238
-3.544504	ice	-0.2735225
-4.104095	icing	-0.1209238
-3.788678	idiot	-0.1209238
-3.977935	idle	-0.1209238
-3.977935	idly	-0.1209238
-3.017474	if	-0.2523506
-3.977935	ignore	-0.1209238
-3.977935	ignored	-0.1209238
-3.977935	ignores	-0.1209238
-4.104095	ignoring	-0.1209238
-3.544504	ill	-0.3643182
-4.104095	illegal	-0.1209238
-4.104095	illuminate	-0.1209238
-3.977935	illuminates	-0.1209238
-3.184632	image	-0.7338224
-3.788678	images	-0.2001566
-4.104095	imagine	-0.1209238
-4.104095	imagining	-0.1209238
-4.104095	immigrants	-0.1209238
-4.104095	impatient	-0.1209238
-4.104095	impatiently	-0.1209238
-4.104095	importance	-0.1209238
-4.104095	important	-0.1209238
-4.104095	impoverished	-0.1209238
-1.549573	in	-0.7985534
-4.104095	inanimate	-0.1209238
-4.104095	incase	-0.1209238
-3.977935	includes	-0.2001566
-3.977935	including	-0.1209238
-4.104095	incompetent	-0.1209238
-4.104095	indistinct	-0.1209238
-4.104095	individual	-0.1209238
-4.104095	indoor	-0.1209238
-4.104095	indoors	-0.1209238
-4.104095	industrial	-0.1209238
-4.104095	infected	-0.1209238
-4.104095	ingests	-0.1209238
-4.104095	injuries	-0.1209238
-4.104095	injury	-0.1209238
-3.649652	insane	-0.3536111
-2.941311	inside	-0.5063419
-4.104095	inspect	-0.1209238
-4.104095	inspectors	-0.1209238
-4.104095	inspects	-0.1209238
-4.104095	installation	-0.1209238
-3.788678	instead	-0.3133761
-4.104095	instructing	-0.1209238
-3.977935	int	-0.1209238
-4.104095	intently	-0.1209238
-4.104095	interacting	-0.1209238
-4.104095	intermingled	-0.1209238
-4.104095	internet	-0.1209238
-3.788678	intersection	-0.1789525
-2.490599	into	-0.5879324
-4.104095	investigating	-0.1209238
-3.788678	invisible	-0.3133762
-4.104095	invisibledead	-0.1209238
-4.104095	involuntarily	-0.1209238
-3.977935	ipod	-0.2001566
-4.104095	iron	-0.1209238
-1.903116	is	-0.3882586
-3.977935	island	-0.1209238
-3.459917	isnt	-0.1209238
-2.401429	it	-0.4039353
-4.104095	italian	-0.1209238
-4.104095	item	-0.1209238
-3.544504	items	-0.1667099
-2.602936	its	-0.1787428
-3.977935	itself	-0.2001566
-4.104095	iv	-0.1209238
-4.104095	iwth	-0.1209238
-4.104095	jack	-0.1209238
-3.389149	jacket	-0.1209238
-4.104095	jackets	-0.1209238
-4.104095	jam	-0.1209238
-4.104095	jeans	-0.1209238
-3.977935	jersey	-0.1209238
-3.977935	jet	-0.1209238
-4.104095	jetliner	-0.1209238
-3.788678	jets	-0.1789525
-4.104095	jetty	-0.1209238
-3.788678	job	-0.1209238
-4.104095	jobless	-0.1209238
-4.104095	jockey	-0.1209238
-4.104095	jockeys	-0.1209238
-3.977935	journey	-0.1209238
-3.977935	judges	-0.1209238
-4.104095	jugs	-0.1209238
-4.104095	juice	-0.1209238
-3.977935	jump	-0.1209238
-3.145658	jumping	-0.3218491
-3.459917	jumps	-0.2346803
-4.104095	jungle	-0.1209238
-3.788678	junk	-0.1209238
-3.184632	just	-0.1209238
-4.104095	justice	-0.1209238
-4.104095	kayaking	-0.1209238
-4.104095	keep	-0.1209238
-4.104095	keeping	-0.1209238
-4.104095	kennel	-0.1209238
-4.104095	kept	-0.1209238
-3.788678	keyboard	-0.1835278
-3.977935	kick	-0.1209238
-3.788678	kicking	-0.1209238
-3.544504	kid	-0.1325126
-3.389149	kids	-0.1209238
-3.788678	kill	-0.1209238
-4.104095	killed	-0.1209238
-3.788678	kind	-0.3133761
-4.104095	kiss	-0.1209238
-2.990575	kitchen	-0.2715553
-4.104095	kitcken	-0.1209238
-3.145658	kite	-0.2392094
-4.104095	kiteboarding	-0.1209238
-3.184632	kites	-0.1631261
-4.104095	kitten	-0.1209238
-4.104095	kitty	-0.1209238
-4.104095	kneels	-0.1209238
-4.104095	knees	-0.1209238
-4.104095	knife	-0.1209238
-4.104095	knives	-0.1209238
-4.104095	knobs	-0.1209238
-3.544504	know	-0.1531283
-4.104095	knowing	-0.1209238
-4.104095	labelled	-0.1209238
-4.104095	lack	-0.1209238
-3.977935	ladies	-0.1209238
-3.227453	lady	-0.2146581
-3.459917	lake	-0.2672418
-3.544504	lamp	-0.1667099
-4.104095	land	-0.1209238
-4.104095	landing	-0.1209238
-4.104095	lands	-0.1209238
-4.104095	landscape	-0.1209238
-4.104095	landscaping	-0.1209238
-4.104095	landslides	-0.1209238
-4.104095	lane	-0.1209238
-4.104095	language	-0.1209238
-3.977935	lap	-0.2459484
-3.274961	laptop	-0.2257496
-3.046149	large	-0.1559011
-3.977935	larger	-0.1209238
-4.104095	lasso	-0.1209238
-4.104095	last	-0.1209238
-4.104095	late	-0.1209238
-4.104095	later	-0.1209238
-4.104095	laughed	-0.1209238
-3.977935	lawn	-0.1209238
-3.459917	lay	-0.2065757
-2.897071	laying	-0.5158547
-3.227453	lays	-0.3642806
-3.184632	lazy	-0.5450839
-3.977935	lead	-0.1209238
-4.104095	leader	-0.1209238
-3.977935	leading	-0.2459484
-3.788678	leads	-0.1209238
-4.104095	leaf	-0.1209238
-4.104095	leaking	-0.1209238
-4.104095	leaks	-0.1209238
-4.104095	lean	-0.1209238
-4.104095	leaned	-0.1209238
-3.544504	leaning	-0.2259373
-4.104095	leans	-0.1209238
-3.977935	leaps	-0.1209238
-3.788678	leash	-0.1789525
-4.104095	leashes	-0.1209238
-4.104095	least	-0.1209238
-3.649652	leather	-0.1789525
-4.104095	leave	-0.1209238
-3.328313	leaves	-0.3218305
-4.104095	leaving	-0.1209238
-3.788678	ledge	-0.2001566
-3.649652	left	-0.1587358
-4.104095	leg	-0.1209238
-4.104095	legged	-0.1209238
-3.788678	legs	-0.1209238
-4.104095	lemons	-0.1209238
-4.104095	lense	-0.1209238
-4.104095	leopard	-0.1209238
-4.104095	lesbian	-0.1209238
-3.977935	let	-0.1209238
-4.104095	lick	-0.1209238
-4.104095	licking	-0.1209238
-3.977935	lid	-0.1209238
-3.977935	lie	-0.1209238
-3.977935	lies	-0.2001566
-3.544504	life	-0.1209238
-4.104095	lift	-0.1209238
-3.184632	light	-0.2114475
-3.977935	lighted	-0.1667099
-3.977935	lighthouse	-0.2459484
-3.977935	lighting	-0.1209238
-4.104095	lightly	-0.1209238
-3.274961	lights	-0.1953147
-2.918628	like	-0.3046272
-4.104095	likes	-0.1209238
-4.104095	lime	-0.1209238
-4.104095	limited	-0.1209238
-3.459917	line	-0.1587358
-3.328313	lined	-0.251248
-4.104095	lines	-0.1209238
-4.104095	lingering	-0.1209238
-4.104095	lip	-0.1209238
-4.104095	lips	-0.1209238
-4.104095	listen	-0.1209238
-4.104095	listening	-0.1209238
-3.649652	lit	-0.1209238
-3.977935	littered	-0.1209238
-2.838161	little	-0.2757391
-4.104095	live	-0.1209238
-4.104095	lives	-0.1209238
-4.104095	livestock	-0.1209238
-3.145658	living	-0.5325913
-3.977935	load	-0.1209238
-3.977935	loading	-0.1209238
-3.977935	located	-0.2459484
-4.104095	location	-0.1209238
-4.104095	lodge	-0.1209238
-4.104095	logs	-0.1209238
-3.977935	london	-0.1209238
-4.104095	lone	-0.1209238
-2.770298	lonely	-0.3280668
-4.104095	lonesome	-0.1209238
-3.328313	long	-0.1347204
-4.104095	longboard	-0.1209238
-4.104095	longer	-0.1209238
-4.104095	lonley	-0.1209238
-2.786296	look	-0.2454489
-3.649652	looked	-0.1789525
-2.533934	looking	-0.3121444
-2.647922	looks	-0.4259199
-4.104095	looming	-0.1209238
-4.104095	looms	-0.1209238
-4.104095	lose	-0.1209238
-4.104095	loses	-0.1209238
-3.788678	losing	-0.3133761
-3.389149	lost	-0.1531283
-3.649652	lot	-0.1879135
-3.649652	lots	-0.4383149
-4.104095	loudly	-0.1209238
-4.104095	love	-0.1209238
-4.104095	loving	-0.1209238
-3.977935	low	-0.1209238
-3.017474	luggage	-0.3235129
-3.788678	lunch	-0.1209238
-4.104095	lush	-0.1209238
-3.145658	lying	-0.4586492
-4.104095	machine	-0.1209238
-4.104095	macintosh	-0.1209238
-3.274961	mad	-0.2551486
-3.145658	made	-0.2198506
-4.104095	magnets	-0.1209238
-4.104095	major	-0.1209238
-3.389149	make	-0.2895533
-3.017474	makes	-0.2748975
-3.109895	making	-0.2585516
-3.977935	male	-0.1209238
-4.104095	malfunctioning	-0.1209238
-3.977935	mall	-0.1209238
-2.770298	man	-0.2328132
-4.104095	mand	-0.1209238
-4.104095	manhandling	-0.1209238
-3.788678	mans	-0.1209238
-3.145658	many	-0.1411394
-4.104095	marble	-0.1209238
-4.104095	margarita	-0.1209238
-3.977935	marina	-0.1209238
-4.104095	marion	-0.1209238
-3.544504	market	-0.1932561
-4.104095	marks	-0.1209238
-3.788678	marred	-0.1209238
-4.104095	married	-0.1209238
-3.977935	mascot	-0.1209238
-3.977935	mask	-0.1209238
-4.104095	masses	-0.1209238
-4.104095	massive	-0.1209238
-3.544504	match	-0.2001566
-4.104095	mates	-0.1209238
-3.977935	mattress	-0.1209238
-4.104095	mausoleum	-0.1209238
-3.227453	may	-0.1964273
-3.459917	me	-0.1209238
-3.977935	meadow	-0.1209238
-3.788678	meal	-0.2001566
-3.977935	mean	-0.1209238
-4.104095	meanders	-0.1209238
-4.104095	meanly	-0.1209238
-3.977935	means	-0.1209238
-3.544504	meat	-0.2065757
-4.104095	meats	-0.1209238
-4.104095	medal	-0.1209238
-4.104095	media	-0.1209238
-4.104095	medical	-0.1209238
-4.104095	medicine	-0.1209238
-4.104095	melting	-0.1209238
-4.104095	members	-0.1209238
-4.104095	meme	-0.1209238
-4.104095	memorabilia	-0.1209238
-4.104095	memories	-0.1209238
-3.227453	men	-0.190982
-4.104095	mental	-0.1209238
-4.104095	menu	-0.1209238
-4.104095	mercedes	-0.1209238
-4.104095	mercifully	-0.1209238
-4.104095	mess	-0.1209238
-3.977935	message	-0.1209238
-4.104095	messy	-0.1209238
-4.104095	met	-0.1209238
-3.977935	metal	-0.1209238
-3.788678	meter	-0.1457625
-4.104095	method	-0.1209238
-4.104095	mexico	-0.1209238
-4.104095	mickey	-0.1209238
-4.104095	microphone	-0.1209238
-4.104095	microwave	-0.1209238
-3.788678	mid	-0.2567011
-3.977935	midair	-0.1209238
-3.788678	middle	-0.2259373
-4.104095	midst	-0.1209238
-4.104095	midsummer	-0.1209238
-3.649652	might	-0.1789525
-3.977935	mileage	-0.1209238
-4.104095	military	-0.1209238
-3.649652	milk	-0.1789525
-3.977935	milking	-0.2459484
-4.104095	mill	-0.1209238
-4.104095	mini	-0.1209238
-4.104095	miniature	-0.1209238
-3.977935	mint	-0.1209238
-3.328313	mirror	-0.293229
-4.104095	mirrored	-0.1209238
-4.104095	mirrors	-0.1209238
-3.788678	miserable	-0.3133761
-4.104095	miserably	-0.1209238
-4.104095	missed	-0.1209238
-3.788678	missing	-0.1209238
-4.104095	mitt	-0.1209238
-4.104095	mixed	-0.1209238
-4.104095	mixture	-0.1209238
-3.977935	mobile	-0.1209238
-3.544504	mock	-0.5352249
-3.788678	model	-0.1209238
-3.977935	modern	-0.1209238
-4.104095	modest	-0.1209238
-4.104095	modified	-0.1209238
-3.977935	mom	-0.1209238
-4.104095	moment	-0.1209238
-4.104095	mommy	-0.1209238
-4.104095	money	-0.1209238
-4.104095	monitor	-0.1209238
-3.977935	monkey	-0.1209238
-4.104095	months	-0.1209238
-4.104095	mood	-0.1209238
-3.459917	moody	-0.4383149
-3.977935	moored	-0.2001566
-4.104095	mopes	-0.1209238
-3.328313	more	-0.1209238
-3.977935	morgan	-0.1209238
-3.977935	morning	-0.2459484
-4.104095	morons	-0.1209238
-4.104095	mosaic	-0.1209238
-3.977935	most	-0.1209238
-4.104095	mostly	-0.1209238
-3.544504	mother	-0.1667099
-4.104095	motion	-0.1209238
-4.104095	motionless	-0.1209238
-3.544504	motor	-0.2001566
-4.104095	motorboat	-0.1209238
-3.046149	motorcycle	-0.2059376
-3.459917	motorcycles	-0.1789525
-4.104095	motorcyclist	-0.1209238
-3.977935	motorcyclists	-0.1209238
-4.104095	motorcylcle	-0.1209238
-4.104095	motorycylist	-0.1209238
-3.328313	mountain	-0.2337072
-4.104095	mountainous	-0.1209238
-3.544504	mountains	-0.2530872
-4.104095	mounted	-0.1209238
-3.788678	mouse	-0.1209238
-3.459917	mouth	-0.1819973
-4.104095	mouths	-0.1209238
-3.977935	move	-0.2001566
-3.788678	moves	-0.1209238
-4.104095	movig	-0.1209238
-3.227453	moving	-0.1667099
-3.788678	much	-0.1209238
-4.104095	mucking	-0.1209238
-3.109895	muddy	-0.6325445
-4.104095	mug	-0.1209238
-4.104095	mugs	-0.1209238
-4.104095	multi	-0.1209238
-4.104095	multicolored	-0.1209238
-3.649652	multiple	-0.1209238
-4.104095	murky	-0.1209238
-4.104095	mushrooms	-0.1209238
-3.788678	must	-0.1209238
-3.977935	mustang	-0.2459484
-3.459917	my	-0.1587358
-4.104095	nadal	-0.1209238
-4.104095	nails	-0.1209238
-3.977935	name	-0.1209238
-4.104095	named	-0.1209238
-4.104095	naming	-0.1209238
-4.104095	nap	-0.1209238
-4.104095	napping	-0.1209238
-4.104095	narrow	-0.1209238
-3.788678	nasty	-0.1209238
-4.104095	natural	-0.1209238
-3.788678	navigate	-0.2001566
-2.350763	near	-0.6276406
-3.544504	nearby	-0.1667099
-4.104095	nearempty	-0.1209238
-4.104095	nearly	-0.1209238
-4.104095	necessary	-0.1209238
-3.977935	neck	-0.1209238
-4.104095	necktoneck	-0.1209238
-3.328313	need	-0.2850993
-4.104095	needed	-0.1209238
-4.104095	needles	-0.1209238
-3.389149	needs	-0.3407058
-3.977935	negative	-0.1209238
-3.977935	neon	-0.1209238
-4.104095	nervous	-0.1209238
-3.977935	nest	-0.1209238
-4.104095	net	-0.1209238
-3.649652	never	-0.1209238
-3.459917	new	-0.1209238
-4.104095	newer	-0.1209238
-4.104095	newly	-0.1209238
-3.788678	news	-0.1209238
-3.977935	newspaper	-0.1209238
-2.209185	next	-1.437025
-3.649652	nice	-0.1209238
-4.104095	niche	-0.1209238
-3.389149	night	-0.299721
-4.104095	nightfall	-0.1209238
-4.104095	nightmare	-0.1209238
-4.104095	nightstand	-0.1209238
-4.104095	nine	-0.1209238
-3.788678	nintendo	-0.3133761
-3.017474	no	-0.18515
-3.977935	nobody	-0.1209238
-4.104095	non	-0.1209238
-4.104095	nonchalantly	-0.1209238
-4.104095	nonetheless	-0.1209238
-4.104095	noon	-0.1209238
-3.788678	nose	-0.1789525
-2.754869	not	-0.1726385
-4.104095	notebook	-0.1209238
-4.104095	notepad	-0.1209238
-3.788678	nothing	-0.1789525
-4.104095	notice	-0.1209238
-4.104095	noticeably	-0.1209238
-4.104095	nourishment	-0.1209238
-3.459917	now	-0.1209238
-4.104095	nowalking	-0.1209238
-4.104095	nowhere	-0.1209238
-3.788678	number	-0.2567011
-3.788678	numbers	-0.1209238
-4.104095	nursing	-0.1209238
-4.104095	nuzzled	-0.1209238
-4.104095	nuzzles	-0.1209238
-3.788678	obama	-0.1209238
-4.104095	object	-0.1209238
-3.977935	objects	-0.1209238
-4.104095	obnoxious	-0.1209238
-4.104095	obscures	-0.1209238
-4.104095	observers	-0.1209238
-4.104095	observing	-0.1209238
-4.104095	obvious	-0.1209238
-4.104095	occupants	-0.1209238
-4.104095	occupied	-0.1209238
-3.788678	ocean	-0.1932561
-3.977935	odd	-0.1209238
-1.777991	of	-0.4318499
-2.786296	off	-0.296239
-4.104095	offcamera	-0.1209238
-3.977935	offers	-0.2459484
-3.328313	office	-0.2713548
-3.977935	officer	-0.1209238
-3.977935	oil	-0.1209238
-4.104095	oilfilled	-0.1209238
-3.109895	old	-0.1485982
-3.459917	older	-0.1457625
-3.977935	olives	-0.1209238
-4.104095	omen	-0.1209238
-3.459917	ominous	-0.251248
-1.594319	on	-0.918497
-3.977935	once	-0.1209238
-4.104095	oncoming	-0.1209238
-2.711621	one	-0.1823469
-3.977935	ones	-0.1209238
-3.977935	onions	-0.1209238
-3.184632	only	-0.2205182
-3.459917	onto	-0.4997392
-3.076854	open	-0.179278
-4.104095	opened	-0.1209238
-4.104095	opening	-0.1209238
-4.104095	opens	-0.1209238
-3.977935	opponent	-0.1209238
-4.104095	opposing	-0.1209238
-2.918628	or	-0.1319258
-4.104095	oral	-0.1209238
-3.017474	orange	-0.155159
-3.649652	oranges	-0.2459484
-4.104095	orchestra	-0.1209238
-3.788678	order	-0.2001566
-4.104095	oscillating	-0.1209238
-3.977935	ostrich	-0.1209238
-4.104095	othello	-0.1209238
-3.109895	other	-0.1421519
-3.544504	others	-0.1587358
-3.977935	otherwise	-0.1209238
-4.104095	our	-0.1209238
-2.38173	out	-0.4154351
-4.104095	outcome	-0.1209238
-4.104095	outcrop	-0.1209238
-3.977935	outdated	-0.1209238
-3.649652	outdoor	-0.1209238
-3.544504	outdoors	-0.5352249
-4.104095	outfield	-0.1209238
-4.104095	outfit	-0.1209238
-2.533934	outside	-0.4955085
-3.649652	oven	-0.1789525
-2.466532	over	-0.5509362
-4.104095	overall	-0.1209238
-4.104095	overcast	-0.1209238
-4.104095	overcrowded	-0.1209238
-3.977935	overhead	-0.1209238
-4.104095	overload	-0.1209238
-3.649652	overlooking	-0.1789526
-3.977935	overly	-0.2459484
-4.104095	overview	-0.1209238
-4.104095	overweight	-0.1209238
-4.104095	owlshaped	-0.1209238
-3.977935	own	-0.1209238
-3.649652	owner	-0.1587358
-3.977935	owners	-0.1209238
-4.104095	oxen	-0.1209238
-4.104095	pack	-0.1209238
-3.977935	package	-0.1209238
-3.788678	paddle	-0.2001566
-3.977935	paddling	-0.2459484
-3.389149	painted	-0.1769821
-3.977935	painting	-0.1209238
-4.104095	paintings	-0.1209238
-3.977935	pair	-0.2459484
-4.104095	pairs	-0.1209238
-4.104095	pajamas	-0.1209238
-3.788678	palm	-0.2001566
-4.104095	pan	-0.1209238
-4.104095	paneling	-0.1209238
-3.977935	pants	-0.2459484
-3.389149	paper	-0.1835278
-4.104095	para	-0.1209238
-3.788678	parade	-0.2001566
-4.104095	parallel	-0.1209238
-4.104095	parallels	-0.1209238
-4.104095	parasail	-0.1209238
-4.104095	parasailing	-0.1209238
-3.649652	parents	-0.1209238
-4.104095	paris	-0.1209238
-3.184632	park	-0.2430722
-2.770298	parked	-0.3667865
-3.227453	parking	-0.2915582
-3.977935	parks	-0.1209238
-4.104095	parlour	-0.1209238
-3.788678	part	-0.3133761
-4.104095	partial	-0.1209238
-4.104095	partially	-0.1209238
-4.104095	particular	-0.1209238
-3.977935	partly	-0.1209238
-4.104095	partner	-0.1209238
-4.104095	parts	-0.1209238
-3.544504	party	-0.1587358
-4.104095	passed	-0.1209238
-3.544504	passenger	-0.3051186
-4.104095	passengers	-0.1209238
-4.104095	passerby	-0.1209238
-3.788678	passes	-0.1667099
-3.544504	passing	-0.2001566
-3.046149	past	-0.3979579
-4.104095	pasta	-0.1209238
-3.544504	pasture	-0.2735224
-4.104095	patch	-0.1209238
-3.977935	path	-0.2459484
-4.104095	pathway	-0.1209238
-4.104095	patiently	-0.1209238
-3.649652	patio	-0.1209238
-3.977935	patterned	-0.1209238
-4.104095	pause	-0.1209238
-3.977935	paved	-0.2001566
-4.104095	paw	-0.1209238
-4.104095	paws	-0.1209238
-4.104095	pay	-0.1209238
-4.104095	peacoat	-0.1209238
-3.977935	pears	-0.1209238
-4.104095	peck	-0.1209238
-4.104095	pecking	-0.1209238
-4.104095	pedal	-0.1209238
-4.104095	pedestal	-0.1209238
-4.104095	pedestrian	-0.1209238
-4.104095	pedophile	-0.1209238
-4.104095	peeking	-0.1209238
-4.104095	peering	-0.1209238
-3.788678	peers	-0.2001566
-3.977935	pen	-0.1209238
-2.659936	people	-0.3195715
-4.104095	pepper	-0.1209238
-4.104095	pepperoni	-0.1209238
-3.977935	perch	-0.1209238
-3.788678	perched	-0.3133761
-4.104095	perches	-0.1209238
-4.104095	perfect	-0.1209238
-3.977935	perform	-0.1209238
-3.788678	performing	-0.1209238
-4.104095	performs	-0.1209238
-4.104095	perilously	-0.1209238
-3.389149	permanent	-0.3380829
-4.104095	permission	-0.1209238
-4.104095	persom	-0.1209238
-3.184632	person	-0.1607156
-4.104095	persona	-0.1209238
-3.977935	personal	-0.1209238
-4.104095	persons	-0.1209238
-4.104095	pet	-0.1209238
-3.977935	petting	-0.1209238
-3.328313	phone	-0.2588643
-4.104095	phones	-0.1209238
-4.104095	phonw	-0.1209238
-3.046149	photo	-0.4084912
-3.977935	photograph	-0.2001566
-3.788678	photographed	-0.1209238
-3.977935	photographer	-0.1209238
-4.104095	photographers	-0.1209238
-3.977935	photographs	-0.1209238
-3.977935	photography	-0.2459484
-3.788678	photos	-0.3133761
-4.104095	piano	-0.1209238
-4.104095	pick	-0.1209238
-3.977935	picket	-0.1209238
-3.977935	pickle	-0.2459484
-3.977935	picks	-0.1209238
-4.104095	pickup	-0.1209238
-4.104095	picnic	-0.1209238
-2.802906	picture	-0.395045
-4.104095	pictured	-0.1209238
-3.544504	pictures	-0.1587358
-4.104095	pie	-0.1209238
-3.788678	piece	-0.3133761
-3.788678	pieces	-0.2001566
-4.104095	pig	-0.1209238
-4.104095	pigeons	-0.1209238
-4.104095	pile	-0.1209238
-3.977935	pillow	-0.1789525
-3.977935	pillows	-0.2459484
-4.104095	pilot	-0.1209238
-3.544504	pink	-0.1209238
-4.104095	pinkish	-0.1209238
-3.977935	pipe	-0.1209238
-3.788678	pitch	-0.2001566
-4.104095	pitched	-0.1209238
-4.104095	pitcher	-0.1209238
-4.104095	pity	-0.1209238
-3.076854	pizza	-0.2257647
-3.977935	pizzas	-0.1209238
-3.389149	place	-0.1761091
-3.544504	placed	-0.2315613
-4.104095	placing	-0.1209238
-3.788678	plain	-0.1789525
-4.104095	plan	-0.1209238
-3.076854	plane	-0.1804599
-4.104095	planes	-0.1209238
-3.544504	plant	-0.2301419
-3.977935	planter	-0.2001566
-3.389149	plants	-0.2895533
-4.104095	plastic	-0.1209238
-3.145658	plate	-0.2984069
-3.328313	plates	-0.2259373
-3.459917	platform	-0.1835278
-4.104095	platter	-0.1209238
-4.104095	platters	-0.1209238
-3.389149	play	-0.2033543
-4.104095	played	-0.1209238
-3.649652	player	-0.1742029
-3.788678	players	-0.1209238
-4.104095	playful	-0.1209238
-4.104095	playground	-0.1209238
-2.786296	playing	-0.3725063
-3.389149	plays	-0.2218992
-4.104095	plaza	-0.1209238
-4.104095	pleasure	-0.1209238
-4.104095	plush	-0.1209238
-4.104095	plying	-0.1209238
-4.104095	poachers	-0.1209238
-4.104095	pocket	-0.1209238
-4.104095	pockets	-0.1209238
-4.104095	poignantly	-0.1209238
-4.104095	point	-0.1209238
-3.788678	pointing	-0.1209238
-3.977935	points	-0.1209238
-4.104095	pointy	-0.1209238
-4.104095	poised	-0.1209238
-3.977935	poison	-0.1209238
-4.104095	poisonous	-0.1209238
-4.104095	poked	-0.1209238
-4.104095	pokes	-0.1209238
-3.649652	polar	-0.4383149
-3.977935	pole	-0.1209238
-3.977935	poles	-0.2001566
-4.104095	policemen	-0.1209238
-4.104095	pollution	-0.1209238
-4.104095	pond	-0.1209238
-4.104095	pontoons	-0.1209238
-4.104095	pony	-0.1209238
-3.977935	pool	-0.1209238
-2.965245	poor	-0.2937433
-3.977935	poorly	-0.1209238
-4.104095	populated	-0.1209238
-4.104095	population	-0.1209238
-4.104095	porcelain	-0.1209238
-4.104095	porch	-0.1209238
-4.104095	portraits	-0.1209238
-3.788678	pose	-0.1209238
-3.788678	posed	-0.1789525
-3.328313	poses	-0.2393418
-3.328313	posing	-0.2895533
-4.104095	possessed	-0.1209238
-4.104095	possession	-0.1209238
-3.544504	post	-0.2315613
-3.977935	posted	-0.2001566
-3.977935	posters	-0.1209238
-4.104095	postmodern	-0.1209238
-3.788678	pot	-0.1789525
-3.977935	potatoes	-0.2459484
-3.788678	pots	-0.1209238
-4.104095	potted	-0.1209238
-4.104095	potter	-0.1209238
-4.104095	pounce	-0.1209238
-4.104095	pound	-0.1209238
-3.977935	poured	-0.1209238
-4.104095	pouring	-0.1209238
-3.977935	pours	-0.1209238
-3.977935	powdered	-0.1209238
-4.104095	power	-0.1209238
-4.104095	powered	-0.1209238
-4.104095	powers	-0.1209238
-3.977935	practically	-0.1209238
-4.104095	practice	-0.1209238
-3.977935	practices	-0.1209238
-4.104095	practicing	-0.1209238
-4.104095	precariously	-0.1209238
-4.104095	prepare	-0.1209238
-3.649652	prepares	-0.1789525
-3.977935	preparing	-0.1209238
-4.104095	presence	-0.1209238
-3.977935	presentation	-0.2459484
-4.104095	presents	-0.1209238
-4.104095	preserve	-0.1209238
-4.104095	presses	-0.1209238
-4.104095	pretending	-0.1209238
-3.977935	pretty	-0.1209238
-4.104095	prevented	-0.1209238
-3.649652	prickly	-0.2259373
-4.104095	pride	-0.1209238
-4.104095	prime	-0.1209238
-4.104095	private	-0.1209238
-4.104095	prize	-0.1209238
-4.104095	probably	-0.1209238
-3.649652	produce	-0.1209238
-4.104095	professional	-0.1209238
-4.104095	progress	-0.1209238
-4.104095	projected	-0.1209238
-4.104095	projects	-0.1209238
-4.104095	prop	-0.1209238
-4.104095	propeled	-0.1209238
-4.104095	propeller	-0.1209238
-4.104095	proper	-0.1209238
-4.104095	propped	-0.1209238
-4.104095	propulsion	-0.1209238
-3.977935	protect	-0.1209238
-3.977935	protection	-0.1209238
-4.104095	protesting	-0.1209238
-4.104095	protruding	-0.1209238
-4.104095	provides	-0.1209238
-3.459917	public	-0.1457625
-3.977935	pull	-0.2001566
-4.104095	pulled	-0.1209238
-3.649652	pulling	-0.1667099
-3.788678	pulls	-0.1209238
-4.104095	punching	-0.1209238
-4.104095	punished	-0.1209238
-3.977935	puppies	-0.1209238
-4.104095	puppy	-0.1209238
-3.649652	purple	-0.1209238
-4.104095	purpose	-0.1209238
-4.104095	purposes	-0.1209238
-3.977935	purses	-0.1209238
-4.104095	pursuit	-0.1209238
-4.104095	pushed	-0.1209238
-3.977935	pushes	-0.1209238
-3.544504	put	-0.1667099
-3.977935	puts	-0.1209238
-3.977935	putting	-0.1209238
-4.104095	quarry	-0.1209238
-4.104095	queuing	-0.1209238
-4.104095	quick	-0.1209238
-3.977935	quickly	-0.1209238
-3.977935	quiet	-0.1209238
-4.104095	quietly	-0.1209238
-3.788678	quite	-0.1209238
-4.104095	quote	-0.1209238
-3.977935	race	-0.1531283
-4.104095	races	-0.1209238
-3.977935	racing	-0.1209238
-3.544504	rack	-0.2065757
-3.788678	racket	-0.1819973
-3.788678	racquet	-0.1879135
-4.104095	radio	-0.1209238
-4.104095	rafael	-0.1209238
-4.104095	raft	-0.1209238
-4.104095	rafters	-0.1209238
-4.104095	rage	-0.1209238
-3.788678	rail	-0.1209238
-4.104095	railing	-0.1209238
-3.977935	railroad	-0.1209238
-4.104095	railway	-0.1209238
-3.184632	rain	-0.2283734
-3.977935	rainbow	-0.1209238
-4.104095	raining	-0.1209238
-4.104095	raised	-0.1209238
-4.104095	rake	-0.1209238
-4.104095	rally	-0.1209238
-3.649652	ramp	-0.1667099
-4.104095	rams	-0.1209238
-4.104095	ran	-0.1209238
-4.104095	random	-0.1209238
-4.104095	range	-0.1209238
-4.104095	rapids	-0.1209238
-4.104095	rate	-0.1209238
-4.104095	rated	-0.1209238
-3.649652	rather	-0.1789525
-4.104095	ravine	-0.1209238
-3.977935	raw	-0.1209238
-4.104095	rd	-0.1209238
-4.104095	reach	-0.1209238
-4.104095	reaches	-0.1209238
-3.977935	reaching	-0.1209238
-4.104095	reaction	-0.1209238
-4.104095	reacts	-0.1209238
-3.977935	read	-0.1209238
-3.649652	reading	-0.2259373
-4.104095	reads	-0.1209238
-3.328313	ready	-0.434993
-3.977935	real	-0.1209238
-4.104095	reality	-0.1209238
-3.544504	really	-0.1692588
-4.104095	rear	-0.1209238
-4.104095	reason	-0.1209238
-4.104095	received	-0.1209238
-3.977935	reclining	-0.2459484
-4.104095	recorder	-0.1209238
-4.104095	recording	-0.1209238
-4.104095	recovering	-0.1209238
-4.104095	recquet	-0.1209238
-4.104095	rectangular	-0.1209238
-2.990575	red	-0.1566155
-4.104095	reevaluates	-0.1209238
-4.104095	reflected	-0.1209238
-3.977935	reflecting	-0.1209238
-3.977935	reflection	-0.2459484
-3.977935	reflects	-0.1209238
-4.104095	refrigeration	-0.1209238
-3.459917	refrigerator	-0.2307208
-4.104095	refrigeratorfreezer	-0.1209238
-4.104095	refrigerators	-0.1209238
-4.104095	reigns	-0.1209238
-4.104095	relations	-0.1209238
-4.104095	relatively	-0.1209238
-3.977935	remains	-0.1209238
-4.104095	remarks	-0.1209238
-3.649652	remote	-0.2001566
-4.104095	removal	-0.1209238
-4.104095	renovating	-0.1209238
-4.104095	renovation	-0.1209238
-4.104095	rent	-0.1209238
-3.977935	repair	-0.1209238
-4.104095	repeatedly	-0.1209238
-3.788678	replaced	-0.1209238
-4.104095	reporter	-0.1209238
-4.104095	reports	-0.1209238
-4.104095	representing	-0.1209238
-4.104095	repurposing	-0.1209238
-4.104095	residential	-0.1209238
-4.104095	residents	-0.1209238
-4.104095	resort	-0.1209238
-4.104095	responsible	-0.1209238
-4.104095	rest	-0.1209238
-3.459917	restaurant	-0.2380904
-4.104095	restaurants	-0.1209238
-3.328313	resting	-0.4300573
-3.977935	restroom	-0.1209238
-3.649652	rests	-0.1209238
-3.977935	result	-0.2459484
-4.104095	resulting	-0.1209238
-4.104095	retail	-0.1209238
-4.104095	retro	-0.1209238
-4.104095	return	-0.1209238
-3.977935	returns	-0.2459484
-4.104095	reveal	-0.1209238
-4.104095	revealing	-0.1209238
-3.977935	reveals	-0.1209238
-4.104095	revels	-0.1209238
-4.104095	rhino	-0.1209238
-4.104095	rickety	-0.1209238
-3.184632	ride	-0.2258517
-3.649652	rider	-0.1209238
-3.649652	riders	-0.1209238
-3.076854	rides	-0.3804768
-3.788678	ridiculous	-0.1209238
-2.624846	riding	-0.4880097
-4.104095	rig	-0.1209238
-3.389149	right	-0.1209238
-3.788678	ring	-0.1209238
-4.104095	riot	-0.1209238
-4.104095	ripe	-0.1209238
-4.104095	ripped	-0.1209238
-4.104095	riptide	-0.1209238
-3.977935	rises	-0.1209238
-3.977935	rising	-0.1209238
-3.544504	river	-0.2489441
-4.104095	riverboat	-0.1209238
-2.897071	road	-0.2842268
-4.104095	roads	-0.1209238
-3.788678	roadway	-0.1209238
-4.104095	roam	-0.1209238
-3.977935	rock	-0.1587358
-4.104095	rocking	-0.1209238
-3.649652	rocks	-0.1667099
-3.977935	rocky	-0.1667099
-4.104095	rodeo	-0.1209238
-4.104095	role	-0.1209238
-4.104095	roll	-0.1209238
-4.104095	rolling	-0.1209238
-3.977935	rolls	-0.1209238
-4.104095	rome	-0.1209238
-4.104095	roof	-0.1209238
-2.786296	room	-0.410986
-4.104095	rooms	-0.1209238
-4.104095	roots	-0.1209238
-3.977935	rose	-0.1209238
-3.788678	roses	-0.1209238
-3.788678	rots	-0.2001566
-2.802906	rotten	-0.5380535
-4.104095	rotting	-0.1209238
-3.328313	rough	-0.3689927
-3.649652	round	-0.1209238
-3.788678	row	-0.2001566
-4.104095	rub	-0.1209238
-3.977935	rubbing	-0.2459484
-4.104095	rubs	-0.1209238
-4.104095	rug	-0.1209238
-4.104095	ruin	-0.1209238
-4.104095	ruined	-0.1209238
-3.977935	ruins	-0.1209238
-4.104095	rules	-0.1209238
-3.389149	run	-0.2160893
-4.104095	runner	-0.1209238
-3.227453	running	-0.1411394
-3.788678	runs	-0.1209238
-3.649652	runway	-0.1667099
-3.977935	rural	-0.1209238
-4.104095	rushes	-0.1209238
-4.104095	rusted	-0.1209238
-3.788678	rusty	-0.1209238
-3.977935	rv	-0.1209238
-4.104095	s	-0.1209238
-2.990575	sad	-0.2659798
-4.104095	sadder	-0.1209238
-4.104095	saddled	-0.1209238
-4.104095	sadly	-0.1209238
-4.104095	safe	-0.1209238
-3.788678	safety	-0.2001566
-4.104095	said	-0.1209238
-4.104095	sailing	-0.1209238
-4.104095	sails	-0.1209238
-3.788678	salad	-0.1835278
-4.104095	salmon	-0.1209238
-4.104095	salvage	-0.1209238
-4.104095	same	-0.1209238
-4.104095	samples	-0.1209238
-4.104095	sanctuary	-0.1209238
-3.788678	sand	-0.1457625
-3.459917	sandwich	-0.2672418
-4.104095	sandwiches	-0.1209238
-4.104095	sandy	-0.1209238
-4.104095	santa	-0.1209238
-3.649652	sat	-0.1209238
-3.649652	saturated	-0.3536111
-4.104095	sauce	-0.1209238
-4.104095	sauces	-0.1209238
-3.977935	sausage	-0.1209238
-4.104095	saw	-0.1209238
-3.977935	say	-0.1209238
-3.977935	says	-0.1209238
-4.104095	scale	-0.1209238
-4.104095	scales	-0.1209238
-3.459917	scared	-0.2367074
-4.104095	scarf	-0.1209238
-3.977935	scaring	-0.2459484
-3.328313	scary	-0.228612
-3.544504	scene	-0.1932561
-4.104095	scenic	-0.1209238
-3.649652	school	-0.1667099
-3.649652	scissors	-0.4383149
-3.977935	scooter	-0.2459484
-4.104095	scores	-0.1209238
-4.104095	scowls	-0.1209238
-4.104095	scrambled	-0.1209238
-4.104095	scraper	-0.1209238
-4.104095	scratch	-0.1209238
-4.104095	scratching	-0.1209238
-4.104095	scratchy	-0.1209238
-3.649652	screaming	-0.3133762
-3.649652	screen	-0.1667099
-4.104095	screensaver	-0.1209238
-4.104095	scrunched	-0.1209238
-3.788678	sea	-0.1789525
-3.977935	seagulls	-0.1209238
-4.104095	seance	-0.1209238
-4.104095	search	-0.1209238
-3.977935	searches	-0.1209238
-4.104095	seaside	-0.1209238
-4.104095	season	-0.1209238
-3.328313	seat	-0.1583703
-3.544504	seated	-0.1667099
-3.977935	seating	-0.1209238
-3.977935	seats	-0.1209238
-4.104095	second	-0.1209238
-3.788678	secondary	-0.3133761
-4.104095	secrets	-0.1209238
-3.459917	see	-0.1509054
-4.104095	seeing	-0.1209238
-3.977935	seem	-0.2459484
-4.104095	seemed	-0.1209238
-3.649652	seemingly	-0.1209238
-3.977935	seems	-0.2459484
-3.389149	seen	-0.1587358
-4.104095	seeping	-0.1209238
-4.104095	sees	-0.1209238
-3.649652	selfie	-0.2065757
-4.104095	selfish	-0.1209238
-4.104095	selfobsessed	-0.1209238
-4.104095	sell	-0.1209238
-4.104095	semi	-0.1209238
-4.104095	sensation	-0.1209238
-4.104095	sense	-0.1209238
-4.104095	separate	-0.1209238
-4.104095	serious	-0.1209238
-3.977935	serve	-0.1209238
-3.459917	served	-0.1457625
-4.104095	servers	-0.1209238
-4.104095	serves	-0.1209238
-4.104095	service	-0.1209238
-3.544504	serving	-0.1209238
-3.649652	set	-0.1209238
-4.104095	setting	-0.1209238
-4.104095	seven	-0.1209238
-3.274961	several	-0.1474599
-4.104095	shade	-0.1209238
-4.104095	shades	-0.1209238
-3.649652	shadow	-0.1531283
-4.104095	shadowed	-0.1209238
-4.104095	shadows	-0.1209238
-4.104095	shadowy	-0.1209238
-3.977935	shakes	-0.2459484
-4.104095	shall	-0.1209238
-3.184632	shallow	-0.6960338
-4.104095	shame	-0.1209238
-4.104095	shape	-0.1209238
-4.104095	shaped	-0.1209238
-4.104095	shapes	-0.1209238
-3.977935	share	-0.1209238
-4.104095	shark	-0.1209238
-4.104095	shaved	-0.1209238
-4.104095	shaves	-0.1209238
-3.977935	shaving	-0.2459484
-3.389149	she	-0.1583703
-3.184632	sheep	-0.2405566
-4.104095	sheer	-0.1209238
-4.104095	sheet	-0.1209238
-4.104095	sheets	-0.1209238
-3.977935	shelf	-0.1209238
-3.977935	shelter	-0.1209238
-3.977935	shelves	-0.2459484
-4.104095	shelving	-0.1209238
-4.104095	shines	-0.1209238
-3.977935	shining	-0.2001566
-4.104095	shiny	-0.1209238
-3.977935	ship	-0.2001566
-4.104095	shipper	-0.1209238
-3.076854	shirt	-0.1979211
-4.104095	shocking	-0.1209238
-4.104095	shoe	-0.1209238
-4.104095	shoot	-0.1209238
-3.977935	shop	-0.1209238
-4.104095	shopped	-0.1209238
-4.104095	shoppers	-0.1209238
-3.977935	shopping	-0.1209238
-4.104095	shops	-0.1209238
-3.544504	shore	-0.1835278
-4.104095	shoreline	-0.1209238
-3.649652	short	-0.1209238
-4.104095	shortage	-0.1209238
-4.104095	shorts	-0.1209238
-3.788678	shot	-0.2160893
-3.274961	should	-0.2178982
-4.104095	shoves	-0.1209238
-3.788678	show	-0.2001566
-4.104095	showcased	-0.1209238
-4.104095	showed	-0.1209238
-3.184632	shower	-0.3804768
-3.544504	showing	-0.1667099
-3.788678	shown	-0.1721085
-3.274961	shows	-0.2257887
-3.977935	shrimp	-0.1209238
-4.104095	shuttle	-0.1209238
-3.389149	shy	-0.2391525
-4.104095	sibling	-0.1209238
-3.544504	sick	-0.2001566
-3.046149	side	-0.2819985
-4.104095	sidebyside	-0.1209238
-4.104095	sides	-0.1209238
-3.459917	sidewalk	-0.2789321
-4.104095	sideways	-0.1209238
-2.802906	sign	-0.2964829
-4.104095	signage	-0.1209238
-4.104095	signal	-0.1209238
-4.104095	signals	-0.1209238
-3.274961	signs	-0.1855689
-4.104095	siking	-0.1209238
-4.104095	silently	-0.1209238
-3.977935	sill	-0.1789525
-3.109895	silly	-0.2672903
-3.649652	silver	-0.1209238
-4.104095	silverware	-0.1209238
-3.977935	simple	-0.1209238
-3.977935	since	-0.2459484
-4.104095	singin	-0.1209238
-3.649652	single	-0.1789525
-4.104095	sings	-0.1209238
-4.104095	sinister	-0.1209238
-3.017474	sink	-0.4262916
-3.649652	sinks	-0.1667099
-4.104095	sister	-0.1209238
-2.802906	sit	-0.4691848
-4.104095	sititing	-0.1209238
-2.38173	sits	-0.4838917
-2.289533	sitting	-0.6421839
-4.104095	situated	-0.1209238
-4.104095	six	-0.1209238
-4.104095	sixth	-0.1209238
-3.544504	skate	-0.1932561
-3.227453	skateboard	-0.1983025
-4.104095	skateboarder	-0.1209238
-4.104095	skateboarders	-0.1209238
-3.544504	skateboarding	-0.1667099
-3.459917	skateboards	-0.1531283
-4.104095	skates	-0.1209238
-3.977935	skating	-0.1209238
-3.046149	ski	-0.1975853
-4.104095	skidded	-0.1209238
-3.544504	skier	-0.1489697
-3.328313	skiers	-0.1432137
-3.649652	skies	-0.1789525
-4.104095	skiier	-0.1209238
-4.104095	skiiing	-0.1209238
-3.046149	skiing	-0.3642806
-4.104095	skill	-0.1209238
-4.104095	skillet	-0.1209238
-3.977935	skills	-0.1209238
-4.104095	skin	-0.1209238
-4.104095	skinny	-0.1209238
-3.145658	skis	-0.2636448
-3.184632	sky	-0.2619806
-4.104095	skyscraper	-0.1209238
-4.104095	slaloming	-0.1209238
-4.104095	sled	-0.1209238
-4.104095	sleek	-0.1209238
-3.977935	sleep	-0.1209238
-3.274961	sleeping	-0.2530581
-4.104095	sleeps	-0.1209238
-4.104095	sleeveless	-0.1209238
-3.649652	slice	-0.2259373
-3.788678	slices	-0.2001566
-3.977935	slides	-0.1209238
-4.104095	slightly	-0.1209238
-4.104095	slis	-0.1209238
-3.977935	slop	-0.1209238
-3.544504	slope	-0.2218992
-4.104095	slopes	-0.1209238
-4.104095	slow	-0.1209238
-3.977935	slowly	-0.1209238
-4.104095	slumber	-0.1209238
-4.104095	slumped	-0.1209238
-4.104095	slumps	-0.1209238
-3.109895	small	-0.1556816
-3.977935	smaller	-0.1209238
-3.977935	smart	-0.1209238
-4.104095	smelled	-0.1209238
-4.104095	smells	-0.1209238
-3.977935	smile	-0.1209238
-4.104095	smiles	-0.1209238
-3.544504	smiling	-0.2257294
-3.788678	smoke	-0.2001566
-4.104095	smothers	-0.1209238
-4.104095	snacks	-0.1209238
-4.104095	sniffing	-0.1209238
-3.977935	sniffs	-0.2459484
-3.046149	snow	-0.2548461
-3.649652	snowboard	-0.1432137
-3.788678	snowboarder	-0.1209238
-3.977935	snowboarding	-0.1209238
-3.788678	snowboards	-0.1789525
-3.544504	snowy	-0.1623422
-4.104095	snuggling	-0.1209238
-3.389149	so	-0.1209238
-4.104095	soaked	-0.1209238
-4.104095	soap	-0.1209238
-3.788678	soaring	-0.2001566
-3.459917	soccer	-0.1761091
-4.104095	socks	-0.1209238
-4.104095	soda	-0.1209238
-3.389149	sofa	-0.1953147
-3.977935	sofas	-0.1209238
-3.977935	softball	-0.1209238
-3.977935	solitary	-0.1209238
-2.582077	some	-0.2023877
-4.104095	somebody	-0.1209238
-3.459917	someone	-0.1356559
-3.977935	someones	-0.1209238
-3.227453	something	-0.1557073
-4.104095	somewhat	-0.1209238
-4.104095	son	-0.1209238
-4.104095	sons	-0.1209238
-3.274961	soon	-0.2259373
-3.649652	sore	-0.3536112
-4.104095	sort	-0.1209238
-3.977935	sour	-0.1209238
-4.104095	source	-0.1209238
-3.977935	southwest	-0.1209238
-3.544504	space	-0.1209238
-4.104095	sparse	-0.1209238
-4.104095	speaker	-0.1209238
-3.977935	speaking	-0.1209238
-4.104095	speaks	-0.1209238
-4.104095	spectator	-0.1209238
-3.977935	spectators	-0.1209238
-3.977935	speed	-0.1209238
-4.104095	speeds	-0.1209238
-4.104095	spelling	-0.1209238
-4.104095	spends	-0.1209238
-4.104095	spewing	-0.1209238
-3.788678	spices	-0.1209238
-4.104095	spill	-0.1209238
-4.104095	splendor	-0.1209238
-4.104095	split	-0.1209238
-4.104095	spoiled	-0.1209238
-3.977935	spooky	-0.1209238
-3.977935	spoon	-0.1209238
-4.104095	sport	-0.1209238
-4.104095	sporting	-0.1209238
-3.649652	spot	-0.1209238
-3.977935	spotted	-0.1209238
-4.104095	spreads	-0.1209238
-3.977935	sprout	-0.1209238
-4.104095	squints	-0.1209238
-4.104095	st	-0.1209238
-4.104095	stack	-0.1209238
-4.104095	stacked	-0.1209238
-4.104095	stadium	-0.1209238
-4.104095	stage	-0.1209238
-4.104095	stain	-0.1209238
-3.977935	stained	-0.2001566
-4.104095	stainless	-0.1209238
-3.649652	stairs	-0.1209238
-4.104095	stale	-0.1209238
-4.104095	stalls	-0.1209238
-4.104095	stance	-0.1209238
-3.109895	stand	-0.2569833
-2.490599	standing	-0.6253927
-2.754869	stands	-0.3588084
-3.977935	stare	-0.1209238
-3.977935	stared	-0.2459484
-3.788678	stares	-0.1789526
-3.788678	staring	-0.3133762
-3.977935	starting	-0.2459484
-4.104095	starvation	-0.1209238
-4.104095	starving	-0.1209238
-3.389149	station	-0.2915756
-3.328313	statue	-0.1905766
-3.977935	statues	-0.1209238
-3.788678	stay	-0.1209238
-4.104095	stayed	-0.1209238
-4.104095	steak	-0.1209238
-4.104095	steam	-0.1209238
-3.977935	steel	-0.1411394
-4.104095	steeples	-0.1209238
-4.104095	stems	-0.1209238
-3.788678	step	-0.1209238
-3.977935	stepping	-0.1209238
-3.788678	steps	-0.3133761
-4.104095	stern	-0.1209238
-4.104095	stew	-0.1209238
-3.788678	stick	-0.1209238
-4.104095	sticker	-0.1209238
-3.649652	sticking	-0.2567011
-3.788678	sticks	-0.1209238
-3.649652	still	-0.1667099
-4.104095	stkp	-0.1209238
-4.104095	stoic	-0.1209238
-4.104095	stolen	-0.1209238
-3.977935	stone	-0.1209238
-4.104095	stones	-0.1209238
-4.104095	stool	-0.1209238
-2.918628	stop	-0.4275863
-3.544504	stopped	-0.2001566
-3.977935	stopping	-0.1209238
-4.104095	stops	-0.1209238
-4.104095	storage	-0.1209238
-3.544504	store	-0.3315144
-4.104095	stored	-0.1209238
-4.104095	stores	-0.1209238
-3.977935	storm	-0.2459484
-3.328313	stormy	-0.264494
-3.977935	story	-0.1209238
-3.788678	stove	-0.2259373
-4.104095	stoves	-0.1209238
-3.977935	straight	-0.1209238
-4.104095	strain	-0.1209238
-4.104095	strange	-0.1209238
-4.104095	strangely	-0.1209238
-4.104095	strawberries	-0.1209238
-4.104095	strawberry	-0.1209238
-4.104095	stream	-0.1209238
-4.104095	streams	-0.1209238
-2.711621	street	-0.3571953
-3.977935	streetlight	-0.1209238
-3.788678	streets	-0.2001566
-4.104095	strength	-0.1209238
-4.104095	stretch	-0.1209238
-3.788678	stretched	-0.2001566
-3.977935	stretches	-0.1209238
-4.104095	stretching	-0.1209238
-4.104095	strides	-0.1209238
-4.104095	strike	-0.1209238
-4.104095	string	-0.1209238
-3.977935	strings	-0.1209238
-3.977935	striped	-0.1209238
-4.104095	stripes	-0.1209238
-4.104095	stroll	-0.1209238
-4.104095	strolls	-0.1209238
-4.104095	struck	-0.1209238
-4.104095	struggle	-0.1209238
-4.104095	struggled	-0.1209238
-3.649652	struggles	-0.4383149
-4.104095	struggling	-0.1209238
-4.104095	stubborn	-0.1209238
-3.788678	stuck	-0.1789526
-4.104095	student	-0.1209238
-4.104095	stuff	-0.1209238
-3.274961	stuffed	-0.2489688
-3.977935	stump	-0.1209238
-3.977935	stunt	-0.1209238
-3.977935	stunts	-0.1209238
-2.582077	stupid	-0.5046991
-4.104095	stupidly	-0.1209238
-3.977935	style	-0.1209238
-3.977935	styled	-0.1209238
-4.104095	submerged	-0.1209238
-4.104095	suburban	-0.1209238
-4.104095	subway	-0.1209238
-3.649652	such	-0.2459484
-3.977935	sucks	-0.1209238
-3.788678	suffering	-0.1209238
-3.788678	sugary	-0.1209238
-3.544504	suit	-0.1432137
-4.104095	suitable	-0.1209238
-3.788678	suitcase	-0.1789525
-3.788678	suitcases	-0.2001566
-4.104095	suits	-0.1209238
-4.104095	summer	-0.1209238
-3.977935	sun	-0.1667099
-4.104095	sunbath	-0.1209238
-3.977935	sunglasses	-0.1209238
-3.977935	sunlight	-0.2459484
-3.977935	sunny	-0.2001566
-4.104095	sunrise	-0.1209238
-4.104095	sunscreen	-0.1209238
-3.544504	sunset	-0.1587358
-3.977935	supplies	-0.1209238
-4.104095	supporters	-0.1209238
-4.104095	supposed	-0.1209238
-3.328313	surf	-0.2367074
-3.227453	surfboard	-0.2964135
-3.788678	surfboards	-0.1209238
-4.104095	surfed	-0.1209238
-3.649652	surfer	-0.1789525
-3.977935	surfers	-0.1209238
-3.184632	surfing	-0.321131
-4.104095	surfs	-0.1209238
-4.104095	surprise	-0.1209238
-4.104095	surprising	-0.1209238
-4.104095	surround	-0.1209238
-3.328313	surrounded	-0.7393449
-3.649652	surrounding	-0.1789526
-4.104095	survive	-0.1209238
-4.104095	suspends	-0.1209238
-3.544504	sweater	-0.1457625
-4.104095	sweet	-0.1209238
-4.104095	swiftly	-0.1209238
-3.544504	swimming	-0.1209238
-3.788678	swing	-0.1789526
-3.544504	swinging	-0.3536112
-3.977935	swings	-0.2459484
-4.104095	swoop	-0.1209238
-4.104095	sync	-0.1209238
-4.104095	syrup	-0.1209238
-3.977935	system	-0.1209238
-4.104095	t	-0.1209238
-2.838161	table	-0.3226987
-4.104095	tablecloth	-0.1209238
-3.459917	tables	-0.1789525
-4.104095	tablet	-0.1209238
-4.104095	tabletop	-0.1209238
-4.104095	tagged	-0.1209238
-4.104095	tail	-0.1209238
-3.544504	take	-0.1489697
-3.227453	taken	-0.1880405
-3.109895	takes	-0.4591274
-3.076854	taking	-0.3979579
-4.104095	talk	-0.1209238
-3.544504	talking	-0.2735225
-4.104095	talks	-0.1209238
-3.328313	tall	-0.1971241
-4.104095	tapping	-0.1209238
-4.104095	tarmac	-0.1209238
-3.977935	taste	-0.1209238
-4.104095	tasted	-0.1209238
-4.104095	taught	-0.1209238
-4.104095	taunt	-0.1209238
-3.788678	tea	-0.3133762
-4.104095	teachers	-0.1209238
-4.104095	teacups	-0.1209238
-3.977935	team	-0.1209238
-4.104095	tech	-0.1209238
-3.389149	teddy	-0.4383149
-3.977935	teen	-0.1209238
-4.104095	teeters	-0.1209238
-3.544504	teeth	-0.3051185
-4.104095	teh	-0.1209238
-3.544504	television	-0.1587358
-3.977935	tell	-0.1209238
-3.977935	tells	-0.1209238
-3.977935	temporarily	-0.2459484
-4.104095	ten	-0.1209238
-4.104095	tender	-0.1209238
-4.104095	tending	-0.1209238
-4.104095	tends	-0.1209238
-3.227453	tennis	-0.1531283
-4.104095	tent	-0.1209238
-4.104095	tents	-0.1209238
-4.104095	terminal	-0.1209238
-4.104095	terrace	-0.1209238
-3.184632	terrible	-0.4604954
-4.104095	terrified	-0.1209238
-4.104095	testament	-0.1209238
-4.104095	text	-0.1209238
-3.788678	texting	-0.2001566
-3.977935	than	-0.2459484
-4.104095	thanks	-0.1209238
-2.204892	that	-0.4289134
-3.977935	thats	-0.1209238
-4.104095	thaw	-0.1209238
-1.866332	the	-0.332161
-4.104095	thee	-0.1209238
-2.965245	their	-0.1472688
-3.017474	them	-0.3794196
-4.104095	themselves	-0.1209238
-4.104095	then	-0.1209238
-2.918628	there	-0.3909208
-4.104095	therefore	-0.1209238
-3.649652	these	-0.1489697
-2.876534	they	-0.1543454
-4.104095	thieves	-0.1209238
-3.977935	thing	-0.2459484
-3.977935	things	-0.1209238
-3.649652	think	-0.1209238
-3.977935	thinking	-0.1209238
-3.544504	thinks	-0.4327924
-4.104095	thirsty	-0.1209238
-2.647922	this	-0.1758147
-3.459917	those	-0.1623422
-4.104095	though	-0.1209238
-4.104095	thought	-0.1209238
-4.104095	thoughts	-0.1209238
-4.104095	thr	-0.1209238
-4.104095	threatened	-0.1209238
-4.104095	threatens	-0.1209238
-3.328313	three	-0.1510051
-4.104095	threre	-0.1209238
-2.507418	through	-0.643096
-3.788678	throw	-0.1209238
-3.649652	throwing	-0.2567011
-4.104095	thrown	-0.1209238
-3.977935	throws	-0.1209238
-3.977935	thru	-0.1209238
-4.104095	thumb	-0.1209238
-4.104095	thw	-0.1209238
-3.459917	tie	-0.2315375
-3.977935	tied	-0.1209238
-3.977935	ties	-0.1209238
-3.977935	tight	-0.1209238
-3.459917	tile	-0.2315613
-3.459917	tiled	-0.1932561
-3.649652	tiles	-0.1209238
-4.104095	till	-0.1209238
-4.104095	tilt	-0.1209238
-4.104095	tilted	-0.1209238
-3.184632	time	-0.1616416
-4.104095	times	-0.1209238
-3.977935	tin	-0.1209238
-4.104095	tins	-0.1209238
-3.977935	tiny	-0.1209238
-3.788678	tire	-0.1209238
-4.104095	tired	-0.1209238
-4.104095	tissues	-0.1209238
-1.905253	to	-0.3574886
-3.389149	today	-0.3720653
-4.104095	toddlers	-0.1209238
-3.017474	together	-0.4105981
-4.104095	toiler	-0.1209238
-3.109895	toilet	-0.2503978
-3.977935	toilets	-0.1209238
-4.104095	told	-0.1209238
-3.977935	tomato	-0.1209238
-4.104095	ton	-0.1209238
-4.104095	tongue	-0.1209238
-3.017474	too	-0.2084036
-3.977935	took	-0.2459484
-4.104095	tooth	-0.1209238
-3.788678	top	-0.1953147
-3.544504	topped	-0.5352249
-4.104095	toppings	-0.1209238
-4.104095	torn	-0.1209238
-4.104095	tornado	-0.1209238
-4.104095	totally	-0.1209238
-4.104095	touches	-0.1209238
-4.104095	touching	-0.1209238
-3.389149	tough	-0.2783242
-3.788678	tour	-0.3133762
-3.977935	tourist	-0.1209238
-4.104095	tourists	-0.1209238
-4.104095	tournament	-0.1209238
-3.184632	toward	-0.2915756
-3.184632	towards	-0.6144062
-3.977935	towed	-0.1209238
-3.977935	towel	-0.2001566
-4.104095	towels	-0.1209238
-3.389149	tower	-0.1879497
-3.788678	towering	-0.3133761
-3.544504	town	-0.3407058
-3.544504	toy	-0.1209238
-3.977935	toys	-0.1209238
-3.328313	track	-0.2963074
-3.227453	tracks	-0.3200146
-4.104095	tractor	-0.1209238
-3.076854	traffic	-0.2226907
-4.104095	trail	-0.1209238
-3.977935	trailer	-0.2459484
-4.104095	trailing	-0.1209238
-4.104095	trails	-0.1209238
-2.698112	train	-0.2961524
-3.649652	trains	-0.1209238
-3.977935	tram	-0.2459484
-4.104095	transit	-0.1209238
-4.104095	translucent	-0.1209238
-4.104095	transparent	-0.1209238
-4.104095	transplanted	-0.1209238
-3.977935	transported	-0.1209238
-4.104095	transports	-0.1209238
-3.977935	trash	-0.1209238
-3.544504	travel	-0.2001566
-3.459917	traveling	-0.2033543
-4.104095	travelling	-0.1209238
-3.389149	travels	-0.2001566
-4.104095	traverse	-0.1209238
-3.788678	tray	-0.1667099
-3.977935	trays	-0.1209238
-4.104095	treat	-0.1209238
-4.104095	treated	-0.1209238
-4.104095	treating	-0.1209238
-4.104095	treats	-0.1209238
-2.990575	tree	-0.2861775
-3.076854	trees	-0.4707485
-4.104095	trek	-0.1209238
-4.104095	treks	-0.1209238
-4.104095	tressle	-0.1209238
-3.328313	trick	-0.2590802
-3.788678	tricks	-0.1209238
-4.104095	tried	-0.1209238
-3.649652	tries	-0.3051185
-3.977935	trimming	-0.2459484
-4.104095	tring	-0.1209238
-4.104095	trip	-0.1209238
-3.788678	trolley	-0.1209238
-4.104095	trouble	-0.1209238
-3.227453	troubled	-0.6491683
-2.941311	truck	-0.2311887
-4.104095	truckdriver	-0.1209238
-3.788678	trucks	-0.1209238
-4.104095	true	-0.1209238
-3.977935	trunk	-0.1209238
-3.788678	try	-0.2567011
-3.046149	trying	-1.012346
-4.104095	tthe	-0.1209238
-3.544504	tub	-0.1209238
-4.104095	tubman	-0.1209238
-4.104095	tucked	-0.1209238
-4.104095	tucking	-0.1209238
-4.104095	tucks	-0.1209238
-4.104095	tune	-0.1209238
-4.104095	turkey	-0.1209238
-3.977935	turn	-0.1209238
-3.788678	turned	-0.1209238
-3.977935	turning	-0.1209238
-3.649652	turns	-0.1789525
-4.104095	turquoise	-0.1209238
-4.104095	tuxedo	-0.1209238
-3.459917	tv	-0.1953147
-4.104095	twice	-0.1209238
-4.104095	twin	-0.1209238
-2.941311	two	-0.1815238
-3.977935	type	-0.2459484
-4.104095	types	-0.1209238
-3.977935	typing	-0.1209238
-2.636231	ugly	-0.3337568
-4.104095	ultimate	-0.1209238
-3.076854	umbrella	-0.2471389
-3.046149	umbrellas	-0.2771867
-3.788678	unable	-0.3133761
-3.649652	unaware	-0.2567011
-4.104095	unbeknownst	-0.1209238
-2.647922	under	-0.6752535
-4.104095	underage	-0.1209238
-4.104095	underdressed	-0.1209238
-3.389149	underneath	-0.3720653
-4.104095	underpass	-0.1209238
-3.977935	understanding	-0.1209238
-3.977935	uneaten	-0.1209238
-4.104095	unfortunately	-0.1209238
-4.104095	unhappy	-0.1209238
-4.104095	unhealthy	-0.1209238
-3.788678	uniform	-0.1209238
-4.104095	uninhabited	-0.1209238
-4.104095	uninviting	-0.1209238
-4.104095	unit	-0.1209238
-4.104095	unknown	-0.1209238
-4.104095	unless	-0.1209238
-4.104095	unloading	-0.1209238
-4.104095	unlucky	-0.1209238
-4.104095	unmowed	-0.1209238
-4.104095	unnatural	-0.1209238
-4.104095	unnecessary	-0.1209238
-3.649652	unpaved	-0.2567011
-4.104095	unpleasant	-0.1209238
-4.104095	unpleasing	-0.1209238
-4.104095	unpracticed	-0.1209238
-4.104095	unripe	-0.1209238
-4.104095	unsold	-0.1209238
-3.977935	unsure	-0.2459484
-4.104095	until	-0.1209238
-4.104095	unto	-0.1209238
-3.977935	untouched	-0.1209238
-3.977935	unused	-0.1209238
-4.104095	unwelcoming	-0.1209238
-4.104095	unwilling	-0.1209238
-2.466532	up	-0.3487092
-4.104095	upclose	-0.1209238
-4.104095	updated	-0.1209238
-4.104095	uploaded	-0.1209238
-3.389149	upon	-0.378026
-4.104095	upright	-0.1209238
-4.104095	upscale	-0.1209238
-3.977935	upset	-0.1209238
-3.977935	upside	-0.2459484
-4.104095	upward	-0.1209238
-3.977935	urban	-0.1667099
-3.788678	urinal	-0.1209238
-4.104095	url	-0.1209238
-3.649652	us	-0.1789525
-3.788678	use	-0.1209238
-3.328313	used	-0.2160893
-4.104095	useless	-0.1209238
-4.104095	user	-0.1209238
-3.649652	uses	-0.1209238
-2.990575	using	-0.3158822
-3.977935	utensils	-0.1209238
-3.977935	vacation	-0.1209238
-4.104095	vague	-0.1209238
-4.104095	vaguely	-0.1209238
-4.104095	vain	-0.1209238
-3.788678	valley	-0.1209238
-4.104095	value	-0.1209238
-3.649652	van	-0.1667099
-4.104095	vandalized	-0.1209238
-3.977935	vanity	-0.1209238
-4.104095	varieties	-0.1209238
-3.788678	variety	-0.3133761
-3.459917	various	-0.1587358
-3.328313	vase	-0.2998996
-3.788678	vases	-0.1209238
-4.104095	vegan	-0.1209238
-4.104095	vegetable	-0.1209238
-3.459917	vegetables	-0.2512915
-4.104095	vegetation	-0.1209238
-4.104095	veggies	-0.1209238
-3.977935	vehicle	-0.1209238
-3.649652	vehicles	-0.1587358
-4.104095	velvet	-0.1209238
-4.104095	vendor	-0.1209238
-4.104095	verbally	-0.1209238
-4.104095	verdant	-0.1209238
-2.990575	very	-0.1641076
-4.104095	vessels	-0.1209238
-4.104095	vests	-0.1209238
-4.104095	vicious	-0.1209238
-3.389149	video	-0.280475
-3.977935	vietnamese	-0.2459484
-2.990575	view	-0.4433331
-4.104095	viewer	-0.1209238
-3.977935	viewing	-0.1209238
-4.104095	views	-0.1209238
-4.104095	village	-0.1209238
-3.977935	vintage	-0.1209238
-3.977935	violence	-0.1209238
-4.104095	violently	-0.1209238
-3.977935	visible	-0.1209238
-4.104095	visited	-0.1209238
-3.977935	visitors	-0.1209238
-4.104095	vw	-0.1209238
-4.104095	wagon	-0.1209238
-3.649652	wait	-0.1209238
-3.977935	waited	-0.1209238
-4.104095	waiters	-0.1209238
-3.109895	waiting	-0.374413
-3.544504	waits	-0.2178982
-4.104095	wakeboarder	-0.1209238
-3.184632	walk	-0.213428
-4.104095	walked	-0.1209238
-2.838161	walking	-0.3611997
-3.076854	walks	-0.2183985
-4.104095	walkway	-0.1209238
-3.046149	wall	-0.332547
-4.104095	walled	-0.1209238
-4.104095	wallop	-0.1209238
-3.459917	walls	-0.3720653
-4.104095	wander	-0.1209238
-4.104095	wandering	-0.1209238
-3.544504	want	-0.1667099
-4.104095	wanted	-0.1209238
-4.104095	wanting	-0.1209238
-3.788678	wants	-0.3133761
-3.977935	warehouse	-0.1209238
-4.104095	warm	-0.1209238
-4.104095	warmers	-0.1209238
-4.104095	warned	-0.1209238
-3.788678	warning	-0.1209238
-4.104095	warplane	-0.1209238
-2.543145	was	-0.2323866
-4.104095	wash	-0.1209238
-3.977935	washing	-0.1209238
-3.977935	wasnt	-0.1209238
-4.104095	wasting	-0.1209238
-3.274961	watch	-0.1880001
-4.104095	watched	-0.1209238
-3.328313	watches	-0.1953147
-2.990575	watching	-0.350876
-2.990575	water	-0.3107106
-4.104095	waterfront	-0.1209238
-4.104095	waterproof	-0.1209238
-3.788678	waters	-0.1667099
-4.104095	watertherefore	-0.1209238
-3.649652	wave	-0.1457625
-4.104095	waved	-0.1209238
-4.104095	waveless	-0.1209238
-3.977935	waves	-0.1789525
-4.104095	waving	-0.1209238
-3.046149	way	-0.2672418
-3.649652	we	-0.1789525
-4.104095	weak	-0.1209238
-4.104095	weaker	-0.1209238
-3.788678	wear	-0.2001566
-2.739969	wearing	-0.4595157
-3.544504	wears	-0.2065757
-4.104095	weathe	-0.1209238
-3.788678	weather	-0.1209238
-4.104095	weathered	-0.1209238
-4.104095	web	-0.1209238
-3.977935	wedding	-0.1209238
-4.104095	weeds	-0.1209238
-4.104095	weedy	-0.1209238
-4.104095	week	-0.1209238
-2.918628	weird	-0.2258148
-4.104095	well	-0.1209238
-3.977935	went	-0.1209238
-3.459917	were	-0.1209238
-4.104095	werong	-0.1209238
-3.544504	wet	-0.1835278
-3.649652	wetsuit	-0.2259373
-3.109895	what	-0.1996065
-3.977935	whats	-0.1209238
-3.977935	wheel	-0.1209238
-4.104095	wheelchair	-0.1209238
-3.017474	when	-0.2160693
-2.941311	where	-0.1953147
-3.389149	which	-0.1457625
-2.451198	while	-0.2862067
-4.104095	whilst	-0.1209238
-2.856924	white	-0.1607074
-2.876534	who	-0.2704857
-3.977935	whole	-0.1209238
-3.788678	whos	-0.1209238
-4.104095	whose	-0.1209238
-4.104095	why	-0.1209238
-3.788678	wicker	-0.1209238
-3.977935	wide	-0.1209238
-4.104095	wierd	-0.1209238
-3.977935	wife	-0.1209238
-3.544504	wii	-0.1587358
-3.649652	wild	-0.1209238
-3.046149	will	-0.1996674
-4.104095	willamette	-0.1209238
-4.104095	willing	-0.1209238
-4.104095	wilted	-0.1209238
-3.977935	win	-0.1209238
-3.977935	wind	-0.1209238
-3.184632	window	-0.2743853
-3.328313	windows	-0.26733
-4.104095	winds	-0.1209238
-3.977935	windshield	-0.2459484
-4.104095	windsurfing	-0.1209238
-3.274961	wine	-0.1789525
-3.788678	wing	-0.1209238
-4.104095	winged	-0.1209238
-3.977935	wings	-0.1209238
-4.104095	winning	-0.1209238
-3.788678	winter	-0.1789525
-3.977935	wipe	-0.2459484
-4.104095	wipes	-0.1209238
-3.977935	wire	-0.1209238
-4.104095	wish	-0.1209238
-4.104095	wishes	-0.1209238
-1.760751	with	-0.5140621
-4.104095	wither	-0.1209238
-4.104095	withers	-0.1209238
-3.389149	within	-0.431265
-3.328313	without	-0.1209238
-4.104095	witnessed	-0.1209238
-4.104095	wits	-0.1209238
-4.104095	wodden	-0.1209238
-4.104095	woeful	-0.1209238
-2.897071	woman	-0.2398853
-4.104095	womans	-0.1209238
-3.389149	women	-0.1394184
-4.104095	wonder	-0.1209238
-4.104095	wondering	-0.1209238
-3.977935	wont	-0.1209238
-3.459917	wood	-0.1915503
-4.104095	wooded	-0.1209238
-3.328313	wooden	-0.1769821
-3.977935	woods	-0.2001566
-4.104095	wore	-0.1209238
-3.649652	work	-0.1761091
-4.104095	workaholic	-0.1209238
-3.788678	worker	-0.1667099
-3.977935	workers	-0.1209238
-3.649652	working	-0.1209238
-3.788678	works	-0.2001566
-4.104095	workstations	-0.1209238
-4.104095	worried	-0.1209238
-4.104095	worries	-0.1209238
-4.104095	worse	-0.1209238
-3.227453	would	-0.2167841
-3.977935	wouldnt	-0.1209238
-4.104095	wrecking	-0.1209238
-4.104095	writers	-0.1209238
-3.977935	writing	-0.1209238
-4.104095	written	-0.1209238
-3.389149	wrong	-0.2116857
-3.977935	wrought	-0.2459484
-3.328313	yard	-0.3864633
-4.104095	yards	-0.1209238
-4.104095	yell	-0.1209238
-4.104095	yelled	-0.1209238
-3.977935	yelling	-0.1209238
-3.109895	yellow	-0.1746923
-3.977935	yet	-0.1209238
-4.104095	yield	-0.1209238
-4.104095	york	-0.1209238
-3.184632	you	-0.1587358
-4.104095	youd	-0.1209238
-3.544504	young	-0.1763791
-3.977935	your	-0.1209238
-3.227453	zebra	-0.1922519
-3.274961	zebras	-0.2184139
-4.104095	zero	-0.1209238
-3.977935	zone	-0.1209238
-4.104095	zones	-0.1209238
-3.788678	zoo	-0.1587358
-4.104095	zookeeper	-0.1209238
-3.977935	zooming	-0.1209238
-4.104095	zooms	-0.1209238

\2-grams:
-1.308871	1 a
-1.458686	1 depicted
-1.456159	1 four
-1.441416	1 one
-1.457893	1 slices
-1.346624	1 the
-1.457314	1 we
-0.6141126	1the fedex
-1.401501	2 a
-1.56357	2 even
-1.561623	2 just
-1.541379	2 stupid
-0.7437468	2 the
-1.56618	2 these
-1.564221	2 women
-0.6113003	2is this
-1.04752	3 a
-1.602065	3 an
-1.619729	3 as
-1.43356	3 on
-1.634131	3 one
-0.6216338	3 the
-1.630816	3 this
-0.6124561	4 black
-0.5977459	555 is
-0.6142261	6 months
-0.6141902	6th avenue
-2.721154	<s> 1	-0.06459623
-4.186424	<s> 1the
-3.617532	<s> 2
-3.176458	<s> 3	-0.08693914
-0.2284186	<s> a	-0.700515
-3.935418	<s> above
-4.158907	<s> adult
-3.595685	<s> after
-4.040294	<s> airplane
-3.555033	<s> all
-3.841522	<s> along
-4.186424	<s> although
-1.170526	<s> an	-0.6407415
-4.040294	<s> angry
-3.363183	<s> another
-3.654756	<s> antique	-0.2116237
-3.641962	<s> as
-4.177544	<s> asian
-3.206994	<s> at	-0.2116237
-3.652127	<s> athlete	-0.2116237
-4.040294	<s> baby
-2.449741	<s> bad	-0.1255056
-4.025714	<s> baseball
-4.177544	<s> based
-4.055381	<s> bears
-3.579991	<s> because
-4.121588	<s> beer
-3.935418	<s> being
-3.860704	<s> beside
-4.139847	<s> bicycles
-4.055381	<s> big
-3.997944	<s> birds
-3.017226	<s> black	-0.06096845
-3.640537	<s> blurry	-0.2116237
-4.011607	<s> boy
-4.104066	<s> bright
-3.550209	<s> broken
-3.640537	<s> butterfly	-0.2116237
-3.398811	<s> by
-3.363183	<s> cars	-0.1285272
-4.071011	<s> children
-3.912728	<s> clock
-3.617532	<s> close	-0.2116237
-4.186424	<s> closedminded
-3.103771	<s> cold	-0.09091869
-4.186424	<s> cooks
-3.997944	<s> could
-4.139847	<s> couple
-3.595685	<s> cows
-3.174434	<s> crappy	-0.1635429
-3.569835	<s> crazy
-4.121588	<s> crowd
-4.186424	<s> crowds
-3.59039	<s> crying
-4.071011	<s> dark
-2.482874	<s> dead	-0.3622012
-4.158907	<s> despite
-3.640537	<s> different	-0.2116237
-2.886161	<s> dirty	-0.1214028
-3.150854	<s> disgusting	-0.3756669
-3.362334	<s> down
-4.186424	<s> dozens
-3.901813	<s> during
-3.997944	<s> elephant
-4.071011	<s> even
-4.158907	<s> everyone
-4.071011	<s> evil
-3.148945	<s> fancy	-0.3756669
-4.139847	<s> fat
-3.046299	<s> five	-0.1298008
-4.139847	<s> fog
-3.317989	<s> for
-3.628882	<s> found	-0.2116237
-2.779225	<s> four	-0.1184876
-4.158907	<s> fragile
-4.158907	<s> fresh
-4.121588	<s> frightened
-3.391291	<s> from
-4.071011	<s> fruit
-4.177544	<s> gay
-3.559911	<s> giraffe
-3.585159	<s> giraffes
-3.652127	<s> great
-3.947224	<s> guy
-3.585159	<s> hard
-2.602443	<s> he	-0.03019456
-3.685559	<s> her
-4.186424	<s> hockey
-2.654581	<s> i	-0.06991936
-4.158907	<s> idiot
-2.771172	<s> if	-0.1419016
-2.215196	<s> in	-0.4212486
-4.186424	<s> incase
-4.139847	<s> insane
-4.186424	<s> inspectors
-3.158134	<s> is
-2.132064	<s> it	-0.5743304
-3.115954	<s> its	-0.09204058
-4.025714	<s> kites
-3.363183	<s> large
-3.601044	<s> lazy
-4.186424	<s> leader
-3.335985	<s> little	-0.1247736
-3.595685	<s> living	-0.2116237
-3.83224	<s> lonely
-4.071011	<s> long
-3.52234	<s> look
-3.436853	<s> looking
-2.997973	<s> looks	-0.4725769
-4.139847	<s> lots
-3.139527	<s> man	-0.09155547
-2.713843	<s> many	-0.07997607
-4.040294	<s> men
-3.654756	<s> miniature	-0.2116237
-4.071011	<s> mountain
-3.997944	<s> muddy
-4.139847	<s> multiple
-4.104066	<s> my
-3.541851	<s> near
-3.654756	<s> nine	-0.2116237
-3.574883	<s> no
-3.00887	<s> not	-0.0724745
-4.158907	<s> obama
-2.463678	<s> on	-0.5492849
-2.906381	<s> one	-0.05531779
-4.025714	<s> only
-3.59039	<s> other	-0.2116237
-4.186424	<s> oxen
-4.177544	<s> paved
-2.395891	<s> people	-0.198798
-4.087224	<s> permanent
-3.375841	<s> person	-0.1275208
-3.851007	<s> picture
-4.087224	<s> play
-4.139847	<s> polar
-3.935418	<s> poor
-4.186424	<s> rafael
-4.158907	<s> rail
-3.947224	<s> red
-4.186424	<s> renovating
-4.139847	<s> riders
-3.851007	<s> rotten
-4.186424	<s> s
-4.186424	<s> seven
-2.047507	<s> several	-0.2464882
-4.025714	<s> shallow
-4.087224	<s> she
-4.186424	<s> shoppers
-4.177544	<s> simple
-3.492947	<s> sitting
-4.186424	<s> six
-3.59039	<s> small
-4.158907	<s> soaring
-4.104066	<s> soccer
-4.177544	<s> solitary
-2.183417	<s> some	-0.1899242
-2.57376	<s> someone	-0.1383424
-3.912728	<s> stop
-3.617532	<s> stormy
-3.500407	<s> street
-1.874708	<s> stupid	-1.135911
-4.139847	<s> such
-4.177544	<s> surfers
-4.025714	<s> surfing
-4.040294	<s> taken
-4.025714	<s> terrible
-4.186424	<s> thanks
-2.429294	<s> that	-0.1106162
-0.9470336	<s> the	-0.3043262
-4.186424	<s> thee
-2.045852	<s> there	-0.8038051
-2.938006	<s> these	-0.05722926
-3.545438	<s> they
-1.836161	<s> this	-0.3007979
-3.182588	<s> those	-0.08761801
-2.113313	<s> three	-0.1541291
-3.660113	<s> through
-3.071587	<s> to
-4.087224	<s> today
-4.186424	<s> toddlers
-3.030068	<s> traffic	-0.2346614
-3.971844	<s> trying
-1.357082	<s> two	-0.344899
-3.296797	<s> ugly	-0.1229483
-3.756577	<s> under
-4.186424	<s> unfortunately
-4.177544	<s> vacation
-4.104066	<s> various
-4.139847	<s> we
-3.81425	<s> wearing
-3.912728	<s> weird
-2.531422	<s> what	-0.3359284
-3.923925	<s> where
-3.246316	<s> while	-0.1289029
-3.891165	<s> who
-2.897133	<s> with
-4.087224	<s> within
-3.901813	<s> woman
-3.997944	<s> yellow
-4.177544	<s> yet
-4.186424	<s> youd
-4.121588	<s> young
-4.055381	<s> zebras
-2.096742	a a
-3.529412	a abused	-0.2116237
-3.497665	a airplane
-3.793045	a airport
-3.884792	a albino
-2.714082	a an
-3.497665	a angry
-3.600852	a annoying
-3.793045	a awful
-3.238097	a baby
-3.408476	a backpack	-0.1202938
-1.809886	a bad	-0.6922551
-3.397833	a badly
-3.397833	a bag	-0.1239611
-3.853671	a bakery
-3.408476	a balcony	-0.08751807
-3.171553	a bald	-0.1228019
-3.100187	a ball
-3.884792	a bamboo
-3.152219	a banana
