
\data\
ngram 1=3411
ngram 2=18473
ngram 3=7828

\1-grams:
-4.104574	1	-0.1310384
-4.104574	18	-0.1310384
-4.104574	1some	-0.1310384
-3.211945	2	-0.2244739
-4.104574	20th	-0.1310384
-4.104574	25th	-0.1310384
-4.104574	2the	-0.1310384
-3.141399	3	-0.2542346
-4.104574	300	-0.1310384
-4.104574	4	-0.1310384
-4.104574	40s	-0.1310384
-4.104574	41	-0.1310384
-1.244794	</s>
-99	<s>	-1.307187
-1.707422	a	-0.475796
-3.978108	abandoned	-0.1310384
-3.897423	able	-0.3200621
-3.211945	about	-0.3687774
-3.141399	above	-0.412036
-4.104574	abroad	-0.1310384
-4.104574	absolutely	-0.1310384
-4.104574	absorbed	-0.1310384
-4.104574	abstract	-0.1310384
-4.104574	accented	-0.1310384
-4.104574	accents	-0.1310384
-4.104574	accompanies	-0.1310384
-4.104574	accurately	-0.1310384
-3.027502	across	-0.7434133
-3.897423	action	-0.2645558
-4.104574	active	-0.1310384
-4.104574	activities	-0.1310384
-4.104574	actual	-0.1310384
-3.978108	actually	-0.1310384
-4.104574	ad	-0.1310384
-4.104574	add	-0.1310384
-4.104574	added	-0.1310384
-4.104574	addresses	-0.1310384
-3.978108	adjacent	-0.2277061
-4.104574	adjus	-0.1310384
-4.104574	admirable	-0.1310384
-4.104574	admire	-0.1310384
-4.104574	admirer	-0.1310384
-4.104574	admiring	-0.1310384
-4.104574	adopts	-0.1310384
-3.080728	adorable	-0.3536357
-3.742862	adoring	-0.2645558
-4.104574	adorns	-0.1310384
-3.978108	adult	-0.1609324
-3.978108	adults	-0.1310384
-3.978108	advantage	-0.1310384
-4.104574	adventurous	-0.1310384
-3.978108	advertises	-0.1310384
-3.978108	advertising	-0.1310384
-4.104574	advise	-0.1310384
-3.978108	aerial	-0.1310384
-4.104574	african	-0.1310384
-3.296216	after	-0.2588179
-3.978108	afternoon	-0.1310384
-2.917465	against	-0.4970987
-4.104574	agape	-0.1310384
-4.104574	age	-0.1310384
-4.104574	ago	-0.1310384
-4.104574	agood	-0.1310384
-3.978108	ahead	-0.1310384
-3.3454	air	-0.1704546
-4.104574	aircraft	-0.1310384
-4.104574	airlines	-0.1310384
-3.53904	airplane	-0.1846135
-3.978108	airplanes	-0.1310384
-3.897423	airport	-0.1836197
-4.104574	airy	-0.1310384
-4.104574	alcohol	-0.1310384
-4.104574	alerts	-0.1310384
-2.980093	all	-0.2564107
-4.104574	allaround	-0.1310384
-3.978108	allowing	-0.2277061
-4.104574	allows	-0.1310384
-4.104574	ally	-0.1310384
-4.104574	almost	-0.1310384
-4.104574	aloft	-0.1310384
-4.104574	alon	-0.1310384
-4.104574	alone	-0.1310384
-2.78453	along	-0.6307098
-3.978108	alongside	-0.1310384
-3.53904	also	-0.1532638
-3.978108	although	-0.1310384
-3.3454	always	-0.1310384
-4.104574	am	-0.1310384
-2.718277	amazing	-0.373378
-4.104574	america	-0.1310384
-4.104574	american	-0.1310384
-4.104574	amid	-0.1310384
-3.897423	amidst	-0.1310384
-3.629102	among	-0.1310384
-4.104574	amount	-0.1310384
-4.104574	amounts	-0.1310384
-3.978108	amtrak	-0.1930372
-2.278249	an	-0.4499042
-4.104574	anchor	-0.1310384
-4.104574	anchords	-0.1310384
-3.978108	anchored	-0.1310384
-4.104574	ancient	-0.1310384
-1.696766	and	-0.3637925
-4.104574	angeles	-0.1310384
-3.978108	angle	-0.1310384
-3.53904	animal	-0.1691536
-3.53904	animals	-0.1573636
-3.897423	anime	-0.1310384
-3.141399	another	-0.1861778
-4.104574	answer	-0.1310384
-3.464485	antique	-0.1532638
-4.104574	anxiously	-0.1310384
-3.742862	any	-0.1310384
-4.104574	anyone	-0.1310384
-3.978108	apartment	-0.1310384
-4.104574	appealing	-0.1310384
-4.104574	appear	-0.1310384
-4.104574	appearing	-0.1310384
-3.629102	appears	-0.2343665
-4.104574	appetizing	-0.1310384
-3.629102	apple	-0.1853881
-3.742862	apples	-0.1713725
-3.629102	appliances	-0.1310384
-3.978108	appreciate	-0.1310384
-4.104574	appreciative	-0.1310384
-4.104574	approach	-0.1310384
-4.104574	approached	-0.1310384
-3.53904	approaches	-0.2324531
-3.897423	approaching	-0.1766882
-4.104574	appropriate	-0.1310384
-4.104574	apps	-0.1310384
-4.104574	apron	-0.1310384
-4.104574	arch	-0.1310384
-4.104574	arched	-0.1310384
-4.104574	architect	-0.1310384
-4.104574	archways	-0.1310384
-2.252271	are	-0.3371971
-2.799085	area	-0.3899752
-4.104574	areas	-0.1310384
-4.104574	arena	-0.1310384
-4.104574	arent	-0.1310384
-3.897423	arm	-0.1671663
-3.897423	arms	-0.1671662
-4.104574	aromatic	-0.1310384
-2.756805	around	-0.4315361
-4.104574	aroused	-0.1310384
-3.897423	arranged	-0.1930372
-4.104574	array	-0.1310384
-4.104574	arrive	-0.1310384
-4.104574	arrives	-0.1310384
-3.464485	art	-0.1532638
-4.104574	article	-0.1310384
-4.104574	artistically	-0.1310384
-4.104574	artists	-0.1310384
-4.104574	artwork	-0.1310384
-2.367048	as	-0.4606743
-4.104574	ascending	-0.1310384
-4.104574	asia	-0.1310384
-3.897423	asian	-0.1930372
-4.104574	asked	-0.1310384
-4.104574	asleep	-0.1310384
-4.104574	asparagus	-0.1310384
-4.104574	asparragus	-0.1310384
-3.978108	asphalt	-0.1310384
-4.104574	assembled	-0.1310384
-4.104574	assistance	-0.1310384
-3.978108	assisting	-0.1310384
-3.897423	assorted	-0.1310384
-3.978108	assortment	-0.2277061
-2.089464	at	-0.7070138
-3.978108	ate	-0.1310384
-3.978108	athlete	-0.1310384
-4.104574	athletic	-0.1310384
-4.104574	atm	-0.1310384
-4.104574	atmosphere	-0.1310384
-3.897423	atop	-0.3200621
-3.464485	attached	-0.4848535
-3.978108	attempting	-0.2277061
-4.104574	attempts	-0.1310384
-4.104574	attendance	-0.1310384
-3.978108	attending	-0.1310384
-4.104574	attention	-0.1310384
-4.104574	attire	-0.1310384
-3.897423	attractive	-0.2343665
-3.978108	audience	-0.1310384
-4.104574	aunt	-0.1310384
-4.104574	aunts	-0.1310384
-4.104574	autumn	-0.1310384
-3.978108	available	-0.1310384
-4.104574	average	-0.1310384
-3.978108	awaiting	-0.1310384
-3.25204	away	-0.3135477
-2.917465	awesome	-0.3687354
-4.104574	awning	-0.1310384
-4.104574	b	-0.1310384
-3.003151	baby	-0.2592014
-3.211945	back	-0.1988567
-3.742862	backdrop	-0.1671663
-4.104574	backdrops	-0.1310384
-3.400874	background	-0.3585874
-4.104574	backpack	-0.1310384
-4.104574	backs	-0.1310384
-4.104574	backyard	-0.1310384
-3.978108	bad	-0.1310384
-4.104574	badminton	-0.1310384
-3.629102	bag	-0.2022533
-3.978108	bagel	-0.1310384
-3.53904	bags	-0.3402852
-3.978108	bakery	-0.1310384
-4.104574	baking	-0.1310384
-3.978108	balances	-0.1310384
-3.978108	balancing	-0.1310384
-3.978108	balcony	-0.1310384
-4.104574	bald	-0.1310384
-3.25204	ball	-0.2739237
-3.742862	balls	-0.1766882
-4.104574	bamboo	-0.1310384
-3.629102	banana	-0.1487267
-3.25204	bananas	-0.277974
-4.104574	bandana	-0.1310384
-4.104574	bands	-0.1310384
-4.104574	bank	-0.1310384
-4.104574	banquet	-0.1310384
-3.742862	bar	-0.2645558
-4.104574	bare	-0.1310384
-4.104574	barn	-0.1310384
-4.104574	barracks	-0.1310384
-3.978108	base	-0.1310384
-3.141399	baseball	-0.1983895
-4.104574	basically	-0.1310384
-3.897423	basket	-0.1310384
-3.978108	basketball	-0.1930372
-4.104574	baskets	-0.1310384
-3.400874	bat	-0.2895409
-3.742862	bath	-0.2491258
-4.104574	bathed	-0.1310384
-4.104574	bathes	-0.1310384
-3.003151	bathroom	-0.2792267
-4.104574	bathrooms	-0.1310384
-4.104574	bathroomthe	-0.1310384
-3.629102	bathtub	-0.1930372
-3.978108	bats	-0.1310384
-3.978108	batter	-0.1310384
-3.978108	bay	-0.2277061
-3.141399	be	-0.220636
-3.0533	beach	-0.3582429
-3.978108	beak	-0.1310384
-3.978108	beanie	-0.2277061
-4.104574	beans	-0.1310384
-3.175241	bear	-0.2565495
-3.53904	bears	-0.1427502
-2.389515	beautiful	-0.3626435
-3.978108	beauty	-0.1310384
-3.3454	because	-0.207782
-3.897423	become	-0.1930372
-2.980093	bed	-0.393182
-3.464485	bedroom	-0.1994679
-3.629102	beds	-0.2343665
-3.978108	bedspread	-0.2277061
-3.978108	beef	-0.1930372
-3.742862	been	-0.1310384
-3.400874	beer	-0.2220499
-4.104574	beers	-0.1310384
-3.25204	before	-0.3309889
-4.104574	begginning	-0.1310384
-4.104574	begin	-0.1310384
-2.845931	behind	-0.5357882
-4.104574	beige	-0.1310384
-3.080728	being	-0.1693346
-4.104574	belied	-0.1310384
-3.978108	bell	-0.2277061
-4.104574	belong	-0.1310384
-3.53904	below	-0.1532637
-4.104574	belt	-0.1310384
-4.104574	ben	-0.1310384
-3.003151	bench	-0.3238375
-3.629102	benches	-0.251922
-3.978108	bend	-0.2277061
-3.978108	bending	-0.1310384
-4.104574	bends	-0.1310384
-3.53904	beneath	-0.1609324
-4.104574	bent	-0.1310384
-4.104574	berries	-0.1310384
-4.104574	beset	-0.1310384
-2.958198	beside	-0.6587294
-4.104574	besides	-0.1310384
-3.080728	best	-0.2174129
-3.978108	bet	-0.1310384
-3.175241	better	-0.2413055
-3.629102	between	-0.1766882
-3.897423	beverage	-0.1310384
-4.104574	beyond	-0.1310384
-3.742862	bicycle	-0.1532637
-3.629102	bicycles	-0.1310384
-4.104574	bicyclist	-0.1310384
-4.104574	bicyclists	-0.1310384
-3.141399	big	-0.1703643
-3.175241	bike	-0.258468
-3.978108	biker	-0.1310384
-4.104574	bikers	-0.1310384
-3.296216	bikes	-0.1487268
-4.104574	billiards	-0.1310384
-4.104574	billowing	-0.1310384
-3.978108	biplanes	-0.1310384
-3.080728	bird	-0.2566586
-2.980093	birds	-0.3224336
-3.629102	birthday	-0.1796366
-4.104574	biscuits	-0.1310384
-4.104574	bit	-0.1310384
-3.978108	bite	-0.1310384
-2.829747	black	-0.2643877
-4.104574	blackbird	-0.1310384
-3.53904	blanket	-0.2438387
-4.104574	blazer	-0.1310384
-4.104574	blazers	-0.1310384
-4.104574	blend	-0.1310384
-3.978108	blender	-0.1930372
-3.897423	blind	-0.1310384
-4.104574	blinded	-0.1310384
-4.104574	blindfolded	-0.1310384
-4.104574	blinds	-0.1310384
-4.104574	blistery	-0.1310384
-4.104574	block	-0.1310384
-3.978108	blocked	-0.1310384
-3.978108	blonde	-0.1310384
-4.104574	blow	-0.1310384
-4.104574	blowing	-0.1310384
-2.880227	blue	-0.2264401
-4.104574	blur	-0.1310384
-4.104574	blurred	-0.1310384
-3.0533	board	-0.2954187
-3.742862	boarder	-0.1766882
-4.104574	boarders	-0.1310384
-3.897423	boarding	-0.1310384
-3.742862	boards	-0.1766882
-4.104574	boardwalk	-0.1310384
-3.296216	boat	-0.2716736
-3.978108	boating	-0.1310384
-3.141399	boats	-0.2232602
-4.104574	bobs	-0.1310384
-3.897423	body	-0.1766882
-3.978108	bold	-0.1310384
-4.104574	boldly	-0.1310384
-3.3454	book	-0.2884291
-3.897423	books	-0.2065745
-3.978108	bookshelf	-0.2277061
-3.978108	boots	-0.1310384
-4.104574	borrowed	-0.1310384
-3.742862	both	-0.1310384
-3.897423	bottle	-0.1609324
-3.742862	bottles	-0.1310384
-3.978108	bottom	-0.1310384
-4.104574	bottomsup	-0.1310384
-4.104574	bouquet	-0.1310384
-3.464485	bowl	-0.247054
-3.978108	bowling	-0.1310384
-3.629102	bowls	-0.3135477
-3.464485	box	-0.1671663
-3.897423	boxes	-0.1310384
-3.3454	boy	-0.2222755
-3.53904	boys	-0.1470886
-3.897423	branch	-0.1310384
-4.104574	branched	-0.1310384
-4.104574	brand	-0.1310384
-4.104574	branding	-0.1310384
-3.978108	brave	-0.1310384
-3.400874	bread	-0.1713725
-3.742862	breakfast	-0.1671663
-4.104574	breeze	-0.1310384
-3.464485	brick	-0.2408606
-3.978108	bride	-0.2277061
-3.464485	bridge	-0.2448405
-3.400874	bright	-0.1389894
-3.53904	brightly	-0.1836197
-4.104574	brilliant	-0.1310384
-4.104574	brim	-0.1310384
-4.104574	bring	-0.1310384
-3.978108	bringing	-0.1310384
-3.897423	brings	-0.1310384
-4.104574	broadway	-0.1310384
-3.464485	broccoli	-0.1994679
-4.104574	broke	-0.1310384
-3.978108	broken	-0.1310384
-4.104574	brother	-0.1310384
-4.104574	brothers	-0.1310384
-4.104574	brought	-0.1310384
-4.104574	brow	-0.1310384
-3.080728	brown	-0.2105375
-4.104574	browns	-0.1310384
-4.104574	brushes	-0.1310384
-3.629102	brushing	-0.5419108
-4.104574	bucket	-0.1310384
-4.104574	buffalo	-0.1310384
-3.978108	buffet	-0.1310384
-2.880227	building	-0.3884258
-3.211945	buildings	-0.4953177
-4.104574	built	-0.1310384
-4.104574	bulbs	-0.1310384
-4.104574	bull	-0.1310384
-4.104574	bulldog	-0.1310384
-3.978108	bumper	-0.1310384
-3.897423	bun	-0.1766882
-3.978108	bunch	-0.2277061
-3.629102	bunches	-0.5419108
-4.104574	bunt	-0.1310384
-3.978108	burn	-0.1310384
-4.104574	burnt	-0.1310384
-4.104574	burrito	-0.1310384
-4.104574	bursting	-0.1310384
-2.814146	bus	-0.3435903
-3.25204	buses	-0.2018239
-4.104574	bush	-0.1310384
-4.104574	bushed	-0.1310384
-3.897423	bushes	-0.1930372
-3.464485	business	-0.1926862
-4.104574	businessman	-0.1310384
-4.104574	buss	-0.1310384
-4.104574	busses	-0.1310384
-4.104574	busted	-0.1310384
-2.980093	busy	-0.4511047
-2.898447	but	-0.3225727
-4.104574	butt	-0.1310384
-3.978108	butter	-0.1310384
-4.104574	butterfly	-0.1310384
-3.978108	buy	-0.1310384
-3.978108	buys	-0.1310384
-2.216005	by	-0.5374384
-4.104574	bye	-0.1310384
-4.104574	cabin	-0.1310384
-4.104574	cabinet	-0.1310384
-4.104574	cabinetry	-0.1310384
-3.53904	cabinets	-0.207782
-4.104574	caddy	-0.1310384
-3.978108	cafe	-0.2277061
-3.897423	cage	-0.3200621
-4.104574	cages	-0.1310384
-3.080728	cake	-0.3925941
-3.978108	cakes	-0.1310384
-3.978108	calf	-0.1310384
-4.104574	caliber	-0.1310384
-4.104574	calico	-0.1310384
-3.080728	calm	-0.4669226
-4.104574	calming	-0.1310384
-4.104574	calmly	-0.1310384
-3.978108	came	-0.1310384
-3.400874	camera	-0.2293766
-4.104574	cameras	-0.1310384
-4.104574	camouflage	-0.1310384
-4.104574	campers	-0.1310384
-2.898447	can	-0.2771615
-4.104574	candid	-0.1310384
-3.978108	candle	-0.1930372
-3.978108	candles	-0.1310384
-4.104574	canned	-0.1310384
-3.978108	canvas	-0.1310384
-4.104574	cap	-0.1310384
-4.104574	caped	-0.1310384
-4.104574	capped	-0.1310384
-3.978108	capture	-0.1310384
-3.742862	captured	-0.1671663
-3.978108	captures	-0.2277061
-3.027502	car	-0.2803148
-4.104574	caramel	-0.1310384
-3.978108	cards	-0.1310384
-4.104574	care	-0.1310384
-4.104574	cares	-0.1310384
-4.104574	caring	-0.1310384
-4.104574	carnival	-0.1310384
-3.742862	carpet	-0.2343665
-3.897423	carriage	-0.1310384
-4.104574	carriages	-0.1310384
-3.742862	carries	-0.1310384
-3.53904	carrots	-0.2324531
-4.104574	carry	-0.1310384
-3.3454	carrying	-0.3985479
-3.110005	cars	-0.3424124
-3.897423	cart	-0.1532637
-3.897423	carton	-0.1310384
-4.104574	cartoon	-0.1310384
-4.104574	carved	-0.1310384
-4.104574	cascade	-0.1310384
-3.629102	case	-0.2343665
-4.104574	cases	-0.1310384
-3.897423	cast	-0.1310384
-3.978108	casting	-0.2277061
-3.027502	cat	-0.3440067
-3.897423	catch	-0.1671662
-4.104574	catchers	-0.1310384
-3.742862	catches	-0.2645558
-3.978108	catching	-0.1310384
-4.104574	cate	-0.1310384
-3.629102	cats	-0.1310384
-3.897423	cattle	-0.1310384
-3.897423	caught	-0.1930372
-3.978108	cauliflower	-0.1310384
-4.104574	ceiling	-0.1310384
-3.629102	cell	-0.3614658
-4.104574	cello	-0.1310384
-3.978108	cellphone	-0.1310384
-3.978108	cement	-0.1310384
-3.897423	center	-0.1671663
-4.104574	centering	-0.1310384
-4.104574	century	-0.1310384
-4.104574	ceramic	-0.1310384
-4.104574	certainly	-0.1310384
-3.978108	chain	-0.1310384
-3.0533	chair	-0.3078971
-3.175241	chairs	-0.2296136
-4.104574	championship	-0.1310384
-4.104574	chance	-0.1310384
-4.104574	change	-0.1310384
-4.104574	changes	-0.1310384
-4.104574	channels	-0.1310384
-3.897423	characters	-0.1310384
-4.104574	charge	-0.1310384
-4.104574	charm	-0.1310384
-3.3454	charming	-0.331507
-4.104574	chase	-0.1310384
-4.104574	chases	-0.1310384
-3.978108	chasing	-0.2277061
-4.104574	chat	-0.1310384
-3.897423	checkered	-0.1930372
-4.104574	checking	-0.1310384
-4.104574	cheered	-0.1310384
-3.978108	cheerful	-0.2277061
-3.978108	cheers	-0.1310384
-3.742862	cheese	-0.3614658
-4.104574	cheeseburger	-0.1310384
-4.104574	cheesy	-0.1310384
-4.104574	cheetah	-0.1310384
-3.978108	chef	-0.1310384
-4.104574	chefs	-0.1310384
-3.978108	chicken	-0.1310384
-3.175241	child	-0.2530051
-4.104574	childhood	-0.1310384
-3.175241	children	-0.2879478
-4.104574	childrens	-0.1310384
-3.742862	childs	-0.1766882
-4.104574	chill	-0.1310384
-4.104574	chimes	-0.1310384
-4.104574	chin	-0.1310384
-4.104574	china	-0.1310384
-4.104574	chinese	-0.1310384
-4.104574	chip	-0.1310384
-3.897423	chips	-0.1930372
-4.104574	choclolate	-0.1310384
-3.742862	chocolate	-0.2065745
-4.104574	choice	-0.1310384
-4.104574	choices	-0.1310384
-4.104574	choose	-0.1310384
-4.104574	chooses	-0.1310384
-3.978108	chopped	-0.1310384
-4.104574	chops	-0.1310384
-4.104574	chose	-0.1310384
-3.978108	christmas	-0.1310384
-3.897423	chubby	-0.3200621
-4.104574	chunk	-0.1310384
-3.464485	church	-0.1930372
-4.104574	cigarette	-0.1310384
-4.104574	circus	-0.1310384
-4.104574	cirty	-0.1310384
-4.104574	citrus	-0.1310384
-2.78453	city	-0.3730436
-4.104574	citys	-0.1310384
-4.104574	cityscape	-0.1310384
-4.104574	clad	-0.1310384
-3.978108	class	-0.1310384
-4.104574	classroom	-0.1310384
-3.978108	clay	-0.1310384
-3.296216	clean	-0.1988568
-4.104574	cleaned	-0.1310384
-4.104574	cleans	-0.1310384
-2.980093	clear	-0.3702114
-4.104574	climb	-0.1310384
-4.104574	climbing	-0.1310384
-3.978108	climbs	-0.1310384
-4.104574	clinging	-0.1310384
-2.799085	clock	-0.3767252
-3.464485	clocks	-0.2184036
-4.104574	clocktower	-0.1310384
-3.400874	close	-0.1532638
-3.978108	closed	-0.1310384
-4.104574	closer	-0.1310384
-3.897423	cloth	-0.1310384
-3.742862	clothes	-0.2645558
-3.897423	clothing	-0.1310384
-4.104574	clouds	-0.1310384
-4.104574	cloudy	-0.1310384
-4.104574	clowns	-0.1310384
-4.104574	clutches	-0.1310384
-4.104574	clutter	-0.1310384
-3.897423	cluttered	-0.1310384
-4.104574	coach	-0.1310384
-3.897423	coat	-0.1310384
-3.978108	cobbler	-0.2277061
-4.104574	coca	-0.1310384
-3.296216	coffee	-0.2303494
-4.104574	cognac	-0.1310384
-4.104574	cola	-0.1310384
-3.742862	cold	-0.1310384
-4.104574	coleslaw	-0.1310384
-4.104574	collage	-0.1310384
-3.53904	collection	-0.2022534
-3.897423	college	-0.1766882
-3.211945	color	-0.2300772
-3.400874	colored	-0.1310384
-3.400874	colorful	-0.1593066
-3.3454	colors	-0.2202482
-4.104574	colour	-0.1310384
-3.978108	colt	-0.1310384
-3.897423	combination	-0.1930372
-4.104574	combs	-0.1310384
-3.897423	come	-0.1310384
-3.978108	comes	-0.1310384
-3.978108	comfortable	-0.1310384
-4.104574	comfortably	-0.1310384
-4.104574	comforter	-0.1310384
-3.978108	comfy	-0.1310384
-3.53904	coming	-0.2438387
-4.104574	comment	-0.1310384
-3.897423	commercial	-0.1671663
-4.104574	commericial	-0.1310384
-3.978108	community	-0.1310384
-3.897423	commuter	-0.1766882
-4.104574	commuters	-0.1310384
-4.104574	companion	-0.1310384
-3.742862	company	-0.1671662
-4.104574	compass	-0.1310384
-4.104574	compete	-0.1310384
-3.897423	competition	-0.3200621
-4.104574	competitive	-0.1310384
-4.104574	competitor	-0.1310384
-4.104574	competitors	-0.1310384
-3.897423	complete	-0.3200621
-4.104574	completely	-0.1310384
-4.104574	compliment	-0.1310384
-4.104574	component	-0.1310384
-4.104574	composition	-0.1310384
-4.104574	compute	-0.1310384
-3.296216	computer	-0.2432165
-3.742862	computers	-0.1766882
-4.104574	concealed	-0.1310384
-3.897423	concrete	-0.1310384
-3.742862	condiments	-0.1609324
-4.104574	condition	-0.1310384
-4.104574	conditioning	-0.1310384
-4.104574	conducting	-0.1310384
-3.978108	cone	-0.1310384
-4.104574	cones	-0.1310384
-4.104574	conference	-0.1310384
-4.104574	confusing	-0.1310384
-4.104574	congratulate	-0.1310384
-4.104574	consequence	-0.1310384
-4.104574	considered	-0.1310384
-4.104574	consisted	-0.1310384
-3.742862	consisting	-0.4450008
-3.742862	consists	-0.4450008
-4.104574	consumed	-0.1310384
-4.104574	consumes	-0.1310384
-4.104574	contain	-0.1310384
-3.629102	container	-0.1609323
-3.897423	containers	-0.1310384
-3.53904	containing	-0.1310384
-3.464485	contains	-0.2602453
-4.104574	contemplates	-0.1310384
-4.104574	content	-0.1310384
-4.104574	contrail	-0.1310384
-3.897423	control	-0.1310384
-3.978108	controller	-0.1310384
-3.978108	controllers	-0.1310384
-4.104574	controls	-0.1310384
-4.104574	converted	-0.1310384
-4.104574	convex	-0.1310384
-4.104574	conveyor	-0.1310384
-4.104574	cook	-0.1310384
-3.897423	cooked	-0.1930372
-3.629102	cookies	-0.1609324
-3.629102	cooking	-0.1310384
-3.978108	cooks	-0.1310384
-3.464485	cool	-0.1310384
-4.104574	coolest	-0.1310384
-4.104574	cooperate	-0.1310384
-4.104574	cop	-0.1310384
-4.104574	cords	-0.1310384
-4.104574	corked	-0.1310384
-3.464485	corner	-0.2653325
-4.104574	costumes	-0.1310384
-4.104574	cotton	-0.1310384
-3.175241	couch	-0.2863606
-4.104574	couchdd	-0.1310384
-3.742862	couches	-0.4450008
-3.464485	could	-0.2022533
-3.53904	counter	-0.2176956
-4.104574	countertops	-0.1310384
-3.464485	country	-0.2127755
-3.978108	countryside	-0.2277061
-4.104574	county	-0.1310384
-3.464485	couple	-0.2066972
-3.978108	course	-0.2277061
-3.296216	court	-0.3114113
-4.104574	courtyard	-0.1310384
-4.104574	cover	-0.1310384
-3.080728	covered	-0.2488212
-3.978108	covering	-0.1310384
-3.897423	covers	-0.1310384
-3.400874	cow	-0.1487268
-3.978108	cowboy	-0.1310384
-4.104574	cowboys	-0.1310384
-3.211945	cows	-0.2301601
-4.104574	cozy	-0.1310384
-3.742862	craft	-0.1766882
-4.104574	crafting	-0.1310384
-4.104574	crafts	-0.1310384
-4.104574	crammed	-0.1310384
-4.104574	crashed	-0.1310384
-4.104574	crate	-0.1310384
-4.104574	crates	-0.1310384
-4.104574	crawling	-0.1310384
-3.897423	cream	-0.1310384
-4.104574	creamer	-0.1310384
-4.104574	creamy	-0.1310384
-4.104574	created	-0.1310384
-3.629102	creates	-0.2343665
-4.104574	creating	-0.1310384
-4.104574	crepes	-0.1310384
-4.104574	crescia	-0.1310384
-4.104574	crest	-0.1310384
-4.104574	crested	-0.1310384
-4.104574	crisp	-0.1310384
-4.104574	crop	-0.1310384
-3.53904	cross	-0.1565337
-4.104574	crossed	-0.1310384
-3.978108	crosses	-0.1310384
-3.400874	crossing	-0.5215645
-3.978108	crosswalk	-0.1766882
-4.104574	crouches	-0.1310384
-4.104574	crouching	-0.1310384
-3.3454	crowd	-0.2854586
-3.978108	crowded	-0.1310384
-3.978108	cruise	-0.1310384
-4.104574	cruises	-0.1310384
-4.104574	crumbs	-0.1310384
-3.978108	crystal	-0.1310384
-4.104574	cub	-0.1310384
-4.104574	cuddled	-0.1310384
-4.104574	cuddles	-0.1310384
-3.464485	cuddly	-0.3153136
-4.104574	cue	-0.1310384
-4.104574	culminates	-0.1310384
-3.53904	cup	-0.2501086
-4.104574	cupboards	-0.1310384
-4.104574	cupcake	-0.1310384
-3.897423	cupcakes	-0.1310384
-3.978108	cups	-0.2277061
-3.978108	curb	-0.1310384
-4.104574	curbside	-0.1310384
-3.978108	curious	-0.2277061
-3.978108	curled	-0.2277061
-3.978108	currently	-0.1310384
-3.978108	curtain	-0.2277061
-4.104574	curtained	-0.1310384
-3.742862	curtains	-0.1766882
-4.104574	cushion	-0.1310384
-3.978108	customers	-0.1310384
-3.464485	cut	-0.1532637
-3.211945	cute	-0.2303494
-3.978108	cuts	-0.1310384
-4.104574	cutter	-0.1310384
-3.400874	cutting	-0.2491258
-4.104574	cycle	-0.1310384
-4.104574	cylindrical	-0.1310384
-4.104574	dad	-0.1310384
-4.104574	dads	-0.1310384
-4.104574	daily	-0.1310384
-4.104574	daisies	-0.1310384
-4.104574	damaged	-0.1310384
-4.104574	dame	-0.1310384
-4.104574	dance	-0.1310384
-4.104574	dancing	-0.1310384
-4.104574	daring	-0.1310384
-3.53904	dark	-0.1532638
-3.978108	date	-0.1310384
-4.104574	daughter	-0.1310384
-3.978108	david	-0.1310384
-2.682891	day	-0.5229055
-4.104574	daylight	-0.1310384
-4.104574	days	-0.1310384
-4.104574	daytime	-0.1310384
-3.978108	dead	-0.1310384
-4.104574	dear	-0.1310384
-4.104574	decay	-0.1310384
-4.104574	deceased	-0.1310384
-4.104574	decent	-0.1310384
-3.978108	decided	-0.2277061
-4.104574	deciding	-0.1310384
-4.104574	decisions	-0.1310384
-3.742862	deck	-0.2343665
-4.104574	decker	-0.1310384
-3.897423	decor	-0.1310384
-3.978108	decorate	-0.1310384
-3.110005	decorated	-0.3553163
-4.104574	decorates	-0.1310384
-3.978108	decorations	-0.1310384
-4.104574	decorative	-0.1310384
-4.104574	deed	-0.1310384
-4.104574	deep	-0.1310384
-4.104574	deer	-0.1310384
-4.104574	defining	-0.1310384
-4.104574	definitely	-0.1310384
-4.104574	deftly	-0.1310384
-4.104574	deli	-0.1310384
-3.003151	delicious	-0.3681937
-4.104574	deliver	-0.1310384
-4.104574	delivers	-0.1310384
-4.104574	delivery	-0.1310384
-4.104574	depicted	-0.1310384
-4.104574	depicting	-0.1310384
-4.104574	depiction	-0.1310384
-3.978108	depicts	-0.1310384
-4.104574	describes	-0.1310384
-4.104574	describing	-0.1310384
-4.104574	desert	-0.1310384
-3.978108	deserted	-0.1310384
-3.53904	design	-0.1926862
-4.104574	designed	-0.1310384
-3.25204	desk	-0.3041587
-4.104574	desks	-0.1310384
-3.897423	despite	-0.2645558
-3.897423	dessert	-0.1766882
-3.897423	destination	-0.1310384
-3.978108	destinations	-0.2277061
-4.104574	details	-0.1310384
-4.104574	determined	-0.1310384
-3.978108	device	-0.2277061
-4.104574	devices	-0.1310384
-4.104574	diagonal	-0.1310384
-3.978108	did	-0.1310384
-4.104574	didnt	-0.1310384
-4.104574	diet	-0.1310384
-3.25204	different	-0.1803954
-4.104574	differently	-0.1310384
-4.104574	difficult	-0.1310384
-4.104574	dig	-0.1310384
-4.104574	digs	-0.1310384
-4.104574	dim	-0.1310384
-3.978108	dimly	-0.2277061
-4.104574	dine	-0.1310384
-4.104574	diner	-0.1310384
-4.104574	dinette	-0.1310384
-3.400874	dining	-0.1713725
-3.296216	dinner	-0.2244739
-4.104574	dinning	-0.1310384
-3.978108	directions	-0.1310384
-3.978108	directly	-0.1310384
-4.104574	directs	-0.1310384
-3.3454	dirt	-0.1713725
-4.104574	dirty	-0.1310384
-3.897423	disc	-0.1310384
-4.104574	discolored	-0.1310384
-4.104574	disembark	-0.1310384
-3.897423	dish	-0.1310384
-3.897423	dishwasher	-0.1930372
-4.104574	disk	-0.1310384
-3.464485	display	-0.2472308
-3.742862	displayed	-0.1930372
-3.978108	displaying	-0.1310384
-3.978108	displays	-0.1310384
-3.897423	distance	-0.1310384
-4.104574	distant	-0.1310384
-4.104574	distinctive	-0.1310384
-4.104574	district	-0.1310384
-4.104574	dive	-0.1310384
-3.978108	dives	-0.2277061
-3.978108	divine	-0.2277061
-3.978108	diving	-0.1930372
-3.742862	do	-0.1310384
-3.53904	dock	-0.2022533
-3.978108	docked	-0.1310384
-4.104574	docks	-0.1310384
-3.110005	does	-0.2254363
-3.978108	doesnt	-0.1310384
-2.880227	dog	-0.3321707
-3.3454	dogs	-0.1810863
-3.25204	doing	-0.2865742
-3.897423	doll	-0.1930372
-3.978108	done	-0.2277061
-4.104574	donkey	-0.1310384
-4.104574	dont	-0.1310384
-3.897423	donut	-0.1310384
-3.629102	donuts	-0.1749869
-3.464485	door	-0.2535395
-4.104574	doors	-0.1310384
-4.104574	doorstep	-0.1310384
-3.978108	doorway	-0.1766882
-4.104574	dot	-0.1310384
-4.104574	dotted	-0.1310384
-3.464485	double	-0.3571553
-4.104574	doubledecker	-0.1310384
-3.978108	doughnut	-0.2277061
-2.413208	down	-0.6308317
-4.104574	downtown	-0.1310384
-4.104574	dozens	-0.1310384
-4.104574	draft	-0.1310384
-4.104574	dragging	-0.1310384
-4.104574	drainer	-0.1310384
-4.104574	drawer	-0.1310384
-3.978108	drawn	-0.1310384
-4.104574	dreamt	-0.1310384
-4.104574	dreamy	-0.1310384
-3.25204	dress	-0.2210293
-4.104574	dressage	-0.1310384
-3.296216	dressed	-0.200114
-3.978108	dresser	-0.1310384
-4.104574	drew	-0.1310384
-4.104574	dried	-0.1310384
-4.104574	dries	-0.1310384
-4.104574	drift	-0.1310384
-3.296216	drink	-0.2565071
-3.629102	drinking	-0.1310384
-3.897423	drinks	-0.1930372
-3.742862	drive	-0.1671663
-4.104574	driver	-0.1310384
-3.742862	drivers	-0.1310384
-3.742862	drives	-0.1994679
-4.104574	driveway	-0.1310384
-3.141399	driving	-0.3606191
-4.104574	drizzle	-0.1310384
-4.104574	drought	-0.1310384
-3.978108	dryer	-0.1930372
-4.104574	ducking	-0.1310384
-4.104574	ducks	-0.1310384
-4.104574	dude	-0.1310384
-4.104574	due	-0.1310384
-2.829747	during	-0.6454298
-3.978108	dusk	-0.1930372
-4.104574	dust	-0.1310384
-3.978108	dusting	-0.1310384
-4.104574	dyed	-0.1310384
-3.175241	each	-0.3257647
-3.978108	eagle	-0.1310384
-4.104574	ear	-0.1310384
-4.104574	early	-0.1310384
-4.104574	ears	-0.1310384
-4.104574	earth	-0.1310384
-4.104574	easier	-0.1310384
-3.978108	easily	-0.1310384
-3.978108	easy	-0.1310384
-3.742862	eat	-0.1487268
-3.978108	eaten	-0.1310384
-2.814146	eating	-0.3512101
-3.629102	eats	-0.1671663
-4.104574	eclectic	-0.1310384
-4.104574	edge	-0.1310384
-4.104574	effect	-0.1310384
-4.104574	effective	-0.1310384
-4.104574	efficient	-0.1310384
-4.104574	effortlessly	-0.1310384
-3.742862	eggs	-0.1671662
-3.978108	egyptian	-0.1310384
-4.104574	eiffel	-0.1310384
-4.104574	elaborate	-0.1310384
-3.897423	elderly	-0.1930372
-3.897423	electronic	-0.1930372
-3.978108	electronics	-0.1310384
-3.629102	elegant	-0.1766882
-4.104574	elegantly	-0.1310384
-3.978108	elementary	-0.1310384
-4.104574	elements	-0.1310384
-3.141399	elephant	-0.2891153
-3.0533	elephants	-0.2501481
-4.104574	emanates	-0.1310384
-4.104574	emitting	-0.1310384
-3.53904	empty	-0.1457282
-4.104574	en	-0.1310384
-4.104574	enamored	-0.1310384
-4.104574	enchanted	-0.1310384
-3.978108	enclosed	-0.1310384
-3.464485	enclosure	-0.2113372
-4.104574	enclousure	-0.1310384
-3.978108	encounters	-0.1310384
-3.742862	end	-0.1310384
-4.104574	ends	-0.1310384
-4.104574	enforcement	-0.1310384
-4.104574	engine	-0.1310384
-4.104574	england	-0.1310384
-4.104574	enhanced	-0.1310384
-3.400874	enjoy	-0.2388207
-3.629102	enjoyed	-0.1310384
-2.917465	enjoying	-0.4097023
-3.53904	enjoys	-0.1310384
-3.978108	enough	-0.1310384
-4.104574	enter	-0.1310384
-4.104574	entered	-0.1310384
-4.104574	enters	-0.1310384
-4.104574	entertained	-0.1310384
-3.978108	entertaining	-0.1310384
-3.978108	entertainment	-0.1310384
-4.104574	entertains	-0.1310384
-4.104574	enthusiastically	-0.1310384
-4.104574	entrance	-0.1310384
-4.104574	eock	-0.1310384
-4.104574	equal	-0.1310384
-3.978108	equals	-0.1310384
-4.104574	equestrian	-0.1310384
-3.897423	equipment	-0.1930372
-3.897423	equipped	-0.3200621
-4.104574	era	-0.1310384
-3.978108	especially	-0.1310384
-4.104574	estate	-0.1310384
-4.104574	etc	-0.1310384
-4.104574	ethic	-0.1310384
-4.104574	europe	-0.1310384
-3.629102	even	-0.1310384
-4.104574	evening	-0.1310384
-3.464485	event	-0.3113978
-3.629102	ever	-0.1671663
-3.629102	every	-0.1310384
-4.104574	everyday	-0.1310384
-3.978108	everyone	-0.1310384
-4.104574	examines	-0.1310384
-4.104574	example	-0.1310384
-3.25204	excellent	-0.2610527
-3.464485	excited	-0.3185439
-3.897423	exciting	-0.1671663
-4.104574	expanse	-0.1310384
-4.104574	expansive	-0.1310384
-4.104574	expect	-0.1310384
-3.464485	expensive	-0.2562445
-4.104574	expertly	-0.1310384
-4.104574	explaining	-0.1310384
-3.978108	exploring	-0.1310384
-4.104574	expression	-0.1310384
-4.104574	extend	-0.1310384
-4.104574	extended	-0.1310384
-4.104574	extinguisher	-0.1310384
-4.104574	extravagant	-0.1310384
-4.104574	extreme	-0.1310384
-4.104574	exudes	-0.1310384
-3.978108	eye	-0.1310384
-3.978108	eyed	-0.1310384
-3.464485	eyes	-0.1310384
-4.104574	fabric	-0.1310384
-2.937354	face	-0.3492379
-3.742862	faces	-0.1671663
-4.104574	facet	-0.1310384
-3.978108	facilities	-0.1310384
-3.53904	facing	-0.251922
-4.104574	fact	-0.1310384
-4.104574	fair	-0.1310384
-4.104574	fairly	-0.1310384
-3.978108	faithful	-0.2277061
-4.104574	fake	-0.1310384
-4.104574	falcon	-0.1310384
-4.104574	falling	-0.1310384
-3.978108	falls	-0.1310384
-3.978108	families	-0.1310384
-3.296216	family	-0.1712452
-4.104574	famous	-0.1310384
-3.742862	fan	-0.1609324
-3.978108	fancy	-0.1310384
-3.897423	fans	-0.1930372
-3.296216	fantastic	-0.288152
-3.978108	far	-0.1310384
-3.742862	farm	-0.1310384
-4.104574	farmers	-0.1310384
-4.104574	fashionable	-0.1310384
-4.104574	fashioned	-0.1310384
-3.629102	fast	-0.2065745
-3.897423	father	-0.1310384
-4.104574	faucet	-0.1310384
-3.296216	favorite	-0.3339848
-4.104574	feast	-0.1310384
-3.978108	feathers	-0.1310384
-4.104574	feature	-0.1310384
-3.897423	features	-0.1310384
-3.742862	featuring	-0.1766882
-4.104574	fed	-0.1310384
-3.897423	fedex	-0.3200621
-4.104574	fedoras	-0.1310384
-4.104574	feeder	-0.1310384
-3.742862	feeding	-0.1310384
-4.104574	feeds	-0.1310384
-3.978108	feel	-0.1310384
-4.104574	feeling	-0.1310384
-3.978108	feet	-0.1310384
-4.104574	feild	-0.1310384
-4.104574	fell	-0.1310384
-4.104574	fellow	-0.1310384
-3.742862	female	-0.1310384
-3.742862	fence	-0.1766882
-3.742862	fenced	-0.2822933
-4.104574	fencepost	-0.1310384
-4.104574	festooned	-0.1310384
-4.104574	fetch	-0.1310384
-3.978108	few	-0.1310384
-4.104574	fied	-0.1310384
-3.110005	field	-0.3052962
-3.978108	fields	-0.1930372
-3.978108	fight	-0.1310384
-3.742862	fighter	-0.1766882
-4.104574	file	-0.1310384
-3.978108	fill	-0.1310384
-2.743579	filled	-1.066875
-4.104574	filming	-0.1310384
-4.104574	finally	-0.1310384
-3.978108	find	-0.1310384
-4.104574	finding	-0.1310384
-3.175241	fine	-0.4514943
-3.978108	finish	-0.1310384
-4.104574	finished	-0.1310384
-3.110005	fire	-0.4115606
-3.978108	fireplace	-0.1766882
-4.104574	firetrucks	-0.1310384
-3.978108	first	-0.1310384
-3.53904	fish	-0.2343665
-3.978108	fishing	-0.1310384
-3.978108	fit	-0.1310384
-4.104574	fits	-0.1310384
-4.104574	fitted	-0.1310384
-3.742862	five	-0.1310384
-4.104574	fixed	-0.1310384
-3.978108	fixing	-0.2277061
-4.104574	fixtures	-0.1310384
-3.742862	flag	-0.1310384
-4.104574	flagpole	-0.1310384
-4.104574	flagraising	-0.1310384
-4.104574	flame	-0.1310384
-4.104574	flanks	-0.1310384
-4.104574	flat	-0.1310384
-4.104574	flawless	-0.1310384
-4.104574	flea	-0.1310384
-4.104574	flew	-0.1310384
-3.464485	flies	-0.1766882
-3.978108	flight	-0.1310384
-4.104574	flip	-0.1310384
-3.978108	float	-0.1310384
-3.978108	floating	-0.1930372
-4.104574	floats	-0.1310384
-3.978108	flock	-0.2277061
-4.104574	flood	-0.1310384
-4.104574	floodwater	-0.1310384
-3.53904	floor	-0.3327207
-3.978108	flooring	-0.1310384
-3.897423	floors	-0.2645558
-4.104574	floppy	-0.1310384
-3.897423	floral	-0.1930372
-4.104574	florida	-0.1310384
-4.104574	flourishing	-0.1310384
-3.53904	flower	-0.2136308
-4.104574	flowered	-0.1310384
-3.141399	flowers	-0.2601658
-4.104574	flown	-0.1310384
-4.104574	flows	-0.1310384
-4.104574	fluffy	-0.1310384
-4.104574	flush	-0.1310384
-4.104574	flushing	-0.1310384
-3.53904	fly	-0.2022533
-2.980093	flying	-0.4318808
-4.104574	flys	-0.1310384
-4.104574	focal	-0.1310384
-3.978108	focus	-0.2277061
-4.104574	focusing	-0.1310384
-4.104574	fog	-0.1310384
-4.104574	foggy	-0.1310384
-4.104574	foil	-0.1310384
-3.978108	folded	-0.1310384
-4.104574	foliage	-0.1310384
-4.104574	follow	-0.1310384
-4.104574	followed	-0.1310384
-3.978108	following	-0.1310384
-2.756805	food	-0.4127627
-4.104574	foodit	-0.1310384
-3.629102	foods	-0.251922
-3.978108	foot	-0.1310384
-3.978108	football	-0.1310384
-4.104574	footbridge	-0.1310384
-2.193408	for	-0.4083549
-4.104574	forecasters	-0.1310384
-4.104574	foreground	-0.1310384
-3.978108	forehead	-0.1310384
-4.104574	foreign	-0.1310384
-3.897423	forest	-0.1609324
-4.104574	forested	-0.1310384
-4.104574	fork	-0.1310384
-4.104574	form	-0.1310384
-3.978108	formal	-0.1310384
-3.978108	formally	-0.2277061
-3.897423	formation	-0.1310384
-3.978108	forms	-0.1310384
-4.104574	forth	-0.1310384
-3.978108	found	-0.1671663
-4.104574	fountain	-0.1310384
-3.629102	four	-0.1310384
-3.978108	foxs	-0.2277061
-3.897423	frame	-0.1310384
-4.104574	framing	-0.1310384
-4.104574	france	-0.1310384
-3.296216	free	-0.4785879
-4.104574	freezer	-0.1310384
-4.104574	freight	-0.1310384
-3.400874	french	-0.5655858
-3.897423	fresh	-0.1609324
-3.629102	fridge	-0.1766882
-3.897423	fried	-0.1310384
-3.400874	friend	-0.1637549
-3.53904	friendly	-0.2566586
-3.3454	friends	-0.1979754
-3.742862	fries	-0.1853881
-3.175241	frisbee	-0.3427292
-3.897423	frisbees	-0.1310384
-3.978108	fro	-0.1310384
-4.104574	frolic	-0.1310384
-2.471774	from	-0.5258068
-3.3454	front	-0.1679293
-4.104574	frosted	-0.1310384
-3.978108	frosting	-0.1310384
-4.104574	frozen	-0.1310384
-3.175241	fruit	-0.2686203
-3.742862	fruits	-0.3135477
-4.104574	fryer	-0.1310384
-2.958198	full	-0.7796179
-3.978108	fully	-0.1310384
-3.629102	fun	-0.1310384
-3.3454	funny	-0.2500559
-4.104574	furnished	-0.1310384
-3.141399	furniture	-0.3409795
-4.104574	futuristic	-0.1310384
-3.027502	game	-0.425653
-3.978108	games	-0.1310384
-4.104574	garbage	-0.1310384
-3.3454	garden	-0.2475376
-4.104574	gardener	-0.1310384
-4.104574	gardening	-0.1310384
-4.104574	garment	-0.1310384
-4.104574	gas	-0.1310384
-4.104574	gate	-0.1310384
-4.104574	gather	-0.1310384
-3.53904	gathered	-0.2786492
-4.104574	gathering	-0.1310384
-4.104574	gathers	-0.1310384
-4.104574	gaze	-0.1310384
-4.104574	gazes	-0.1310384
-3.978108	gazing	-0.1310384
-3.53904	gear	-0.1565337
-4.104574	geese	-0.1310384
-3.742862	gentle	-0.251922
-4.104574	gently	-0.1310384
-4.104574	german	-0.1310384
-4.104574	gestures	-0.1310384
-3.742862	get	-0.1310384
-3.629102	gets	-0.2343665
-3.175241	getting	-0.3455959
-3.978108	giant	-0.1310384
-3.978108	gift	-0.1310384
-4.104574	gifts	-0.1310384
-4.104574	gigantic	-0.1310384
-3.978108	ginger	-0.2277061
-3.080728	giraffe	-0.2545295
-3.0533	giraffes	-0.2447325
-3.027502	girl	-0.2783194
-3.400874	girls	-0.1487267
-3.742862	give	-0.1766882
-3.897423	given	-0.1310384
-3.53904	gives	-0.2153465
-3.742862	giving	-0.1766882
-4.104574	glancing	-0.1310384
-3.742862	glass	-0.1637549
-3.400874	glasses	-0.2073504
-4.104574	glassing	-0.1310384
-4.104574	gleams	-0.1310384
-3.978108	gliding	-0.1310384
-4.104574	glittering	-0.1310384
-3.897423	glove	-0.1609323
-3.897423	glowing	-0.1930372
-4.104574	glue	-0.1310384
-4.104574	gnawing	-0.1310384
-3.464485	go	-0.1445804
-4.104574	goal	-0.1310384
-3.897423	goat	-0.1310384
-4.104574	goats	-0.1310384
-4.104574	god	-0.1310384
-3.296216	goes	-0.1671663
-3.296216	going	-0.3185439
-3.978108	gold	-0.1310384
-4.104574	golden	-0.1310384
-4.104574	golf	-0.1310384
-3.978108	gone	-0.1310384
-2.619747	good	-0.2752035
-4.104574	goodness	-0.1310384
-3.211945	gorgeous	-0.2552322
-3.897423	got	-0.1310384
-4.104574	gourmet	-0.1310384
-3.978108	grab	-0.1310384
-4.104574	grabs	-0.1310384
-3.742862	graceful	-0.2277061
-4.104574	graduation	-0.1310384
-3.464485	graffiti	-0.1565337
-4.104574	graffitied	-0.1310384
-3.897423	grandfather	-0.3200621
-4.104574	grandma	-0.1310384
-4.104574	grandparents	-0.1310384
-4.104574	grandson	-0.1310384
-3.978108	granola	-0.2277061
-4.104574	grapes	-0.1310384
-3.0533	grass	-0.2490895
-4.104574	grasses	-0.1310384
-3.464485	grassy	-0.2170908
-3.978108	gravel	-0.1310384
-3.897423	gray	-0.1310384
-3.53904	graze	-0.1766882
-3.897423	grazes	-0.2645558
-3.25204	grazing	-0.5012984
-4.104574	grazying	-0.1310384
-4.104574	grean	-0.1310384
-2.539489	great	-0.2751598
-4.104574	greater	-0.1310384
-3.110005	green	-0.160364
-4.104574	greens	-0.1310384
-4.104574	greeting	-0.1310384
-3.978108	grey	-0.1310384
-4.104574	grocery	-0.1310384
-4.104574	groom	-0.1310384
-3.742862	ground	-0.1749869
-3.296216	group	-0.4710987
-4.104574	grouped	-0.1310384
-4.104574	groups	-0.1310384
-3.978108	growing	-0.1310384
-3.978108	grown	-0.1310384
-4.104574	guardian	-0.1310384
-4.104574	guarding	-0.1310384
-4.104574	guest	-0.1310384
-4.104574	guests	-0.1310384
-3.897423	guides	-0.1310384
-3.629102	guiding	-0.1671663
-3.978108	guitar	-0.1310384
-4.104574	guitarist	-0.1310384
-3.978108	gulls	-0.1310384
-4.104574	gun	-0.1310384
-4.104574	gusto	-0.1310384
-3.211945	guy	-0.2211928
-3.742862	guys	-0.1310384
-4.104574	gym	-0.1310384
-3.211945	had	-0.1445804
-3.0533	hair	-0.2747288
-3.296216	half	-0.2771512
-4.104574	hall	-0.1310384
-3.978108	hallway	-0.1310384
-4.104574	halves	-0.1310384
-3.978108	hamburger	-0.1310384
-2.980093	hand	-0.2669076
-4.104574	handful	-0.1310384
-4.104574	handles	-0.1310384
-3.464485	hands	-0.1487268
-3.978108	handsome	-0.1310384
-4.104574	handsomecandid	-0.1310384
-4.104574	handy	-0.1310384
-3.897423	hang	-0.1310384
-4.104574	hangers	-0.1310384
-3.25204	hanging	-0.2680114
-3.629102	hangs	-0.1930372
-4.104574	haphazardly	-0.1310384
-4.104574	happen	-0.1310384
-4.104574	happening	-0.1310384
-4.104574	happens	-0.1310384
-3.742862	happily	-0.1310384
-2.756805	happy	-0.4130372
-3.978108	harbor	-0.1766882
-3.742862	hard	-0.1310384
-3.978108	hardwood	-0.1310384
-4.104574	harnessed	-0.1310384
-3.978108	harriet	-0.2277061
-4.104574	hart	-0.1310384
-2.564629	has	-0.3970175
-4.104574	hash	-0.1310384
-3.296216	hat	-0.1927819
-3.978108	hats	-0.1310384
-3.978108	haul	-0.1310384
-3.0533	have	-0.2167034
-3.080728	having	-0.4397815
-4.104574	hazy	-0.1310384
-2.958198	he	-0.198382
-3.400874	head	-0.2018239
-4.104574	headdresses	-0.1310384
-3.978108	headed	-0.1310384
-3.897423	heading	-0.1930372
-3.978108	headphones	-0.1310384
-4.104574	heads	-0.1310384
-4.104574	headsets	-0.1310384
-4.104574	healing	-0.1310384
-3.027502	healthy	-0.3927234
-4.104574	healthysuper	-0.1310384
-4.104574	heard	-0.1310384
-4.104574	heart	-0.1310384
-4.104574	heater	-0.1310384
-4.104574	heavy	-0.1310384
-3.629102	held	-0.1310384
-3.897423	helmet	-0.1310384
-4.104574	helmets	-0.1310384
-3.978108	help	-0.1310384
-4.104574	helpful	-0.1310384
-3.978108	helping	-0.1310384
-3.978108	helps	-0.2277061
-2.582236	her	-0.1784859
-3.629102	herd	-0.3614658
-4.104574	herding	-0.1310384
-3.978108	herds	-0.1310384
-3.629102	here	-0.1310384
-3.897423	herself	-0.1310384
-3.978108	hes	-0.1310384
-4.104574	hiding	-0.1310384
-3.3454	high	-0.2535395
-4.104574	highlight	-0.1310384
-4.104574	highlighted	-0.1310384
-3.978108	highway	-0.1310384
-4.104574	hike	-0.1310384
-3.25204	hill	-0.2636366
-3.978108	hills	-0.2277061
-3.978108	hillside	-0.1930372
-4.104574	hilly	-0.1310384
-3.211945	him	-0.3385555
-3.629102	himself	-0.1310384
-4.104574	hind	-0.1310384
-4.104574	hippies	-0.1310384
-2.335387	his	-0.2600386
-4.104574	historic	-0.1310384
-3.897423	historical	-0.1310384
-4.104574	history	-0.1310384
-3.897423	hit	-0.1766882
-3.978108	hits	-0.2277061
-3.629102	hitting	-0.3135477
-3.897423	hold	-0.1310384
-2.539489	holding	-0.4862668
-3.027502	holds	-0.4517203
-3.978108	hole	-0.1310384
-4.104574	hollywood	-0.1310384
-3.978108	holy	-0.2277061
-3.003151	home	-0.3192192
-4.104574	homerun	-0.1310384
-4.104574	homes	-0.1310384
-3.978108	homework	-0.1310384
-4.104574	honor	-0.1310384
-4.104574	hood	-0.1310384
-4.104574	hook	-0.1310384
-4.104574	hooked	-0.1310384
-4.104574	hope	-0.1310384
-4.104574	horizon	-0.1310384
-3.978108	horns	-0.1310384
-3.080728	horse	-0.2421564
-3.897423	horseback	-0.1766882
-3.211945	horses	-0.2496018
-3.978108	hose	-0.1310384
-3.742862	hospital	-0.1609324
-3.3454	hot	-0.3966258
-4.104574	hotdog	-0.1310384
-3.400874	hotel	-0.3135477
-4.104574	hour	-0.1310384
-3.175241	house	-0.361146
-4.104574	houses	-0.1310384
-3.400874	how	-0.4384865
-4.104574	hub	-0.1310384
-4.104574	huddled	-0.1310384
-3.978108	huge	-0.1310384
-4.104574	humanity	-0.1310384
-4.104574	humans	-0.1310384
-4.104574	humid	-0.1310384
-4.104574	humidity	-0.1310384
-4.104574	humorous	-0.1310384
-4.104574	hung	-0.1310384
-4.104574	hungry	-0.1310384
-4.104574	hunting	-0.1310384
-4.104574	hurdle	-0.1310384
-4.104574	hurdles	-0.1310384
-3.978108	husband	-0.1310384
-3.978108	hydrant	-0.143599
-4.104574	hydrantin	-0.1310384
-4.104574	hydrants	-0.1310384
-4.104574	hydron	-0.1310384
-3.3454	i	-0.1645567
-3.629102	ice	-0.2065745
-4.104574	icing	-0.1310384
-4.104574	identifies	-0.1310384
-4.104574	idly	-0.1310384
-3.629102	if	-0.1671663
-3.897423	illuminates	-0.2277061
-3.211945	image	-0.3655303
-3.978108	images	-0.1310384
-3.978108	imagine	-0.1310384
-4.104574	implements	-0.1310384
-3.027502	important	-0.4311374
-4.104574	importantly	-0.1310384
-4.104574	impressive	-0.1310384
-4.104574	improbably	-0.1310384
-1.546925	in	-0.8412816
-4.104574	include	-0.1310384
-3.400874	includes	-0.1979754
-3.53904	including	-0.2438387
-4.104574	incredible	-0.1310384
-4.104574	indian	-0.1310384
-3.978108	indicates	-0.1310384
-4.104574	indicating	-0.1310384
-3.978108	individual	-0.1310384
-4.104574	individuals	-0.1310384
-3.978108	indoor	-0.1310384
-4.104574	inexperienced	-0.1310384
-3.978108	information	-0.1310384
-4.104574	informs	-0.1310384
-4.104574	infront	-0.1310384
-4.104574	ingredients	-0.1310384
-4.104574	injured	-0.1310384
-3.978108	innocent	-0.2277061
-4.104574	inquisitively	-0.1310384
-2.880227	inside	-0.5715644
-4.104574	inspirational	-0.1310384
-4.104574	inspiring	-0.1310384
-4.104574	installation	-0.1310384
-3.978108	instead	-0.2277061
-3.978108	intently	-0.1310384
-2.845931	interesting	-0.267757
-4.104574	interior	-0.1310384
-4.104574	internet	-0.1310384
-3.897423	intersection	-0.1609324
-4.104574	intersections	-0.1310384
-2.619747	into	-0.6203117
-4.104574	intrepid	-0.1310384
-4.104574	inviting	-0.1310384
-4.104574	involves	-0.1310384
-4.104574	ipad	-0.1310384
-4.104574	iphone	-0.1310384
-4.104574	ipod	-0.1310384
-4.104574	iron	-0.1310384
-1.9137	is	-0.437895
-3.897423	island	-0.1930372
-4.104574	isnt	-0.1310384
-2.493194	it	-0.383854
-3.978108	item	-0.1310384
-3.897423	items	-0.1310384
-2.880227	its	-0.1843156
-3.742862	itself	-0.1310384
-4.104574	iv	-0.1310384
-4.104574	jack	-0.1310384
-3.53904	jacket	-0.1310384
-4.104574	jacquescartier	-0.1310384
-4.104574	jam	-0.1310384
-4.104574	jamming	-0.1310384
-4.104574	japan	-0.1310384
-3.897423	jar	-0.1310384
-4.104574	java	-0.1310384
-4.104574	jeans	-0.1310384
-4.104574	jeep	-0.1310384
-4.104574	jersey	-0.1310384
-3.53904	jet	-0.1487268
-3.978108	jets	-0.1671663
-3.897423	job	-0.1310384
-4.104574	jockey	-0.1310384
-4.104574	jockeys	-0.1310384
-4.104574	jolly	-0.1310384
-4.104574	journey	-0.1310384
-4.104574	joy	-0.1310384
-3.897423	juice	-0.1930372
-3.742862	jump	-0.2022533
-3.897423	jumped	-0.1310384
-3.080728	jumping	-0.237756
-3.53904	jumps	-0.3804945
-4.104574	jungle	-0.1310384
-3.296216	just	-0.1310384
-3.978108	keep	-0.1310384
-4.104574	keeper	-0.1310384
-4.104574	kept	-0.1310384
-4.104574	key	-0.1310384
-3.742862	keyboard	-0.1565337
-3.897423	keys	-0.1766882
-3.978108	kick	-0.1310384
-4.104574	kickin	-0.1310384
-3.897423	kicking	-0.1310384
-3.978108	kicks	-0.2277061
-3.25204	kid	-0.1881778
-3.296216	kids	-0.2034687
-4.104574	kimono	-0.1310384
-3.629102	kind	-0.2343665
-4.104574	kindly	-0.1310384
-4.104574	kinds	-0.1310384
-4.104574	kiss	-0.1310384
-4.104574	kit	-0.1310384
-2.880227	kitchen	-0.2725734
-4.104574	kitchenbreak	-0.1310384
-3.25204	kite	-0.2813751
-4.104574	kiteboarding	-0.1310384
-3.3454	kites	-0.2715081
-4.104574	kitesurfing	-0.1310384
-3.978108	kitten	-0.1310384
-3.978108	kitty	-0.1310384
-4.104574	knacks	-0.1310384
-3.978108	kneels	-0.1310384
-4.104574	knees	-0.1310384
-4.104574	knick	-0.1310384
-4.104574	knit	-0.1310384
-4.104574	knitted	-0.1310384
-4.104574	knives	-0.1310384
-4.104574	know	-0.1310384
-3.897423	known	-0.1930372
-3.978108	knows	-0.1310384
-4.104574	korea	-0.1310384
-4.104574	korean	-0.1310384
-4.104574	la	-0.1310384
-3.978108	label	-0.1310384
-4.104574	laced	-0.1310384
-4.104574	lackawanna	-0.1310384
-3.978108	laden	-0.2277061
-3.897423	ladies	-0.1930372
-3.110005	lady	-0.2699228
-3.978108	laid	-0.1310384
-3.464485	lake	-0.3426503
-3.629102	lamp	-0.1532637
-3.978108	land	-0.1310384
-4.104574	landed	-0.1310384
-3.978108	landing	-0.1310384
-4.104574	landmarks	-0.1310384
-4.104574	lands	-0.1310384
-3.978108	landscape	-0.1310384
-4.104574	landscaped	-0.1310384
-4.104574	lantern	-0.1310384
-3.897423	lap	-0.1930372
-3.25204	laptop	-0.2322918
-4.104574	laptopand	-0.1310384
-3.53904	laptops	-0.2324531
-3.110005	large	-0.1515221
-3.978108	larger	-0.1310384
-4.104574	last	-0.1310384
-3.978108	laugh	-0.1310384
-3.978108	laughing	-0.1310384
-3.978108	launching	-0.1310384
-4.104574	law	-0.1310384
-3.897423	lawn	-0.1310384
-4.104574	lay	-0.1310384
-2.917465	laying	-0.5401739
-3.742862	lays	-0.1930372
-4.104574	lazing	-0.1310384
-3.978108	lead	-0.1310384
-3.897423	leading	-0.1310384
-3.978108	leads	-0.1310384
-4.104574	leafy	-0.1310384
-3.978108	league	-0.1310384
-3.742862	leaning	-0.1671663
-3.978108	leans	-0.1310384
-4.104574	leaping	-0.1310384
-3.978108	leaps	-0.1310384
-4.104574	learn	-0.1310384
-3.978108	learning	-0.1310384
-3.978108	learns	-0.1930372
-3.978108	leash	-0.1310384
-4.104574	least	-0.1310384
-3.742862	leather	-0.1310384
-3.25204	leaves	-0.3103268
-3.629102	leaving	-0.1671663
-3.897423	ledge	-0.1671663
-3.464485	left	-0.1532638
-4.104574	leg	-0.1310384
-4.104574	leggings	-0.1310384
-3.400874	legs	-0.1532638
-4.104574	leisurely	-0.1310384
-4.104574	lemon	-0.1310384
-3.978108	lemons	-0.1310384
-4.104574	lense	-0.1310384
-4.104574	less	-0.1310384
-4.104574	let	-0.1310384
-3.978108	lets	-0.1310384
-4.104574	letter	-0.1310384
-4.104574	letting	-0.1310384
-3.978108	lettuce	-0.1310384
-4.104574	level	-0.1310384
-4.104574	levitating	-0.1310384
-3.978108	licking	-0.1310384
-4.104574	licks	-0.1310384
-3.897423	lid	-0.1310384
-4.104574	lids	-0.1310384
-3.978108	lie	-0.1310384
-3.629102	lies	-0.2014484
-3.629102	life	-0.5419108
-4.104574	lifeguard	-0.1310384
-3.978108	lift	-0.1671662
-4.104574	lifting	-0.1310384
-2.898447	light	-0.3109276
-3.897423	lighted	-0.1310384
-3.897423	lighthouse	-0.1766882
-3.742862	lighting	-0.2343665
-3.897423	lightning	-0.1310384
-3.464485	lights	-0.1927819
-3.080728	like	-0.2109425
-3.742862	liked	-0.1766882
-3.978108	lime	-0.2277061
-3.400874	line	-0.1637549
-3.629102	lined	-0.2210293
-4.104574	linens	-0.1310384
-3.978108	lines	-0.1310384
-4.104574	lips	-0.1310384
-3.897423	liquid	-0.1310384
-3.3454	lit	-0.1928366
-4.104574	litter	-0.1310384
-3.897423	littered	-0.1310384
-3.3454	little	-0.1608138
-4.104574	live	-0.1310384
-4.104574	lived	-0.1310384
-4.104574	lives	-0.1310384
-3.110005	living	-0.4540653
-3.897423	load	-0.1310384
-3.897423	loaded	-0.1930372
-3.742862	loading	-0.1310384
-4.104574	lobby	-0.1310384
-3.978108	local	-0.1310384
-3.742862	located	-0.2324531
-3.978108	location	-0.1310384
-4.104574	locked	-0.1310384
-4.104574	locomotive	-0.1310384
-4.104574	lodge	-0.1310384
-4.104574	logs	-0.1310384
-4.104574	london	-0.1310384
-3.978108	lone	-0.1310384
-3.3454	long	-0.1487268
-4.104574	longboard	-0.1310384
-4.104574	longboarder	-0.1310384
-4.104574	longhorn	-0.1310384
-3.003151	look	-0.2747288
-3.742862	looked	-0.1310384
-2.531422	looking	-0.4316628
-2.671709	looks	-0.4013069
-4.104574	looms	-0.1310384
-4.104574	los	-0.1310384
-4.104574	lose	-0.1310384
-3.53904	lot	-0.2316835
-3.400874	lots	-0.7460308
-4.104574	lotus	-0.1310384
-3.629102	loud	-0.3599147
-4.104574	lounge	-0.1310384
-3.978108	lounging	-0.1310384
-3.897423	love	-0.1310384
-3.400874	lovely	-0.2539448
-4.104574	loves	-0.1310384
-4.104574	loving	-0.1310384
-4.104574	lovingly	-0.1310384
-3.897423	low	-0.1310384
-3.110005	luggage	-0.2602453
-3.3454	lunch	-0.2616774
-4.104574	lush	-0.1310384
-4.104574	luxurious	-0.1310384
-3.211945	lying	-0.4330227
-4.104574	machine	-0.1310384
-4.104574	machines	-0.1310384
-4.104574	macintosh	-0.1310384
-2.917465	made	-0.2922675
-3.175241	magnificent	-0.3291475
-4.104574	main	-0.1310384
-4.104574	maintain	-0.1310384
-4.104574	maintaining	-0.1310384
-3.897423	majestic	-0.1310384
-3.978108	major	-0.1310384
-2.845931	make	-0.4534699
-2.718277	makes	-0.5172846
-3.175241	making	-0.2797223
-3.897423	male	-0.1310384
-4.104574	mall	-0.1310384
-3.978108	mama	-0.1310384
-2.756805	man	-0.3227689
-4.104574	maneuvering	-0.1310384
-4.104574	maneuvers	-0.1310384
-4.104574	manicured	-0.1310384
-4.104574	mannequins	-0.1310384
-3.978108	mans	-0.1310384
-3.978108	mantle	-0.2277061
-3.110005	many	-0.1918926
-3.897423	marble	-0.1310384
-3.978108	marina	-0.1310384
-4.104574	marine	-0.1310384
-4.104574	marked	-0.1310384
-3.400874	market	-0.2725383
-4.104574	marking	-0.1310384
-4.104574	mascot	-0.1310384
-4.104574	mask	-0.1310384
-4.104574	massive	-0.1310384
-3.629102	match	-0.2040486
-4.104574	matched	-0.1310384
-4.104574	matching	-0.1310384
-4.104574	mattress	-0.1310384
-4.104574	mature	-0.1310384
-3.464485	may	-0.1565337
-4.104574	maybe	-0.1310384
-3.742862	me	-0.1310384
-3.897423	meadow	-0.1310384
-3.296216	meal	-0.3492379
-3.897423	meals	-0.1310384
-3.978108	mean	-0.1310384
-4.104574	means	-0.1310384
-3.296216	meat	-0.2142985
-4.104574	meats	-0.1310384
-4.104574	mechanic	-0.1310384
-4.104574	median	-0.1310384
-4.104574	medicine	-0.1310384
-4.104574	meds	-0.1310384
-3.629102	meet	-0.1671663
-4.104574	meeting	-0.1310384
-3.978108	memorabilia	-0.2277061
-4.104574	memorable	-0.1310384
-3.400874	men	-0.2066489
-4.104574	message	-0.1310384
-4.104574	messy	-0.1310384
-3.897423	met	-0.1310384
-3.629102	metal	-0.2040486
-4.104574	metallic	-0.1310384
-3.978108	meter	-0.1565337
-4.104574	meters	-0.1310384
-4.104574	microphone	-0.1310384
-3.629102	microwave	-0.1565337
-4.104574	mid	-0.1310384
-4.104574	middle	-0.1310384
-4.104574	middleaged	-0.1310384
-4.104574	midflight	-0.1310384
-4.104574	midst	-0.1310384
-3.742862	might	-0.1671663
-4.104574	mighty	-0.1310384
-3.742862	milk	-0.1310384
-4.104574	minced	-0.1310384
-3.897423	miniature	-0.1310384
-4.104574	minor	-0.1310384
-4.104574	mint	-0.1310384
-3.141399	mirror	-0.256295
-3.897423	mirrors	-0.1930372
-4.104574	mist	-0.1310384
-4.104574	misty	-0.1310384
-4.104574	mitt	-0.1310384
-4.104574	mittens	-0.1310384
-3.897423	mobile	-0.1766882
-3.897423	model	-0.1930372
-3.742862	modern	-0.1310384
-3.629102	mom	-0.1565337
-4.104574	moment	-0.1310384
-3.978108	momma	-0.1310384
-4.104574	mommy	-0.1310384
-3.742862	monitor	-0.1310384
-4.104574	monitors	-0.1310384
-3.978108	monkey	-0.1310384
-4.104574	moped	-0.1310384
-4.104574	mopeds	-0.1310384
-3.53904	more	-0.1836197
-4.104574	morgan	-0.1310384
-4.104574	morning	-0.1310384
-3.629102	most	-0.1711498
-3.3454	mother	-0.1864235
-3.629102	motor	-0.1671663
-4.104574	motorbike	-0.1310384
-4.104574	motorboat	-0.1310384
-3.003151	motorcycle	-0.338516
-3.25204	motorcycles	-0.2220499
-3.978108	motorcyclist	-0.1310384
-4.104574	motorcyclists	-0.1310384
-4.104574	motorcylce	-0.1310384
-4.104574	motorcyle	-0.1310384
-4.104574	motorcyles	-0.1310384
-4.104574	motorists	-0.1310384
-4.104574	mount	-0.1310384
-3.175241	mountain	-0.2728692
-4.104574	mountainous	-0.1310384
-3.629102	mountains	-0.3599147
-3.629102	mounted	-0.2324531
-4.104574	mountian	-0.1310384
-3.978108	mouse	-0.1310384
-3.897423	mouth	-0.2153465
-3.897423	move	-0.1310384
-4.104574	moves	-0.1310384
-4.104574	movie	-0.1310384
-4.104574	movig	-0.1310384
-3.629102	moving	-0.1310384
-4.104574	mt	-0.1310384
-3.629102	much	-0.1310384
-4.104574	mug	-0.1310384
-3.629102	multiple	-0.1310384
-3.897423	museum	-0.1930372
-4.104574	mushrooms	-0.1310384
-3.53904	must	-0.3135477
-4.104574	mustache	-0.1310384
-4.104574	mustang	-0.1310384
-3.296216	my	-0.2059119
-4.104574	nad	-0.1310384
-3.53904	name	-0.1609324
-4.104574	named	-0.1310384
-3.978108	names	-0.1310384
-4.104574	nap	-0.1310384
-4.104574	nappy	-0.1310384
-3.978108	narrow	-0.1310384
-4.104574	nasty	-0.1310384
-4.104574	natural	-0.1310384
-3.897423	nature	-0.1310384
-4.104574	natures	-0.1310384
-4.104574	navigate	-0.1310384
-3.978108	navigates	-0.2277061
-2.464863	near	-0.6791524
-3.464485	nearby	-0.2822933
-4.104574	neat	-0.1310384
-4.104574	neatly	-0.1310384
-3.742862	neck	-0.2277061
-4.104574	need	-0.1310384
-4.104574	needed	-0.1310384
-4.104574	needles	-0.1310384
-4.104574	needs	-0.1310384
-4.104574	needy	-0.1310384
-3.978108	neon	-0.1310384
-4.104574	nested	-0.1310384
-3.978108	nestled	-0.1310384
-4.104574	nestles	-0.1310384
-3.897423	net	-0.1310384
-4.104574	never	-0.1310384
-3.211945	new	-0.2293766
-4.104574	newlyrefurbished	-0.1310384
-3.978108	news	-0.2277061
-3.978108	newspaper	-0.1310384
-4.104574	newspapers	-0.1310384
-2.193408	next	-1.614578
-2.582236	nice	-0.288491
-3.897423	nicely	-0.1766882
-4.104574	niec	-0.1310384
-3.25204	night	-0.3114178
-4.104574	nightlife	-0.1310384
-4.104574	nine	-0.1310384
-3.629102	nintendo	-0.5419108
-4.104574	nnd	-0.1310384
-3.629102	no	-0.1310384
-4.104574	nobody	-0.1310384
-3.978108	non	-0.2277061
-4.104574	nose	-0.1310384
-3.0533	not	-0.1860808
-4.104574	notepad	-0.1310384
-3.978108	notes	-0.1310384
-3.978108	nothing	-0.1310384
-4.104574	noticed	-0.1310384
-4.104574	notre	-0.1310384
-3.897423	now	-0.1310384
-3.978108	number	-0.1671663
-4.104574	numeral	-0.1310384
-3.978108	numerous	-0.1310384
-4.104574	nuzzle	-0.1310384
-3.978108	nuzzling	-0.2277061
-4.104574	ny	-0.1310384
-4.104574	obeyed	-0.1310384
-3.978108	object	-0.2277061
-3.978108	observe	-0.1310384
-4.104574	observing	-0.1310384
-4.104574	obviously	-0.1310384
-4.104574	occupants	-0.1310384
-4.104574	occupies	-0.1310384
-4.104574	occupy	-0.1310384
-4.104574	occurs	-0.1310384
-3.464485	ocean	-0.2017924
-4.104574	octopus	-0.1310384
-4.104574	odd	-0.1310384
-1.833025	of	-0.4415278
-2.86274	off	-0.3704251
-3.897423	offer	-0.1310384
-4.104574	offering	-0.1310384
-4.104574	offers	-0.1310384
-3.464485	office	-0.1713725
-3.978108	officers	-0.1310384
-3.978108	often	-0.2277061
-3.978108	oil	-0.2277061
-3.175241	old	-0.1874632
-3.742862	older	-0.1310384
-3.978108	oldfashioned	-0.1310384
-4.104574	olives	-0.1310384
-1.594126	on	-0.9212299
-4.104574	oncoming	-0.1310384
-2.730744	one	-0.1929682
-3.897423	onion	-0.1310384
-3.629102	onions	-0.1671663
-3.464485	only	-0.1671663
-4.104574	onteh	-0.1310384
-3.629102	onto	-0.2343665
-3.175241	open	-0.1694992
-4.104574	openair	-0.1310384
-4.104574	opening	-0.1310384
-3.978108	opens	-0.1310384
-3.978108	opponent	-0.2277061
-4.104574	opponents	-0.1310384
-3.978108	opportunity	-0.2277061
-3.53904	or	-0.1310384
-3.027502	orange	-0.1769757
-3.400874	oranges	-0.207782
-4.104574	organized	-0.1310384
-4.104574	orgasmic	-0.1310384
-4.104574	origami	-0.1310384
-4.104574	ornaments	-0.1310384
-4.104574	ornate	-0.1310384
-4.104574	ostrich	-0.1310384
-4.104574	othello	-0.1310384
-3.211945	other	-0.1507373
-3.742862	others	-0.1565337
-4.104574	ottomans	-0.1310384
-3.742862	our	-0.1310384
-2.425557	out	-0.4941241
-3.897423	outdoor	-0.1310384
-3.897423	outdoors	-0.1310384
-4.104574	outfield	-0.1310384
-3.978108	outfit	-0.1310384
-4.104574	outing	-0.1310384
-4.104574	outlet	-0.1310384
-4.104574	outline	-0.1310384
-2.639792	outside	-0.3906457
-3.897423	outstanding	-0.3200621
-4.104574	outstretch	-0.1310384
-3.978108	outstretched	-0.1310384
-4.104574	oval	-0.1310384
-3.53904	oven	-0.3402852
-2.639792	over	-0.4942086
-4.104574	overcast	-0.1310384
-3.897423	overhead	-0.1310384
-3.53904	overlooking	-0.2153465
-4.104574	overturned	-0.1310384
-4.104574	overview	-0.1310384
-3.978108	own	-0.1310384
-4.104574	owned	-0.1310384
-3.629102	owner	-0.1507374
-4.104574	owners	-0.1310384
-3.978108	ox	-0.1310384
-4.104574	pachyderm	-0.1310384
-3.978108	pack	-0.1310384
-4.104574	package	-0.1310384
-4.104574	packs	-0.1310384
-3.629102	paddle	-0.1310384
-3.978108	paddles	-0.1310384
-4.104574	paddling	-0.1310384
-3.978108	paint	-0.1310384
-3.211945	painted	-0.1846135
-3.742862	painting	-0.1487268
-4.104574	paintings	-0.1310384
-4.104574	paints	-0.1310384
-3.742862	pair	-0.4450008
-3.978108	paired	-0.2277061
-4.104574	pairs	-0.1310384
-4.104574	pajama	-0.1310384
-3.897423	pajamas	-0.1766882
-4.104574	palace	-0.1310384
-3.978108	palm	-0.2277061
-3.978108	pan	-0.1310384
-4.104574	panting	-0.1310384
-3.978108	pants	-0.1310384
-3.464485	paper	-0.1470886
-4.104574	papers	-0.1310384
-3.897423	parade	-0.1310384
-3.978108	parallel	-0.2277061
-3.897423	parasailing	-0.1310384
-3.978108	parasails	-0.1310384
-3.978108	parents	-0.1310384
-3.978108	paris	-0.1310384
-3.027502	park	-0.3171519
-2.730744	parked	-0.4368159
-3.080728	parking	-0.2950643
-4.104574	parks	-0.1310384
-3.978108	parrot	-0.1310384
-3.25204	part	-0.8843335
-3.978108	partially	-0.2277061
-4.104574	particular	-0.1310384
-4.104574	partitions	-0.1310384
-4.104574	partner	-0.1310384
-3.978108	parts	-0.1310384
-3.742862	party	-0.2822933
-3.978108	pass	-0.1310384
-3.978108	passenger	-0.1310384
-3.629102	passengers	-0.1310384
-3.897423	passes	-0.1310384
-3.742862	passing	-0.1671663
-3.0533	past	-0.363379
-3.978108	pasta	-0.1310384
-4.104574	pastries	-0.1310384
-3.978108	pastry	-0.1310384
-3.629102	pasture	-0.1671663
-4.104574	patch	-0.1310384
-4.104574	patches	-0.1310384
-3.897423	path	-0.1930372
-4.104574	patiently	-0.1310384
-4.104574	patients	-0.1310384
-3.742862	patio	-0.2343665
-3.978108	patriotic	-0.1310384
-4.104574	patrols	-0.1310384
-4.104574	patrons	-0.1310384
-3.897423	patterned	-0.1310384
-4.104574	pature	-0.1310384
-4.104574	pause	-0.1310384
-4.104574	pauses	-0.1310384
-4.104574	pavement	-0.1310384
-4.104574	paw	-0.1310384
-4.104574	paws	-0.1310384
-4.104574	paying	-0.1310384
-4.104574	pea	-0.1310384
-4.104574	peace	-0.1310384
-4.104574	peaceful	-0.1310384
-4.104574	peacefully	-0.1310384
-4.104574	peaches	-0.1310384
-4.104574	peacoat	-0.1310384
-4.104574	peacock	-0.1310384
-4.104574	peaks	-0.1310384
-4.104574	peanut	-0.1310384
-3.897423	pears	-0.1930372
-4.104574	pedaling	-0.1310384
-4.104574	pedestrian	-0.1310384
-3.742862	pedestrians	-0.1671663
-4.104574	peeking	-0.1310384
-3.978108	peel	-0.1310384
-4.104574	peers	-0.1310384
-4.104574	pelican	-0.1310384
-3.978108	pen	-0.1310384
-4.104574	penne	-0.1310384
-4.104574	pens	-0.1310384
-2.650173	people	-0.4681515
-3.978108	pepper	-0.1310384
-3.742862	perched	-0.1766882
-4.104574	perches	-0.1310384
-3.080728	perfect	-0.2565272
-3.897423	perfectly	-0.1310384
-4.104574	performer	-0.1310384
-3.629102	performing	-0.207782
-4.104574	performs	-0.1310384
-3.978108	perhaps	-0.1310384
-3.400874	person	-0.2027368
-4.104574	persons	-0.1310384
-4.104574	perspective	-0.1310384
-4.104574	pet	-0.1310384
-4.104574	petaled	-0.1310384
-4.104574	petals	-0.1310384
-4.104574	pets	-0.1310384
-3.897423	petting	-0.1930372
-3.400874	phone	-0.2635742
-4.104574	phones	-0.1310384
-4.104574	phont	-0.1310384
-2.845931	photo	-0.4775543
-3.400874	photograph	-0.2501086
-3.978108	photographed	-0.1310384
-3.897423	photographer	-0.1930372
-4.104574	photographs	-0.1310384
-3.978108	photos	-0.1310384
-3.897423	pick	-0.3200621
-3.978108	pickle	-0.1310384
-3.978108	picks	-0.1310384
-4.104574	pickup	-0.1310384
-3.978108	picnic	-0.1310384
-2.86274	picture	-0.4551927
-3.53904	pictures	-0.290445
-4.104574	picturesque	-0.1310384
-4.104574	picute	-0.1310384
-4.104574	pie	-0.1310384
-3.211945	piece	-0.5511386
-3.978108	pieces	-0.1310384
-3.978108	pier	-0.1310384
-4.104574	pig	-0.1310384
-4.104574	pikachu	-0.1310384
-3.897423	pile	-0.3200621
-4.104574	piled	-0.1310384
-4.104574	pillars	-0.1310384
-3.897423	pillow	-0.1310384
-3.978108	pillows	-0.2277061
-3.53904	pink	-0.1725278
-4.104574	pinkish	-0.1310384
-4.104574	pinto	-0.1310384
-3.978108	pipe	-0.1310384
-3.978108	pitch	-0.1930372
-4.104574	pitched	-0.1310384
-3.897423	pitcher	-0.1310384
-4.104574	pitching	-0.1310384
-3.080728	pizza	-0.3388899
-3.978108	pizzas	-0.1310384
-3.897423	pizzeria	-0.1310384
-3.0533	place	-0.3185439
-3.53904	placed	-0.1609324
-4.104574	places	-0.1310384
-4.104574	plaid	-0.1310384
-3.978108	plain	-0.2277061
-3.110005	plane	-0.2086723
-3.53904	planes	-0.1836197
-3.629102	plant	-0.1585583
-4.104574	planter	-0.1310384
-3.742862	plants	-0.2065745
-3.742862	plastic	-0.1310384
-3.080728	plate	-0.3327208
-3.296216	plates	-0.3994803
-3.897423	platform	-0.1926862
-4.104574	platforms	-0.1310384
-3.978108	platter	-0.1930372
-4.104574	platters	-0.1310384
-3.175241	play	-0.2863606
-3.53904	played	-0.1507373
-3.464485	player	-0.1423675
-3.464485	players	-0.1585583
-3.742862	playful	-0.2807335
-2.682891	playing	-0.4726157
-4.104574	playmate	-0.1310384
-3.141399	plays	-0.2689577
-3.296216	pleasant	-0.3163276
-4.104574	plenty	-0.1310384
-4.104574	plump	-0.1310384
-4.104574	plunge	-0.1310384
-4.104574	plush	-0.1310384
-3.978108	pocket	-0.2277061
-4.104574	pockets	-0.1310384
-4.104574	point	-0.1310384
-3.978108	pointing	-0.1310384
-3.978108	points	-0.1310384
-4.104574	pointy	-0.1310384
-4.104574	pokemon	-0.1310384
-3.742862	polar	-0.4450008
-3.53904	pole	-0.1711498
-3.53904	poles	-0.1766882
-3.742862	police	-0.1671662
-4.104574	policeman	-0.1310384
-4.104574	policemen	-0.1310384
-4.104574	polka	-0.1310384
-3.897423	pond	-0.1565337
-4.104574	pontoons	-0.1310384
-4.104574	pony	-0.1310384
-3.53904	pool	-0.3415975
-4.104574	pops	-0.1310384
-4.104574	populate	-0.1310384
-4.104574	port	-0.1310384
-4.104574	portrait	-0.1310384
-3.742862	pose	-0.1310384
-3.742862	posed	-0.1310384
-3.629102	poses	-0.1671663
-3.3454	posing	-0.3185439
-3.978108	position	-0.1310384
-4.104574	possession	-0.1310384
-3.897423	post	-0.1310384
-3.742862	posted	-0.2277061
-4.104574	poster	-0.1310384
-4.104574	posters	-0.1310384
-4.104574	posts	-0.1310384
-3.742862	pot	-0.1310384
-3.897423	potable	-0.3200621
-4.104574	potato	-0.1310384
-3.978108	potatoes	-0.1310384
-4.104574	potential	-0.1310384
-4.104574	pots	-0.1310384
-4.104574	potted	-0.1310384
-3.978108	pouring	-0.1310384
-4.104574	pours	-0.1310384
-3.978108	powdered	-0.1310384
-3.742862	power	-0.1310384
-4.104574	practice	-0.1310384
-3.897423	practicing	-0.1766882
-3.400874	precious	-0.2790041
-3.742862	prepare	-0.2153465
-3.978108	prepared	-0.1310384
-3.897423	prepares	-0.1766882
-3.25204	preparing	-0.2838879
-4.104574	presence	-0.1310384
-4.104574	present	-0.1310384
-4.104574	presentation	-0.1310384
-4.104574	presented	-0.1310384
-4.104574	presents	-0.1310384
-4.104574	presses	-0.1310384
-4.104574	pressing	-0.1310384
-2.86274	pretty	-0.3189114
-4.104574	previous	-0.1310384
-4.104574	printed	-0.1310384
-4.104574	prints	-0.1310384
-3.978108	pristine	-0.1310384
-4.104574	privileged	-0.1310384
-4.104574	prizes	-0.1310384
-4.104574	prizewinning	-0.1310384
-3.978108	pro	-0.1310384
-4.104574	probably	-0.1310384
-4.104574	problem	-0.1310384
-4.104574	process	-0.1310384
-3.629102	produce	-0.1671663
-4.104574	product	-0.1310384
-3.978108	products	-0.1310384
-4.104574	professional	-0.1310384
-4.104574	profile	-0.1310384
-4.104574	project	-0.1310384
-3.978108	projects	-0.1310384
-4.104574	promised	-0.1310384
-4.104574	promises	-0.1310384
-4.104574	propellers	-0.1310384
-4.104574	propellor	-0.1310384
-3.742862	proper	-0.2649108
-4.104574	properly	-0.1310384
-4.104574	protected	-0.1310384
-3.978108	protecting	-0.1310384
-4.104574	protective	-0.1310384
-4.104574	protruding	-0.1310384
-3.400874	proud	-0.2750827
-3.742862	proudly	-0.1671663
-3.978108	provide	-0.2277061
-3.464485	provided	-0.2822933
-3.742862	provides	-0.1766882
-4.104574	providing	-0.1310384
-4.104574	proving	-0.1310384
-3.400874	public	-0.1637549
-4.104574	pug	-0.1310384
-4.104574	pull	-0.1310384
-3.978108	pulled	-0.1310384
-3.464485	pulling	-0.1310384
-3.897423	pulls	-0.1930372
-3.978108	puppies	-0.1310384
-4.104574	puppy	-0.1310384
-3.978108	purchased	-0.1310384
-3.53904	purple	-0.1565337
-4.104574	purposes	-0.1310384
-3.742862	purses	-0.1766882
-4.104574	pushes	-0.1310384
-3.742862	put	-0.1766882
-4.104574	puts	-0.1310384
-3.629102	putting	-0.1310384
-3.978108	quaint	-0.1310384
-3.978108	quality	-0.1310384
-4.104574	quarters	-0.1310384
-4.104574	quesadilla	-0.1310384
-4.104574	quesadillas	-0.1310384
-4.104574	questioning	-0.1310384
-4.104574	quiche	-0.1310384
-4.104574	quick	-0.1310384
-4.104574	quickly	-0.1310384
-4.104574	quiet	-0.1310384
-4.104574	quite	-0.1310384
-3.978108	rabbit	-0.2277061
-3.53904	race	-0.2695561
-4.104574	races	-0.1310384
-4.104574	racetrack	-0.1310384
-3.978108	racing	-0.1310384
-3.978108	rack	-0.1310384
-3.53904	racket	-0.2866218
-4.104574	rackets	-0.1310384
-3.978108	racquet	-0.1532638
-3.742862	rail	-0.1310384
-3.978108	railroad	-0.1310384
-4.104574	railway	-0.1310384
-3.464485	rain	-0.2300772
-3.978108	rainbow	-0.1310384
-4.104574	rainbowstyle	-0.1310384
-3.978108	raining	-0.1310384
-4.104574	rains	-0.1310384
-3.897423	rainy	-0.1766882
-4.104574	raise	-0.1310384
-3.978108	raised	-0.1310384
-4.104574	raking	-0.1310384
-3.978108	ramp	-0.1310384
-4.104574	range	-0.1310384
-4.104574	rapid	-0.1310384
-3.897423	rather	-0.1310384
-4.104574	rd	-0.1310384
-4.104574	re	-0.1310384
-4.104574	reach	-0.1310384
-4.104574	reached	-0.1310384
-3.897423	reaches	-0.1310384
-3.978108	reaching	-0.1766882
-3.978108	reacts	-0.2277061
-3.978108	read	-0.1310384
-3.464485	reading	-0.3402852
-3.978108	reads	-0.1310384
-3.25204	ready	-0.5885113
-3.978108	real	-0.1310384
-3.3454	really	-0.2008799
-4.104574	rear	-0.1310384
-4.104574	rebound	-0.1310384
-4.104574	receive	-0.1310384
-4.104574	reception	-0.1310384
-4.104574	recipe	-0.1310384
-3.897423	reclining	-0.1930372
-4.104574	recognizes	-0.1310384
-3.978108	recover	-0.1310384
-4.104574	recreation	-0.1310384
-4.104574	rectangular	-0.1310384
-3.027502	red	-0.170873
-4.104574	refinished	-0.1310384
-3.897423	reflected	-0.1930372
-3.400874	reflection	-0.3483098
-3.897423	reflects	-0.1310384
-3.978108	refreshing	-0.1310384
-4.104574	refridgerator	-0.1310384
-3.3454	refrigerator	-0.1959528
-4.104574	region	-0.1310384
-4.104574	registration	-0.1310384
-4.104574	rehearsing	-0.1310384
-4.104574	relatively	-0.1310384
-3.897423	relax	-0.1766882
-4.104574	relaxation	-0.1310384
-4.104574	relaxed	-0.1310384
-3.629102	relaxes	-0.2065745
-3.027502	relaxing	-0.384757
-4.104574	relishes	-0.1310384
-4.104574	remastered	-0.1310384
-4.104574	remembers	-0.1310384
-4.104574	reminisceant	-0.1310384
-3.742862	remote	-0.1836197
-4.104574	remotes	-0.1310384
-4.104574	removing	-0.1310384
-4.104574	renovation	-0.1310384
-4.104574	renovations	-0.1310384
-4.104574	rent	-0.1310384
-4.104574	represent	-0.1310384
-4.104574	resemble	-0.1310384
-4.104574	resembling	-0.1310384
-4.104574	residence	-0.1310384
-4.104574	resides	-0.1310384
-4.104574	resort	-0.1310384
-4.104574	responsible	-0.1310384
-4.104574	responsibly	-0.1310384
-3.53904	rest	-0.2277061
-4.104574	restaraunt	-0.1310384
-3.175241	restaurant	-0.2736509
-4.104574	restful	-0.1310384
-3.25204	resting	-0.2964395
-4.104574	restroom	-0.1310384
-3.978108	rests	-0.1310384
-4.104574	results	-0.1310384
-3.978108	retail	-0.1310384
-4.104574	retriever	-0.1310384
-3.897423	retro	-0.1930372
-4.104574	retrostyle	-0.1310384
-4.104574	return	-0.1310384
-4.104574	returning	-0.1310384
-4.104574	returns	-0.1310384
-4.104574	revealed	-0.1310384
-4.104574	reverently	-0.1310384
-3.978108	reverse	-0.1310384
-3.629102	rice	-0.2065745
-4.104574	ridden	-0.1310384
-3.0533	ride	-0.2625184
-3.629102	rider	-0.1671663
-3.897423	riders	-0.1310384
-2.937354	rides	-0.39181
-2.743579	riding	-0.4802816
-4.104574	ridng	-0.1310384
-3.175241	right	-0.2182791
-4.104574	ring	-0.1310384
-4.104574	rings	-0.1310384
-4.104574	ripe	-0.1310384
-4.104574	ripening	-0.1310384
-4.104574	rises	-0.1310384
-3.978108	rising	-0.1310384
-3.3454	river	-0.3133703
-3.175241	road	-0.2729676
-4.104574	roadside	-0.1310384
-3.978108	roam	-0.1310384
-4.104574	roar	-0.1310384
-3.400874	rock	-0.2523349
-4.104574	rocking	-0.1310384
-4.104574	rocks	-0.1310384
-3.978108	rocky	-0.1310384
-4.104574	rode	-0.1310384
-4.104574	rodeo	-0.1310384
-4.104574	roles	-0.1310384
-4.104574	roller	-0.1310384
-4.104574	rolling	-0.1310384
-3.978108	rolls	-0.1310384
-4.104574	roman	-0.1310384
-4.104574	romantic	-0.1310384
-4.104574	roof	-0.1310384
-4.104574	rooftop	-0.1310384
-2.799085	room	-0.3445139
-4.104574	roommates	-0.1310384
-3.897423	rooms	-0.1310384
-3.897423	rope	-0.1310384
-4.104574	rose	-0.1310384
-4.104574	rough	-0.1310384
-3.978108	round	-0.1310384
-3.742862	row	-0.1766882
-4.104574	rowboat	-0.1310384
-4.104574	rows	-0.1310384
-4.104574	rubbing	-0.1310384
-3.897423	rug	-0.1766882
-4.104574	ruined	-0.1310384
-4.104574	rules	-0.1310384
-3.53904	run	-0.1310384
-3.296216	running	-0.1970452
-3.978108	runs	-0.1310384
-3.978108	runway	-0.1565337
-4.104574	rural	-0.1310384
-3.978108	rush	-0.1310384
-3.897423	rushes	-0.1310384
-4.104574	rushing	-0.1310384
-4.104574	rusted	-0.1310384
-4.104574	rustic	-0.1310384
-3.978108	rv	-0.2277061
-3.978108	saddle	-0.1310384
-4.104574	saddled	-0.1310384
-4.104574	sadly	-0.1310384
-3.742862	safe	-0.1930372
-4.104574	safely	-0.1310384
-3.897423	safety	-0.1310384
-4.104574	sail	-0.1310384
-4.104574	sailboat	-0.1310384
-3.978108	sailing	-0.1310384
-3.629102	salad	-0.1766882
-4.104574	sale	-0.1310384
-4.104574	salmon	-0.1310384
-3.978108	salon	-0.2277061
-4.104574	same	-0.1310384
-4.104574	sanctuary	-0.1310384
-3.400874	sand	-0.24278
-4.104574	sands	-0.1310384
-3.53904	sandwich	-0.2566586
-3.897423	sandwiches	-0.1930372
-3.978108	sandy	-0.1671663
-3.978108	sanitary	-0.1310384
-4.104574	sat	-0.1310384
-4.104574	satellite	-0.1310384
-3.629102	sauce	-0.1310384
-4.104574	sauces	-0.1310384
-4.104574	save	-0.1310384
-4.104574	saying	-0.1310384
-3.897423	says	-0.1310384
-4.104574	scale	-0.1310384
-4.104574	scans	-0.1310384
-4.104574	scape	-0.1310384
-3.978108	scarf	-0.1310384
-4.104574	scenario	-0.1310384
-3.211945	scene	-0.2695561
-3.978108	scenery	-0.1310384
-3.629102	school	-0.2324531
-4.104574	schoolchildren	-0.1310384
-4.104574	scisors	-0.1310384
-4.104574	scissor	-0.1310384
-3.53904	scissors	-0.1713725
-3.978108	scooter	-0.1766882
-4.104574	scored	-0.1310384
-4.104574	scratching	-0.1310384
-4.104574	screaming	-0.1310384
-3.296216	screen	-0.2895962
-4.104574	scrumptious	-0.1310384
-3.897423	sculpture	-0.1310384
-4.104574	scultpure	-0.1310384
-3.897423	sea	-0.1766882
-3.742862	seagulls	-0.1310384
-4.104574	searches	-0.1310384
-3.978108	searching	-0.2277061
-3.978108	season	-0.1930372
-3.400874	seat	-0.1698656
-3.978108	seated	-0.1310384
-4.104574	seating	-0.1310384
-3.897423	seats	-0.1310384
-4.104574	second	-0.1310384
-4.104574	secret	-0.1310384
-4.104574	section	-0.1310384
-4.104574	security	-0.1310384
-3.400874	see	-0.2703952
-4.104574	seeds	-0.1310384
-3.978108	seeing	-0.1310384
-3.978108	seem	-0.1310384
-4.104574	seemed	-0.1310384
-3.742862	seems	-0.2645558
-3.742862	seen	-0.2332493
-3.897423	sees	-0.1930372
-4.104574	selection	-0.1310384
-3.978108	selfie	-0.1930372
-4.104574	selling	-0.1310384
-4.104574	semi	-0.1310384
-4.104574	sentiment	-0.1310384
-4.104574	separate	-0.1310384
-4.104574	serendipity	-0.1310384
-4.104574	serene	-0.1310384
-3.978108	series	-0.1310384
-3.897423	serve	-0.1310384
-3.296216	served	-0.1487267
-3.897423	serves	-0.1310384
-3.978108	service	-0.1310384
-3.742862	serving	-0.2645558
-4.104574	servings	-0.1310384
-3.25204	set	-0.2675177
-3.978108	sets	-0.1310384
-3.53904	setting	-0.1609324
-4.104574	setup	-0.1310384
-4.104574	seven	-0.1310384
-3.3454	several	-0.1827394
-4.104574	severely	-0.1310384
-4.104574	sewing	-0.1310384
-3.978108	sewn	-0.2277061
-3.629102	sexy	-0.3135477
-3.978108	shade	-0.1565337
-4.104574	shaded	-0.1310384
-3.978108	shades	-0.1310384
-3.978108	shadow	-0.1310384
-4.104574	shaggy	-0.1310384
-4.104574	shallow	-0.1310384
-3.897423	shaped	-0.1310384
-4.104574	shapes	-0.1310384
-3.742862	share	-0.1310384
-4.104574	shared	-0.1310384
-4.104574	shares	-0.1310384
-3.897423	sharing	-0.1930372
-4.104574	sharp	-0.1310384
-4.104574	shave	-0.1310384
-4.104574	shaves	-0.1310384
-4.104574	shaving	-0.1310384
-3.3454	she	-0.1911983
-4.104574	shed	-0.1310384
-3.211945	sheep	-0.2106284
-4.104574	sheer	-0.1310384
-4.104574	sheet	-0.1310384
-3.897423	sheets	-0.2277061
-3.978108	shelf	-0.1310384
-4.104574	shelter	-0.1310384
-3.978108	shelves	-0.1310384
-4.104574	shepherd	-0.1310384
-4.104574	shepherding	-0.1310384
-4.104574	shepherds	-0.1310384
-3.897423	shines	-0.1766882
-3.897423	shining	-0.1930372
-4.104574	shinning	-0.1310384
-4.104574	shiny	-0.1310384
-3.175241	shirt	-0.1902668
-4.104574	shirtless	-0.1310384
-3.978108	shirts	-0.1310384
-3.978108	shoe	-0.1310384
-3.897423	shoes	-0.1310384
-3.897423	shop	-0.3200621
-4.104574	shoppers	-0.1310384
-3.742862	shopping	-0.1766882
-4.104574	shops	-0.1310384
-3.978108	shore	-0.1310384
-3.742862	short	-0.1310384
-4.104574	shorts	-0.1310384
-4.104574	shortstop	-0.1310384
-3.464485	shot	-0.2238888
-4.104574	shots	-0.1310384
-3.978108	should	-0.1310384
-4.104574	shouldnt	-0.1310384
-3.897423	show	-0.1609324
-4.104574	showcase	-0.1310384
-3.897423	showed	-0.1310384
-3.464485	shower	-0.2623952
-3.080728	showing	-0.2176956
-3.978108	shown	-0.1310384
-4.104574	showroom	-0.1310384
-2.917465	shows	-0.3469005
-4.104574	shredded	-0.1310384
-4.104574	shrimp	-0.1310384
-3.978108	shuttle	-0.1310384
-4.104574	siamese	-0.1310384
-3.003151	side	-0.3229105
-4.104574	sidebyside	-0.1310384
-3.464485	sidewalk	-0.2251534
-4.104574	sigh	-0.1310384
-3.978108	sight	-0.1310384
-4.104574	sights	-0.1310384
-2.845931	sign	-0.3132242
-3.978108	signage	-0.1310384
-4.104574	signal	-0.1310384
-4.104574	signaled	-0.1310384
-4.104574	signifies	-0.1310384
-3.110005	signs	-0.2966838
-4.104574	siking	-0.1310384
-4.104574	silk	-0.1310384
-4.104574	sill	-0.1310384
-4.104574	silly	-0.1310384
-3.978108	silver	-0.1671663
-4.104574	silverware	-0.1310384
-3.978108	simple	-0.1310384
-4.104574	simplicity	-0.1310384
-3.978108	simply	-0.1310384
-4.104574	sing	-0.1310384
-4.104574	singing	-0.1310384
-3.897423	single	-0.1310384
-4.104574	sings	-0.1310384
-3.003151	sink	-0.4325299
-3.978108	sinks	-0.1310384
-4.104574	sipping	-0.1310384
-2.898447	sit	-0.4632885
-3.978108	site	-0.1310384
-4.104574	siting	-0.1310384
-2.471774	sits	-0.5201839
-2.315494	sitting	-0.7153962
-4.104574	situated	-0.1310384
-3.897423	six	-0.1310384
-3.978108	size	-0.1310384
-4.104574	sizes	-0.1310384
-3.978108	skate	-0.1930372
-3.0533	skateboard	-0.2826236
-4.104574	skateboarded	-0.1310384
-3.742862	skateboarder	-0.1310384
-3.53904	skateboarding	-0.1609324
-3.629102	skateboards	-0.1609324
-4.104574	skatebording	-0.1310384
-4.104574	skater	-0.1310384
-4.104574	skates	-0.1310384
-3.897423	skating	-0.1310384
-4.104574	skeleton	-0.1310384
-3.080728	ski	-0.2310642
-4.104574	skied	-0.1310384
-3.742862	skier	-0.1487268
-3.464485	skiers	-0.1310384
-3.978108	skies	-0.2277061
-4.104574	skiier	-0.1310384
-4.104574	skiiers	-0.1310384
-4.104574	skiiing	-0.1310384
-3.0533	skiing	-0.3767698
-4.104574	skilled	-0.1310384
-4.104574	skillet	-0.1310384
-4.104574	skillful	-0.1310384
-3.897423	skirt	-0.1310384
-3.0533	skis	-0.2221125
-3.080728	sky	-0.4169545
-3.978108	skyline	-0.1766882
-4.104574	skyscraper	-0.1310384
-4.104574	slab	-0.1310384
-4.104574	slack	-0.1310384
-3.978108	sleek	-0.1310384
-3.978108	sleep	-0.2277061
-3.464485	sleeping	-0.1864236
-3.978108	sleeps	-0.1930372
-4.104574	sleeves	-0.1310384
-3.742862	slice	-0.4450008
-3.978108	sliced	-0.1310384
-3.897423	slices	-0.1310384
-4.104574	slide	-0.1310384
-4.104574	sliding	-0.1310384
-4.104574	slightly	-0.1310384
-4.104574	slim	-0.1310384
-3.53904	slope	-0.2535395
-3.978108	slopes	-0.1766882
-3.978108	slow	-0.1310384
-4.104574	slowing	-0.1310384
-4.104574	slumber	-0.1310384
-3.296216	small	-0.1533463
-4.104574	smart	-0.1310384
-4.104574	smelling	-0.1310384
-3.742862	smile	-0.2343665
-3.629102	smiles	-0.1310384
-3.141399	smiling	-0.1996844
-4.104574	smirking	-0.1310384
-3.897423	smoke	-0.1310384
-3.978108	smoking	-0.2277061
-3.978108	smooth	-0.1310384
-4.104574	smoothly	-0.1310384
-4.104574	smothered	-0.1310384
-3.978108	snacks	-0.1310384
-4.104574	sniffing	-0.1310384
-4.104574	sniffs	-0.1310384
-3.175241	snow	-0.2433498
-3.629102	snowboard	-0.1994679
-3.897423	snowboarder	-0.1310384
-3.978108	snowboarders	-0.1310384
-3.3454	snowboarding	-0.2695561
-4.104574	snowboards	-0.1310384
-3.897423	snowy	-0.1757024
-4.104574	snuggling	-0.1310384
-3.296216	so	-0.1671663
-3.464485	soccer	-0.1713725
-4.104574	socializing	-0.1310384
-4.104574	socks	-0.1310384
-3.978108	soda	-0.1310384
-3.629102	sofa	-0.207782
-3.978108	sofas	-0.1310384
-3.978108	soft	-0.1310384
-3.978108	softball	-0.1310384
-3.978108	sold	-0.1310384
-4.104574	soldiers	-0.1310384
-4.104574	solitary	-0.1310384
-2.582236	some	-0.2268742
-3.629102	someone	-0.1310384
-3.897423	someones	-0.1310384
-3.53904	something	-0.1609324
-4.104574	somewhat	-0.1310384
-4.104574	somewhere	-0.1310384
-4.104574	son	-0.1310384
-4.104574	sons	-0.1310384
-4.104574	sort	-0.1310384
-4.104574	sorting	-0.1310384
-4.104574	soup	-0.1310384
-3.629102	space	-0.1507374
-4.104574	spaces	-0.1310384
-4.104574	spacious	-0.1310384
-3.978108	spanish	-0.1310384
-4.104574	sparkling	-0.1310384
-4.104574	speak	-0.1310384
-4.104574	speaker	-0.1310384
-4.104574	species	-0.1310384
-3.629102	spectators	-0.1310384
-3.978108	speed	-0.1310384
-4.104574	speeding	-0.1310384
-4.104574	speeds	-0.1310384
-4.104574	spelling	-0.1310384
-4.104574	spend	-0.1310384
-3.897423	spending	-0.1930372
-4.104574	spent	-0.1310384
-4.104574	spices	-0.1310384
-4.104574	spire	-0.1310384
-4.104574	splashing	-0.1310384
-4.104574	splendid	-0.1310384
-3.978108	split	-0.1310384
-3.897423	spoon	-0.1930372
-3.978108	sport	-0.1310384
-3.978108	sporting	-0.1310384
-4.104574	sports	-0.1310384
-4.104574	sportsmen	-0.1310384
-3.464485	spot	-0.2184036
-4.104574	spotlessly	-0.1310384
-4.104574	spotlight	-0.1310384
-4.104574	spraying	-0.1310384
-4.104574	sprays	-0.1310384
-3.978108	spread	-0.1310384
-4.104574	spreading	-0.1310384
-3.897423	square	-0.1310384
-4.104574	st	-0.1310384
-3.897423	stack	-0.3200621
-4.104574	stacked	-0.1310384
-3.897423	stadium	-0.1671663
-4.104574	staffer	-0.1310384
-4.104574	stage	-0.1310384
-4.104574	stained	-0.1310384
-3.629102	stainless	-0.5419108
-3.897423	stairs	-0.1671662
-4.104574	stairway	-0.1310384
-3.897423	stall	-0.1671663
-4.104574	stalls	-0.1310384
-2.980093	stand	-0.3280145
-2.485936	standing	-0.7015722
-2.671709	stands	-0.4581938
-4.104574	starbucks	-0.1310384
-4.104574	stared	-0.1310384
-3.897423	staring	-0.1310384
-4.104574	start	-0.1310384
-4.104574	starting	-0.1310384
-4.104574	starts	-0.1310384
-4.104574	state	-0.1310384
-4.104574	stately	-0.1310384
-4.104574	states	-0.1310384
-4.104574	stating	-0.1310384
-3.629102	station	-0.1749869
-3.897423	statue	-0.1766882
-3.897423	statues	-0.1310384
-3.897423	stay	-0.1310384
-4.104574	staying	-0.1310384
-3.897423	steak	-0.1766882
-4.104574	steams	-0.1310384
-3.897423	steel	-0.1565337
-4.104574	steep	-0.1310384
-4.104574	steeple	-0.1310384
-4.104574	steeples	-0.1310384
-4.104574	steer	-0.1310384
-3.978108	steps	-0.1310384
-4.104574	stetching	-0.1310384
-4.104574	stew	-0.1310384
-3.978108	stick	-0.1310384
-4.104574	sticker	-0.1310384
-4.104574	stickers	-0.1310384
-3.629102	sticking	-0.251922
-3.978108	sticks	-0.1310384
-3.3454	still	-0.2040486
-4.104574	stir	-0.1310384
-3.978108	stocked	-0.1310384
-3.978108	stockings	-0.2277061
-3.897423	stone	-0.1310384
-4.104574	stoop	-0.1310384
-3.25204	stop	-0.3274805
-3.400874	stopped	-0.2645558
-4.104574	stopping	-0.1310384
-3.978108	stops	-0.1310384
-3.464485	store	-0.2786492
-4.104574	stored	-0.1310384
-3.897423	stores	-0.3200621
-4.104574	stories	-0.1310384
-3.53904	stove	-0.2311456
-4.104574	stoves	-0.1310384
-4.104574	strapped	-0.1310384
-4.104574	straps	-0.1310384
-4.104574	strawberries	-0.1310384
-4.104574	streak	-0.1310384
-3.978108	stream	-0.1310384
-4.104574	streaming	-0.1310384
-2.718277	street	-0.4540302
-4.104574	streetlight	-0.1310384
-3.978108	streets	-0.1310384
-4.104574	strength	-0.1310384
-3.742862	stretches	-0.1766882
-3.897423	stretching	-0.2277061
-4.104574	strike	-0.1310384
-4.104574	string	-0.1310384
-4.104574	strip	-0.1310384
-3.978108	striped	-0.1310384
-4.104574	strips	-0.1310384
-4.104574	strolls	-0.1310384
-3.400874	strong	-0.2113372
-3.978108	structure	-0.1310384
-3.978108	stuck	-0.1310384
-3.897423	student	-0.1310384
-3.978108	students	-0.1310384
-4.104574	study	-0.1310384
-4.104574	studying	-0.1310384
-4.104574	stuff	-0.1310384
-3.464485	stuffed	-0.1979754
-3.978108	stump	-0.1310384
-4.104574	stunded	-0.1310384
-4.104574	stunned	-0.1310384
-4.104574	stunts	-0.1310384
-4.104574	sturdy	-0.1310384
-3.629102	style	-0.1310384
-3.897423	styled	-0.1310384
-3.897423	stylish	-0.1310384
-3.978108	subway	-0.1310384
-3.742862	successful	-0.1671663
-3.080728	such	-0.4384865
-4.104574	sugar	-0.1310384
-4.104574	sugared	-0.1310384
-4.104574	sugary	-0.1310384
-3.897423	suit	-0.1585584
-3.629102	suitcase	-0.2822933
-3.897423	suitcases	-0.1766882
-3.978108	suits	-0.1310384
-4.104574	sumatra	-0.1310384
-3.897423	summer	-0.1930372
-3.629102	sun	-0.2311456
-4.104574	sunbathers	-0.1310384
-4.104574	sunbathing	-0.1310384
-4.104574	sunday	-0.1310384
-3.978108	sunglasses	-0.1310384
-4.104574	sunlight	-0.1310384
-2.958198	sunny	-0.3195047
-4.104574	sunrise	-0.1310384
-3.464485	sunset	-0.3103268
-4.104574	sunshine	-0.1310384
-4.104574	suntan	-0.1310384
-3.175241	super	-0.2930372
-4.104574	supercolorful	-0.1310384
-3.742862	superior	-0.4450008
-4.104574	supermarket	-0.1310384
-4.104574	supper	-0.1310384
-3.742862	supplies	-0.1310384
-4.104574	support	-0.1310384
-3.742862	sure	-0.1310384
-3.3454	surf	-0.2949322
-3.897423	surface	-0.1930372
-3.3454	surfboard	-0.2250627
-3.464485	surfboards	-0.1310384
-3.897423	surfer	-0.1470886
-3.464485	surfers	-0.1310384
-3.175241	surfing	-0.4139982
-3.629102	surfs	-0.2022534
-4.104574	surly	-0.1310384
-4.104574	surmises	-0.1310384
-4.104574	surround	-0.1310384
-3.110005	surrounded	-0.838587
-3.742862	surrounding	-0.1766882
-4.104574	suspended	-0.1310384
-4.104574	sustains	-0.1310384
-3.742862	sweater	-0.1671662
-3.211945	sweet	-0.2747271
-3.978108	swim	-0.1310384
-3.742862	swimming	-0.1766882
-3.742862	swing	-0.1766882
-3.400874	swinging	-0.4371952
-3.629102	swings	-0.1930372
-4.104574	swooping	-0.1310384
-4.104574	symbol	-0.1310384
-4.104574	syrup	-0.1310384
-4.104574	system	-0.1310384
-4.104574	t	-0.1310384
-2.829747	table	-0.3107708
-3.978108	tablecloth	-0.2277061
-3.53904	tables	-0.251922
-4.104574	tabletop	-0.1310384
-4.104574	tag	-0.1310384
-3.978108	tags	-0.2277061
-4.104574	tail	-0.1310384
-3.3454	take	-0.2475376
-3.897423	taken	-0.1609324
-4.104574	takeoff	-0.1310384
-3.400874	takes	-0.2113372
-2.917465	taking	-0.5587508
-4.104574	talented	-0.1310384
-3.897423	talk	-0.1310384
-3.742862	talking	-0.2645558
-3.978108	talks	-0.1930372
-3.296216	tall	-0.2342894
-3.978108	tan	-0.1310384
-4.104574	tangled	-0.1310384
-3.978108	tank	-0.1930372
-4.104574	tap	-0.1310384
-4.104574	tape	-0.1310384
-4.104574	tapping	-0.1310384
-4.104574	tarmac	-0.1310384
-4.104574	taste	-0.1310384
-4.104574	tasted	-0.1310384
-4.104574	tastes	-0.1310384
-3.110005	tasty	-0.4865702
-3.978108	taxi	-0.1310384
-4.104574	taxiis	-0.1310384
-4.104574	taxis	-0.1310384
-4.104574	tea	-0.1310384
-4.104574	teachers	-0.1310384
-3.897423	teaching	-0.1930372
-3.629102	team	-0.1930372
-3.978108	teams	-0.1310384
-4.104574	teath	-0.1310384
-4.104574	technique	-0.1310384
-3.978108	technology	-0.1310384
-4.104574	teddies	-0.1310384
-3.3454	teddy	-0.4961534
-4.104574	tee	-0.1310384
-4.104574	teenage	-0.1310384
-4.104574	teenagers	-0.1310384
-3.978108	teeth	-0.1609324
-4.104574	teethes	-0.1310384
-4.104574	telephone	-0.1310384
-3.629102	television	-0.2311456
-4.104574	tell	-0.1310384
-4.104574	tells	-0.1310384
-4.104574	temporary	-0.1310384
-4.104574	ten	-0.1310384
-4.104574	tending	-0.1310384
-2.845931	tennis	-0.3530223
-3.897423	tents	-0.1310384
-4.104574	terminal	-0.1310384
-4.104574	terminals	-0.1310384
-4.104574	terrain	-0.1310384
-3.978108	text	-0.1310384
-3.978108	texting	-0.1310384
-4.104574	texts	-0.1310384
-3.296216	than	-0.2210293
-4.104574	thank	-0.1310384
-4.104574	thanks	-0.1310384
-2.208341	that	-0.4663491
-3.742862	thats	-0.1310384
-1.923445	the	-0.3430053
-2.706159	their	-0.2048576
-3.25204	them	-0.3103268
-4.104574	themselves	-0.1310384
-2.980093	there	-0.2949322
-4.104574	theres	-0.1310384
-4.104574	thermometer	-0.1310384
-3.464485	these	-0.1445804
-3.175241	they	-0.1389894
-4.104574	thick	-0.1310384
-3.400874	thing	-0.2438387
-4.104574	things	-0.1310384
-3.629102	think	-0.1310384
-4.104574	thinks	-0.1310384
-4.104574	third	-0.1310384
-2.718277	this	-0.227204
-3.897423	those	-0.1310384
-3.978108	though	-0.1310384
-4.104574	thought	-0.1310384
-4.104574	thoughtful	-0.1310384
-3.211945	three	-0.1646196
-4.104574	threw	-0.1310384
-4.104574	thrives	-0.1310384
-2.508084	through	-0.6573393
-4.104574	throughout	-0.1310384
-4.104574	throw	-0.1310384
-4.104574	throwin	-0.1310384
-3.464485	throwing	-0.3914377
-3.897423	throws	-0.1930372
-4.104574	thru	-0.1310384
-4.104574	tidy	-0.1310384
-3.25204	tie	-0.3436572
-3.629102	tied	-0.3599147
-3.978108	ties	-0.2277061
-3.53904	tile	-0.1713725
-3.897423	tiled	-0.1310384
-3.897423	tiles	-0.1310384
-4.104574	till	-0.1310384
-3.003151	time	-0.2273552
-3.978108	times	-0.2277061
-3.978108	tin	-0.1310384
-1.891168	to	-0.4069997
-3.897423	toast	-0.1930372
-3.629102	today	-0.2807335
-4.104574	toddler	-0.1310384
-4.104574	toddlers	-0.1310384
-4.104574	togehter	-0.1310384
-2.743579	together	-0.5562622
-3.175241	toilet	-0.2815682
-3.742862	toilets	-0.1310384
-4.104574	toliet	-0.1310384
-4.104574	tongue	-0.1310384
-3.978108	tonight	-0.2277061
-4.104574	too	-0.1310384
-3.400874	took	-0.4384865
-3.978108	tools	-0.1310384
-3.897423	toothbrush	-0.1930372
-3.296216	top	-0.2546212
-4.104574	tope	-0.1310384
-3.897423	topped	-0.3200621
-3.897423	topping	-0.1310384
-3.978108	toppings	-0.1310384
-4.104574	tops	-0.1310384
-4.104574	toss	-0.1310384
-4.104574	tosses	-0.1310384
-4.104574	tossing	-0.1310384
-3.978108	touching	-0.1310384
-4.104574	tough	-0.1310384
-3.53904	tour	-0.2153465
-3.978108	tourist	-0.1310384
-3.978108	tourists	-0.1310384
-4.104574	tow	-0.1310384
-3.742862	toward	-0.2153465
-3.175241	towards	-0.4394111
-4.104574	towed	-0.1310384
-3.742862	towels	-0.1766882
-3.3454	tower	-0.2681789
-4.104574	towering	-0.1310384
-3.141399	town	-0.3640431
-4.104574	townhouses	-0.1310384
-3.3454	toy	-0.1959529
-3.742862	toys	-0.1766882
-3.53904	track	-0.2059119
-3.53904	tracks	-0.290445
-4.104574	traditional	-0.1310384
-3.003151	traffic	-0.2313051
-3.897423	trail	-0.1310384
-4.104574	trailer	-0.1310384
-4.104574	trails	-0.1310384
-2.682891	train	-0.3187957
-3.53904	trains	-0.1310384
-4.104574	tram	-0.1310384
-3.211945	tranquil	-0.4328217
-4.104574	transit	-0.1310384
-4.104574	transmits	-0.1310384
-4.104574	transparent	-0.1310384
-4.104574	transport	-0.1310384
-4.104574	transportation	-0.1310384
-4.104574	transported	-0.1310384
-3.53904	travel	-0.1671663
-4.104574	traveled	-0.1310384
-4.104574	travelers	-0.1310384
-3.296216	traveling	-0.3460358
-3.978108	travelling	-0.1766882
-3.629102	travels	-0.3614658
-4.104574	traverse	-0.1310384
-4.104574	traversed	-0.1310384
-3.742862	tray	-0.2153465
-4.104574	trays	-0.1310384
-4.104574	treachery	-0.1310384
-4.104574	treat	-0.1310384
-4.104574	treating	-0.1310384
-3.141399	tree	-0.3040833
-4.104574	treelined	-0.1310384
-3.003151	trees	-0.6041045
-3.464485	trick	-0.2534649
-3.3454	tricks	-0.3485895
-3.897423	tries	-0.1930372
-4.104574	trim	-0.1310384
-4.104574	trimmed	-0.1310384
-3.53904	trip	-0.1609324
-3.978108	trolley	-0.1310384
-4.104574	trolly	-0.1310384
-4.104574	tropical	-0.1310384
-4.104574	trough	-0.1310384
-2.917465	truck	-0.2714603
-3.53904	trucks	-0.1926862
-4.104574	trumpet	-0.1310384
-4.104574	trunk	-0.1310384
-4.104574	try	-0.1310384
-3.464485	trying	-0.5075939
-4.104574	tshirt	-0.1310384
-4.104574	tto	-0.1310384
-3.629102	tub	-0.2725383
-4.104574	tubes	-0.1310384
-4.104574	tubman	-0.1310384
-4.104574	tuck	-0.1310384
-3.978108	tucking	-0.1310384
-4.104574	tucks	-0.1310384
-4.104574	tug	-0.1310384
-3.897423	turkey	-0.1310384
-3.53904	turn	-0.1930372
-3.897423	turned	-0.1310384
-4.104574	turning	-0.1310384
-3.897423	turns	-0.1930372
-4.104574	turtle	-0.1310384
-3.400874	tv	-0.3346758
-3.978108	twilight	-0.2277061
-4.104574	twins	-0.1310384
-2.671709	two	-0.1986644
-4.104574	twoyearolds	-0.1310384
-3.978108	type	-0.2277061
-3.897423	types	-0.1930372
-4.104574	typical	-0.1310384
-3.897423	typing	-0.1930372
-4.104574	typists	-0.1310384
-4.104574	ultimate	-0.1310384
-3.080728	umbrella	-0.2912692
-3.211945	umbrellas	-0.2991981
-4.104574	umpire	-0.1310384
-4.104574	unattended	-0.1310384
-2.814146	under	-0.5634252
-4.104574	undercover	-0.1310384
-4.104574	underestimated	-0.1310384
-3.742862	underneath	-0.2645558
-4.104574	underside	-0.1310384
-4.104574	undoubtedly	-0.1310384
-4.104574	unform	-0.1310384
-3.897423	uniform	-0.1671663
-3.897423	unique	-0.1310384
-4.104574	united	-0.1310384
-4.104574	unknown	-0.1310384
-4.104574	unloading	-0.1310384
-4.104574	unmade	-0.1310384
-4.104574	unny	-0.1310384
-4.104574	unseen	-0.1310384
-4.104574	unused	-0.1310384
-2.508084	up	-0.3918311
-4.104574	updated	-0.1310384
-3.25204	upon	-0.3567063
-4.104574	upright	-0.1310384
-4.104574	upscale	-0.1310384
-3.978108	upside	-0.2277061
-4.104574	uptodate	-0.1310384
-4.104574	upward	-0.1310384
-4.104574	urban	-0.1310384
-4.104574	urinal	-0.1310384
-3.629102	us	-0.1310384
-3.897423	use	-0.1310384
-3.400874	used	-0.1310384
-3.400874	uses	-0.1930372
-3.296216	using	-0.1787922
-4.104574	utensil	-0.1310384
-4.104574	utensils	-0.1310384
-4.104574	v8	-0.1310384
-4.104574	vacant	-0.1310384
-4.104574	vacation	-0.1310384
-4.104574	valley	-0.1310384
-4.104574	value	-0.1310384
-3.978108	van	-0.1310384
-4.104574	vandalized	-0.1310384
-3.897423	vanity	-0.1310384
-4.104574	vapor	-0.1310384
-3.742862	variety	-0.2645558
-3.53904	various	-0.1310384
-3.25204	vase	-0.3063315
-4.104574	vases	-0.1310384
-4.104574	vat	-0.1310384
-4.104574	vegetable	-0.1310384
-3.211945	vegetables	-0.2535395
-3.978108	veggies	-0.1930372
-3.978108	vehicle	-0.1310384
-3.53904	vehicles	-0.2324531
-4.104574	venders	-0.1310384
-4.104574	version	-0.1310384
-3.175241	very	-0.146608
-4.104574	vibrantly	-0.1310384
-3.897423	victorian	-0.1930372
-4.104574	victory	-0.1310384
-3.742862	video	-0.2645558
-4.104574	videogame	-0.1310384
-2.845931	view	-0.4728906
-4.104574	viewer	-0.1310384
-4.104574	viewing	-0.1310384
-4.104574	vines	-0.1310384
-3.464485	vintage	-0.1547867
-3.978108	visible	-0.1310384
-3.978108	visit	-0.1766882
-4.104574	visiting	-0.1310384
-4.104574	visitors	-0.1310384
-4.104574	visits	-0.1310384
-4.104574	volleyball	-0.1310384
-4.104574	voted	-0.1310384
-4.104574	vw	-0.1310384
-4.104574	waffles	-0.1310384
-4.104574	wagon	-0.1310384
-3.629102	wait	-0.3188688
-3.897423	waited	-0.1310384
-2.980093	waiting	-0.3781022
-3.53904	waits	-0.1565337
-3.978108	wake	-0.1310384
-3.978108	wakeboard	-0.1310384
-2.958198	walk	-0.3200794
-4.104574	walked	-0.1310384
-2.880227	walking	-0.3593936
-3.027502	walks	-0.2391739
-4.104574	walkway	-0.1310384
-3.175241	wall	-0.3026022
-4.104574	walled	-0.1310384
-3.3454	walls	-0.3614658
-4.104574	wandering	-0.1310384
-3.897423	want	-0.1930372
-3.978108	wants	-0.1310384
-4.104574	warehouse	-0.1310384
-3.978108	warm	-0.1310384
-4.104574	warming	-0.1310384
-3.978108	warmly	-0.1310384
-4.104574	warning	-0.1310384
-2.547708	was	-0.2644056
-3.978108	washing	-0.2277061
-4.104574	wasnt	-0.1310384
-3.53904	watch	-0.207782
-4.104574	watched	-0.1310384
-3.464485	watches	-0.1637549
-2.937354	watching	-0.3411933
-2.898447	water	-0.3190911
-4.104574	watergun	-0.1310384
-3.978108	watering	-0.1930372
-3.978108	waters	-0.1310384
-4.104574	waterway	-0.1310384
-3.464485	wave	-0.2628658
-4.104574	waveless	-0.1310384
-3.400874	waves	-0.3103268
-4.104574	waving	-0.1310384
-4.104574	wavy	-0.1310384
-2.917465	way	-0.3976513
-4.104574	ways	-0.1310384
-3.897423	we	-0.1310384
-4.104574	wealth	-0.1310384
-4.104574	wear	-0.1310384
-2.898447	wearing	-0.5056453
-3.464485	wears	-0.5655858
-3.978108	weather	-0.1310384
-4.104574	weaving	-0.1310384
-3.897423	wedding	-0.1609324
-4.104574	wedges	-0.1310384
-4.104574	weeds	-0.1310384
-4.104574	week	-0.1310384
-3.296216	welcome	-0.2866841
-4.104574	welcomed	-0.1310384
-3.400874	well	-0.1532638
-4.104574	wellappointed	-0.1310384
-4.104574	wellbuilt	-0.1310384
-4.104574	wellmaintained	-0.1310384
-3.978108	went	-0.1310384
-3.400874	were	-0.1310384
-4.104574	west	-0.1310384
-3.978108	wet	-0.1310384
-3.978108	wetsuit	-0.1310384
-3.25204	what	-0.1830168
-4.104574	wheat	-0.1310384
-3.742862	wheel	-0.1766882
-4.104574	wheelers	-0.1310384
-4.104574	wheels	-0.1310384
-3.0533	when	-0.2236803
-3.211945	where	-0.200114
-2.917465	which	-0.3544988
-4.104574	whil	-0.1310384
-2.325327	while	-0.3252179
-4.104574	whiskey	-0.1310384
-2.799085	white	-0.1691546
-3.141399	who	-0.299787
-4.104574	whole	-0.1310384
-4.104574	wholesome	-0.1310384
-4.104574	whose	-0.1310384
-4.104574	why	-0.1310384
-3.978108	wicker	-0.1310384
-3.897423	wide	-0.1310384
-4.104574	wideeyed	-0.1310384
-4.104574	wife	-0.1310384
-3.629102	wii	-0.1879408
-3.978108	wild	-0.1310384
-4.104574	wildebeest	-0.1310384
-4.104574	wilderness	-0.1310384
-3.400874	will	-0.1507374
-4.104574	willing	-0.1310384
-3.897423	win	-0.1310384
-4.104574	wind	-0.1310384
-4.104574	winding	-0.1310384
-3.110005	window	-0.2810328
-3.3454	windows	-0.2305704
-4.104574	windowsill	-0.1310384
-4.104574	windshield	-0.1310384
-4.104574	windsurfs	-0.1310384
-3.25204	wine	-0.2745111
-3.978108	wines	-0.1310384
-3.978108	wings	-0.1310384
-4.104574	winning	-0.1310384
-3.53904	winter	-0.1609324
-4.104574	wipeout	-0.1310384
-4.104574	wipes	-0.1310384
-3.978108	wiping	-0.1310384
-4.104574	wires	-0.1310384
-3.978108	wish	-0.1310384
-1.727035	with	-0.4963264
-3.897423	within	-0.1766882
-3.978108	without	-0.1310384
-3.080728	woman	-0.2351205
-4.104574	womans	-0.1310384
-3.464485	women	-0.1713725
-4.104574	won	-0.1310384
-4.104574	wonder	-0.1310384
-2.980093	wonderful	-0.3879052
-4.104574	wondering	-0.1310384
-4.104574	wondrously	-0.1310384
-3.400874	wood	-0.1699744
-3.464485	wooden	-0.1470886
-3.742862	woods	-0.2645558
-3.141399	work	-0.1820698
-4.104574	worked	-0.1310384
-3.897423	worker	-0.1836197
-3.897423	workers	-0.1310384
-3.25204	working	-0.2866841
-4.104574	workplace	-0.1310384
-3.897423	works	-0.1766882
-4.104574	workshop	-0.1310384
-4.104574	workstations	-0.1310384
-4.104574	world	-0.1310384
-3.175241	would	-0.2184036
-4.104574	wrinkly	-0.1310384
-4.104574	writes	-0.1310384
-4.104574	wrought	-0.1310384
-3.3454	yard	-0.3153135
-4.104574	yarn	-0.1310384
-4.104574	yearbook	-0.1310384
-3.978108	years	-0.1310384
-4.104574	yell	-0.1310384
-3.175241	yellow	-0.1755866
-4.104574	yesterday	-0.1310384
-3.978108	yet	-0.1310384
-4.104574	yogurt	-0.1310384
-4.104574	york	-0.1310384
-3.25204	you	-0.1628257
-3.110005	young	-0.2643577
-4.104574	younger	-0.1310384
-3.629102	your	-0.1310384
-4.104574	yummy	-0.1310384
-3.464485	zebra	-0.1609324
-3.3454	zebras	-0.1830169
-4.104574	zips	-0.1310384
-3.978108	zone	-0.1310384
-4.104574	zones	-0.1310384
-3.978108	zoo	-0.1766882
-4.104574	zookeeper	-0.1310384
-4.104574	zookeepers	-0.1310384

\2-grams:
-1.237203	1 a
-1.361474	1 amidst
-1.34887	1 one
-1.282072	1 the
-1.328767	1 while
-1.361474	1 within
-0.5841619	18 wheelers
-0.5831029	1some healthy
-0.8793283	2 a
-1.678141	2 clock
-1.43223	2 in
-1.674813	2 one
-1.693788	2 players
-1.639792	2 sitting
-0.8946759	2 the
-1.201691	2 within
-0.5841619	20th century
-0.5841619	25th st
-0.5821055	2the man
-1.298451	3 </s>
-0.5759077	3 a
-1.729366	3 effortlessly
-1.729366	3 firetrucks
-1.463303	3 in
-1.697636	3 some
-1.187531	3 the
-1.725948	3 these
-1.536929	3 with
-0.5841292	300 years
-0.5792586	4 beautiful
-0.5192044	40s </s>
-0.5823712	41 bus
-2.707973	<s> 1	-0.2092842
-4.243237	<s> 1some
-4.078303	<s> 2
-4.051396	<s> 3
-0.2087188	<s> a	-0.7660159
-3.24786	<s> adorable	-0.1978867
-4.23339	<s> adults
-3.717284	<s> after
-3.947475	<s> against
-4.243237	<s> agood
-4.122074	<s> air
-3.97943	<s> all
-3.764464	<s> although
-2.647082	<s> amazing	-0.317229
-4.188277	<s> among
-1.271459	<s> an	-0.5869634
-4.170756	<s> animal
-4.153915	<s> antique
-4.206534	<s> any
-3.421889	<s> as
-4.225593	<s> asian
-4.243237	<s> asparagus
-4.243237	<s> asparragus
-3.245646	<s> at
-2.61555	<s> awesome	-0.3719454
-4.092409	<s> bananas
-2.265457	<s> beautiful	-0.1337892
-4.153915	<s> bedroom
-4.092409	<s> before
-3.113772	<s> best
-4.243237	<s> beyond
-4.051396	<s> big
-4.106988	<s> bikes
-4.026059	<s> bird
-3.97943	<s> birds
-2.997414	<s> black	-0.3333782
-3.634944	<s> blue
-3.693756	<s> boats
-3.7618	<s> body	-0.1978866
-4.23339	<s> bold
-4.23339	<s> bottom
-4.188277	<s> bowls
-3.723371	<s> boy
-4.137703	<s> bread
-4.170756	<s> brightly
-4.026059	<s> brown
-3.634944	<s> building	-0.1978866
-3.889857	<s> bus
-4.092409	<s> buses
-3.430183	<s> busy
-3.331053	<s> by
-3.682454	<s> calm
-3.446074	<s> cars
-4.002119	<s> cat
-4.064641	<s> chairs
-4.122074	<s> charming
-3.755154	<s> childs	-0.1978866
-4.243237	<s> china
-4.243237	<s> chinese
-4.23339	<s> chopped
-4.23339	<s> class
-3.660694	<s> clear	-0.1978866
-3.610635	<s> clock	-0.1978866
-3.735807	<s> clocks	-0.1978866
-4.243237	<s> coca
-3.264584	<s> colorful
-4.243237	<s> commericial
-4.153915	<s> couple
-4.137703	<s> cow
-4.23339	<s> cowboy
-3.455895	<s> cows
-4.206534	<s> craft
-3.24175	<s> delicious	-0.07478852
-4.092409	<s> desk
-3.7618	<s> despite
-4.243237	<s> diet
-3.711282	<s> different	-0.1978866
-3.489931	<s> dozens	-0.2424678
-4.051396	<s> elephant
-4.013924	<s> elephants
-4.170756	<s> empty
-3.645061	<s> enjoying
-3.748609	<s> even
-4.23339	<s> everyone
-4.092409	<s> excellent
-3.735807	<s> excited	-0.1978866
-4.153915	<s> expensive
-4.170756	<s> facing
-4.23339	<s> families
-4.225593	<s> fedex
-3.755154	<s> fighter	-0.1978866
-4.064641	<s> fine
-4.23339	<s> football
-3.43293	<s> for
-2.939676	<s> four
-4.137703	<s> french
-3.742161	<s> friendly	-0.1978866
-4.122074	<s> friends
-3.658371	<s> from
-4.122074	<s> front
-4.206534	<s> fruits
-4.206534	<s> gentle
-4.013924	<s> giraffes
-4.002119	<s> girl
-2.50927	<s> good	-0.1387966
-2.404816	<s> great	-0.2188238
-4.106988	<s> group
-4.243237	<s> groups
-4.206534	<s> guys
-4.106988	<s> half
-2.735896	<s> happy	-0.2513473
-4.026059	<s> having
-2.743534	<s> he	-0.1524796
-4.225593	<s> heading
-3.671438	<s> healthy	-0.1978866
-4.23339	<s> herds
-3.479713	<s> here	-0.2424678
-4.243237	<s> hippies
-3.403897	<s> his
-4.078303	<s> horses
-2.333974	<s> i	-0.1078264
-3.243777	<s> important	-0.3674065
-2.379658	<s> in	-0.2757643
-2.651735	<s> interesting	-0.5434977
-1.887815	<s> it	-0.8817683
-3.100425	<s> its	-0.2637502
-4.225593	<s> jar
-4.122074	<s> kites
-4.225593	<s> ladies
-4.038543	<s> lady
-3.249915	<s> large
-4.122074	<s> little
-4.038543	<s> living
-4.122074	<s> long
-3.767784	<s> longhorn	-0.1978866
-3.990626	<s> look
